2485 128
35 -0.1549067 -0.27094418 -0.08227995 0.33771762 0.32138562 0.008203623 -0.105386816 -0.45660886 0.2006759 0.077526316 -0.02718333 -0.27948654 0.47443157 0.109078 -0.10768901 0.27204087 -0.15822352 -0.19789658 -0.033438243 -0.22626911 -0.2855721 -0.00032507005 -0.22143799 -0.17658162 0.27745712 0.5388451 -0.01796799 -0.3289095 -0.122263536 -0.0690813 0.24992402 -0.13081531 0.6784247 0.122175634 -0.25773898 0.08725884 0.2816349 0.21539555 0.34768414 -0.04368333 -0.36794227 -0.15194528 0.3144397 0.077736914 -0.32386866 -0.14581677 -0.18467881 0.44497642 -0.12126289 0.51275545 -0.13110183 0.9719626 -0.016807776 -0.044623453 -0.016438432 0.20069687 0.09809637 -0.051596522 0.04686566 0.10947509 0.008504515 0.19932547 -0.17852348 -0.4955534 0.077000365 -0.2881328 -0.3607221 0.35739455 0.14043058 0.03672606 0.11673513 0.057298854 -0.08257346 -0.069981396 -0.37231645 -0.11987401 -0.003092211 -0.24607521 0.20403309 0.3651923 0.3673509 0.046962466 0.20383902 -0.039644793 0.049003255 0.3812944 0.49860027 0.22187063 -0.08975153 -0.3182693 -0.15813209 -0.15275498 0.25898632 0.12194441 0.23369583 0.17088917 -0.023959786 -0.4133011 0.12403021 0.41687748 0.2766067 -0.034152634 0.038006023 -0.107001245 -0.2265351 -0.15921822 0.2603853 0.10142036 -0.13907944 0.11188139 -0.098334976 -0.07958776 -0.18225995 -0.2448419 0.18048184 -0.08874159 0.038249344 0.095944665 -0.3615864 0.12779094 -0.2286145 0.09172778 -0.24010146 -0.29492334 -0.54723704 0.4447401 -0.21211435 -0.05637853
1365 0.6770446 -0.48147416 0.2663322 0.12762217 0.28439048 -0.13766928 -0.34843546 0.06723132 -0.40121236 -0.0970623 0.09488852 0.12261415 0.061507154 -0.42262307 -0.23056673 0.63409656 -0.20973714 0.29387304 -0.18159041 -0.14572789 0.25753087 0.12473418 0.0030290745 -0.3851698 0.08266771 0.6745895 0.39853796 -0.04175162 -0.3153198 0.022908142 -0.3007796 -0.107067786 0.3713845 0.054652516 0.16411348 0.019408192 -0.2960586 0.3222397 0.3198896 0.17511413 0.18509248 0.044404123 0.19108428 -0.2801216 0.13647659 -0.053356823 0.4245298 0.042067517 -0.13249244 0.18737552 -0.47922903 0.14550744 -0.09106098 -0.3268095 -0.1512379 -0.08179198 -0.2589222 -0.20189308 -0.010139006 -0.08181027 0.2146021 0.41960272 -0.43250215 -0.15742837 0.5817515 -0.40967986 -0.0024738966 0.30515778 -0.26771086 -0.11080221 0.058092915 0.11581272 -0.50621575 0.13096628 -0.030545408 0.085094035 -0.23110022 0.16496748 0.09709227 -0.37901598 -0.3161464 0.281615 0.17405492 0.2831172 0.028767504 -0.16555482 -0.1057951 0.2631772 0.11759592 -0.1430189 -0.33450365 0.25147995 0.6641687 -0.027236134 -0.16816942 0.026558865 0.29936686 -0.6293617 -0.0431571 -0.0472538 0.0037895623 -0.15366502 -0.0044610174 -0.010834519 0.3001512 -0.49222264 0.12263734 -0.280035 0.5561239 0.09126104 0.2446802 0.13122337 0.06932699 0.04938241 -0.019932155 0.08033779 0.46780154 -0.29654023 -0.28699687 0.074557364 -0.122754194 -0.058566082 0.4347019 0.056460284 -0.26474172 0.24776265 0.13495706 0.24170329
6213 -0.1634192 -0.1716298 -0.035280894 0.24278691 0.45309386 0.15623383 -0.06865521 0.23466739 -0.18957755 0.6207844 0.15932468 0.23834623 -0.23203455 -0.09360144 0.060731415 0.7500843 -0.121339805 0.050085284 -0.1807006 0.0221571 -0.3777794 0.07576929 0.6632607 -0.63451993 0.017595597 0.5074436 0.15731643 0.10955653 -0.14742647 -0.21277402 -0.5020337 0.001678161 0.31952342 0.27657425 -0.32100356 0.29684877 0.47622746 0.42032897 0.038308717 -0.0999857 -0.2580963 0.61921245 0.2678813 -0.07915623 -0.14507116 -0.11832211 0.35362002 -0.11147956 0.085095525 0.038041152 -0.63012 0.37197325 -0.30002904 -0.3995181 0.15499534 0.016744802 0.111879185 -0.3050102 0.021457158 0.07415515 0.4782219 0.06049893 0.13539512 -0.32172978 0.463891 -0.091961965 -0.1411976 0.06298709 0.032257337 0.38555935 0.16087097 0.1541315 0.065268755 0.13628367 0.050896674 -0.19029313 0.021364998 0.3483092 -0.099565394 0.07927801 -0.1524866 0.06240827 0.13342565 0.083403304 -0.09413562 -0.037361994 -0.106194414 -0.16442744 -0.3359498 -0.319346 -0.2036238 0.13552307 0.16742998 0.14637658 0.030327126 -0.14620024 0.06055778 -0.415949 -0.0376332 -0.13649216 -0.20472963 -0.10525098 -0.1491068 0.28267375 -0.030425271 -0.7422907 0.2840476 0.17140363 0.2510276 -0.41990155 0.051478427 -0.2834777 -0.13043945 -0.33837897 -0.05235298 -0.10732084 0.38691708 -0.017405102 -0.33000284 -0.1692932 0.008940048 -0.092271104 -0.096838 -0.19558112 -0.20596759 0.37427834 -0.13339606 0.22996977
3229 0.25213894 -0.4983423 -0.1772521 0.1749936 -0.3397306 0.39171875 -0.18519807 -0.25078234 -0.1820931 -0.19794166 -0.28799734 0.19061162 0.4365489 -0.45525736 -0.25811547 0.57919145 -0.28772938 0.101681255 -0.09837863 0.22926691 0.18437305 -0.35296026 0.03684921 -0.122017734 0.07940623 0.1446988 0.30049512 -0.24259531 -0.39128023 -0.10010328 -0.3669943 0.049518056 0.37611538 0.10329769 0.26158908 0.41929433 0.038514398 0.019626498 0.3814988 -0.14906268 -0.08508003 0.09993968 -0.14846689 0.00126952 0.34024367 -0.25621167 -0.08451571 -0.13175242 -0.018386321 -0.028024763 -0.35949495 0.26048574 -0.5016943 -0.31688774 0.052739453 0.14724034 -0.058473818 -0.14680922 -0.04919143 0.10230745 -0.1846509 0.024766631 0.044078402 -0.45429945 0.574117 -0.6669097 -0.11181319 0.35558173 0.13637374 0.050796222 0.11824977 0.14291447 -0.23536348 -0.53115726 0.38522592 0.0153518915 -0.3239068 0.015876962 0.07369614 -0.23863393 -0.03666016 0.29630503 0.030504264 0.14703824 0.10950459 -0.24806724 -0.18014146 -0.06779113 -0.10843374 -0.28999317 -0.30167383 0.102685496 0.3502349 0.4415372 -0.18566251 0.20507418 0.73132896 -0.58222914 -0.0034195879 0.1769063 -0.2328093 0.24728683 -0.20413958 -0.43332866 -0.119853 -0.31531036 -0.104017116 -0.1307115 0.098948516 -0.2636281 -0.069988236 0.14293706 -0.301094 -0.16928005 0.2379148 0.23495294 0.16280979 -0.14283895 -0.3345292 -0.36057898 -0.067651585 -0.0632865 -0.085372694 -0.2170904 -0.21267922 0.06468513 -0.119491205 -0.12846258
910 0.6033259 -0.26609442 -0.35597968 0.028390687 0.4700797 -0.15899582 0.10441326 0.15597537 -0.0550236 -0.047405537 -0.089722514 0.29479927 0.070539184 -0.45543447 0.28087738 0.011827489 -0.19716439 -0.1642712 0.10082796 -0.098601446 0.0675296 0.16166303 0.40027595 -0.23902467 -0.07503577 0.3273935 -0.026733126 0.0039073024 -0.19535464 -0.29208708 -0.51958823 -0.25841686 0.18041629 -0.26201275 0.107028306 0.3912133 -0.23084152 0.401725 0.41434488 -0.6404171 0.18096438 0.32030833 0.19171865 0.060390934 0.13594435 -0.044185128 0.016165622 0.05845569 0.117416225 -0.3147361 -0.20981051 0.15055564 -0.08996798 -0.43944076 -0.20362069 -0.22729932 0.055823147 -0.9889066 -0.15519181 0.5292008 0.18207474 -0.14996888 -0.07770601 -0.1331073 -0.21597624 -0.52122813 -0.18722877 0.4898615 0.31248137 -0.25716266 0.19903071 0.34025267 -0.50249135 0.3181343 -0.3209476 -0.14840133 -0.2868633 -0.24267755 -0.06950939 0.05371536 -0.5428344 0.41505843 0.03342888 0.26179606 -0.34562895 -0.3871336 0.18562281 0.45594603 -0.12698552 -0.3817677 -0.53562194 0.42854106 0.2965987 0.06297145 -0.16084868 -0.39089215 0.26640704 -0.32862663 -0.15766728 0.1277859 -0.16325684 0.015096901 -0.04810556 -0.13161801 0.05399289 -0.44791234 0.052183017 -0.28765145 0.19208008 -0.04521214 -0.35582873 -0.08356731 -0.074135 -0.32677117 0.36685315 0.18790868 -0.124580465 -0.0817061 0.026276156 0.4941623 -0.028391575 0.19589046 0.24756813 -0.13056003 -0.49000582 -0.084462285 -0.08190636 -0.027701378
114 -0.22868802 -0.054514006 -0.11440339 0.35795647 0.51332057 0.039192516 0.15730394 -0.009792315 -0.06112159 0.5811173 0.2999147 0.52167517 -0.3084639 -0.11422251 0.30927423 0.5843135 -0.038171582 0.18708357 -0.700424 0.053086475 0.049213745 0.35224628 0.3871656 -0.8146858 0.31410813 0.25325835 0.17573394 0.058762696 -0.38359624 -0.19001305 -0.0011859429 -0.06489824 0.18483403 0.36406946 -0.31188148 0.46154687 0.1957036 0.3756626 0.010573474 0.02924591 -0.17864417 0.47559562 0.2139551 -0.099733755 0.28278238 -0.01612004 -0.20090105 0.0072243516 -0.04941891 -0.08432371 -0.45191786 0.212053 -0.6738424 -0.6248092 0.1636362 0.31868318 0.45733806 -0.5457078 0.0071354294 0.032358147 0.4100533 0.19180214 0.1751123 -0.030675782 0.5275828 -0.16704182 -0.21491332 0.10245045 0.018149596 0.18551764 0.44617218 0.09316857 0.21074583 0.14716126 0.21557467 -0.11269474 -0.37930223 -0.1544183 -0.83700126 -0.3531065 0.037038796 0.084372185 0.11599389 -0.121164024 -0.17213963 0.27373874 0.09824672 0.015975771 -0.3611973 0.016377745 -0.35098356 0.40451363 0.16864851 0.111900404 -0.15703604 0.19427712 0.22994058 -0.30025014 -0.25435862 0.13455863 -0.12420174 -0.11497792 -0.44463214 0.38023457 -0.04927341 -0.22513933 0.35349438 0.08434699 0.17164585 -0.26334143 0.37576398 -0.03432437 0.03803959 -0.39713767 0.3098885 -0.08956681 0.40650356 0.025637956 -0.22710828 0.011910491 -0.027443904 0.10299317 -0.058350816 -0.0726136 -0.25704557 0.5120513 -0.26619706 0.31702298
4330 0.58735377 -0.27561873 -0.32756326 0.18092485 0.34274766 0.21033089 0.11216601 -0.17681682 -0.35642102 0.443952 -0.021014588 0.0726136 0.3820182 -0.08308303 -0.2743868 -0.3091753 0.10608391 0.11223054 0.28575763 -0.008564822 -0.12089785 0.3523045 0.37285185 -0.16028161 -0.32225546 0.24264708 -0.09477438 0.24504112 -0.00073549955 0.07885513 0.11894729 -0.21128839 0.46997526 0.87816745 -0.13438854 0.0030150395 -0.08708566 0.12983996 0.19044629 0.21259 0.09841524 -0.19562772 0.21418269 -0.14644492 0.38285586 -0.052501168 0.12250858 0.18859309 0.22957455 0.21517731 -0.6399771 0.2474574 -0.21363392 -0.07336827 0.13622245 -0.079530224 -0.27539814 -0.4623887 0.49431884 0.1313426 0.08342231 -0.21413098 0.4640825 -0.21855667 0.80844903 -0.20792551 0.052489165 0.2132023 0.10569925 0.017771285 0.5450451 0.006563322 -0.29383555 0.10333963 0.13985834 -0.18706408 -0.1460002 -0.24719948 -0.059532847 -0.26136324 -0.6632508 0.18555887 0.115476795 -0.11591373 -0.2930141 -0.4920782 -0.28554294 -0.1705133 -0.057191476 -0.3698668 -0.4396956 0.31745344 0.23246127 0.34519598 0.045513455 -0.39402092 -0.45439425 -0.2830245 0.1750976 0.4021858 0.24783804 0.15327197 -0.31616214 -0.38102615 0.038741395 -0.34886944 -0.045862366 0.15245962 0.025229167 -0.047696628 -0.11666371 0.12956952 -0.2627914 -0.4894144 -0.0347952 -0.21126649 0.5973329 -0.28152424 -0.21808723 0.36735487 0.39275736 -0.15872934 0.11400981 -0.017077705 -0.3566557 0.5778907 0.25479916 0.08094627
3231 -0.244686 -0.18349311 -0.044707496 -0.23262264 0.5229485 0.13341445 -0.14696799 0.24614361 0.070928276 0.34621683 0.029679732 -0.116263874 0.026567174 -0.13777487 -0.13864285 -0.009271741 0.00050539407 -0.5867029 0.40450883 -0.045248237 0.25132507 -0.35817036 -0.021565787 0.17219563 0.118211426 0.12393405 0.1699521 0.0057920576 -0.33452046 0.11616971 0.4141912 0.07073216 0.11132556 0.3004231 0.26914856 -0.17979632 0.23321626 0.107494496 -0.0527501 -0.638169 0.04885065 0.09523195 0.24720226 0.18063238 0.28472143 0.013207776 0.10380371 0.36216992 -0.28876853 -0.4976474 -0.4159742 0.4699128 -0.37242606 0.57389486 0.2541334 0.29686 0.090188876 -0.30681387 0.5232782 -0.030896865 0.004318068 -0.07127097 0.29679608 -0.06650011 0.12543544 -0.10494596 -0.23381439 -0.17128861 0.44184944 0.20800766 -0.06718238 0.087620765 -0.19902676 -0.23984814 0.3048443 -0.11389645 -0.07362093 -0.29093826 0.2629755 0.026195077 -0.14194116 -0.12559073 0.19925809 0.3751372 0.43245783 0.17938226 0.21641561 0.08660204 -0.5111378 0.092659354 -0.68767196 -0.056620408 -0.14802465 0.0014436734 0.45977503 -0.2544288 -0.10930014 -1.0159137 -0.021202194 0.22684161 0.339954 -0.42728752 0.11675133 -0.38031515 -0.22523628 -0.3066311 -0.14080825 -0.2684538 -0.32630852 0.32377502 0.12136668 -0.14101386 0.15757778 -0.5508483 0.38969123 0.18918234 -0.024442684 -0.214181 -0.35490015 -0.2613925 0.19547075 0.034848724 0.3299144 -0.4327874 -0.4715551 0.63594973 -0.29042605 0.042945247
1272 0.09588838 0.26607978 -0.15150928 -0.049404554 0.036164314 -0.056071736 -0.18896964 0.22236551 0.014744113 0.36608136 -0.17823935 0.024421886 -0.09366877 -0.5286339 -0.5416144 0.121642925 -0.16635743 0.18088597 0.25020942 0.3364538 -0.43245852 0.22203313 -0.22179535 -0.02149336 0.29479298 -0.121633925 0.14346603 0.15164354 -0.20142303 0.12014745 0.27558056 0.4312262 0.22096255 -0.091464035 0.081832945 -0.43141395 0.23778044 0.17209971 0.19173858 -0.39036313 -0.0042953314 0.36770827 0.44769537 -0.08683549 -0.050577845 0.1169371 -0.08372393 -0.10582524 -0.3649913 -0.12654257 -0.6981793 0.6163545 -0.008087214 -0.14030881 0.21341729 -0.091444686 0.013316665 -0.382811 -0.027763808 0.41472316 0.51584333 0.06279233 -0.22109118 0.12459769 0.15397455 0.013216089 0.21840188 0.17187639 -0.05750095 -0.2621415 -0.24065074 -0.23248965 -0.10741552 -0.22620273 -0.21843447 -0.033111528 -0.05870623 -0.055747047 -0.18664083 0.16895479 -0.19764188 0.36921883 0.02804068 -0.29322833 0.56063336 -0.08075752 -0.0020899419 -0.06314628 -0.27577922 0.054681845 -0.13375297 0.15908715 0.023680517 0.10864109 -0.13774887 0.22342464 -0.50977534 -0.9380617 0.16199003 -0.0067510493 0.20160173 0.04528831 -0.4088623 -0.08916454 -0.25867987 -0.3066838 -0.06988062 -0.19690095 0.57112134 0.22937247 -0.073241174 -0.18752846 0.40074185 -0.47952217 0.026626071 -0.031169085 0.31596264 0.016987508 -0.58070785 -0.669355 -0.13589646 0.22191513 0.4292415 0.12334444 -0.55199987 0.53000784 -0.02999578 -0.11946864
4584 0.04579753 -0.26476404 -0.06501892 -0.13907245 0.5444536 0.090447985 -0.36383238 0.010525557 -0.16530192 0.54308736 -0.12696108 0.21554458 0.14763995 -0.3731711 -0.10304871 0.38681445 -0.513424 0.35320762 -0.51146513 0.23542485 -0.21249177 0.117130645 0.24668849 -0.59501374 -0.026673779 0.326097 0.042311683 0.13521323 -0.19214255 -0.49379256 -0.35334355 0.042388886 0.4568142 0.20465785 -0.08431895 0.08720939 0.053153656 0.5173077 -0.21330276 -0.07748227 -0.055322677 0.4493079 0.5156745 -0.11881588 -0.11281303 -0.3528405 0.1985632 0.19498251 -0.24872226 -0.08012242 -0.2751965 0.518809 -0.26209903 -0.3616401 -0.11347088 0.13398942 -0.11501793 -0.621388 0.137981 0.56447786 0.27440777 0.37646365 -0.24639228 0.05912451 0.48667616 0.18845487 -0.42714775 0.23723997 0.011738824 0.1181188 0.1828587 -0.0051016402 0.17894283 0.14399108 -0.42992476 -0.15631777 -0.30724722 0.15930235 0.27189612 -0.5325798 -0.095995985 -0.053428028 0.26101544 -0.024150303 0.39312702 0.00736856 0.1529783 0.122544736 -0.30560222 -0.19164868 -0.20960876 0.17233069 -0.0029560633 -0.28617576 0.0106851505 -0.20980273 0.0716782 -0.3636708 -0.20569819 -0.061162762 -0.25733927 -0.016170306 -0.5658675 0.088960424 0.16020085 -0.27942872 0.2042188 -0.05979622 0.30534688 -0.46735632 -0.057845093 -0.25171584 0.40961736 -0.17015457 -0.11200396 0.34052923 0.38790646 0.014118621 -0.40433004 -0.027653283 -0.28769344 0.19170462 0.3767248 -0.20193419 -0.06498565 0.364763 -0.029277928 0.28218988
24966 0.43950805 -0.4427475 -0.016737424 0.15586677 0.12526418 0.17273982 -0.27616858 -0.042010833 -0.08969088 -0.08375383 0.00877669 -0.31520274 -0.109279215 -0.21235129 -0.021622097 0.19182172 0.048559055 -0.12419971 0.12613067 -0.119110055 0.15541811 0.16608337 0.39872846 -0.09502795 0.08521974 -0.32917103 0.029216025 0.22207907 -0.038560834 -0.33357748 -0.032640938 -0.33084935 0.17792599 0.44613317 0.17649795 -0.09985542 -0.45525566 -0.16368023 0.028242635 -0.43583494 -0.34271556 0.3206117 0.31096444 0.31920916 0.1826076 0.19038011 0.03735403 0.20792721 0.053742718 -0.53749734 -0.69164693 0.08986219 -0.07863772 -0.035722513 -0.36348167 -0.0006362901 -0.12953307 -0.739305 0.11500413 0.015872778 -0.15417825 -0.13721928 0.12876424 -0.10241994 0.5138613 -0.82715255 -0.2799586 0.6337086 0.17070647 -0.373921 0.26626337 0.08701205 -0.5554515 0.28181368 -0.09213774 -0.15998438 -0.08634477 -0.672975 -0.35102662 -0.1596496 -0.4368788 0.16611286 -0.26437858 0.4300754 -0.11261874 0.18341367 0.02154974 0.18260989 -0.6025541 0.2733308 -0.25127676 -0.09300836 0.73021376 -0.002811995 0.12482335 -0.07202764 -0.0610525 -0.45670328 -0.07202202 0.19368209 -0.39142144 0.05589956 0.034879122 -0.71043205 -0.023801794 -0.09244436 -0.36220586 0.2705314 0.013429128 -0.061412685 0.03739731 0.3807436 -0.21542694 -0.0010578544 0.117800884 0.17848362 0.21234201 0.07268498 -0.08033446 -0.32904202 -0.5246909 -0.094170295 0.38502014 -0.58148324 -0.84244955 -0.23753354 -0.1727436 -0.03289786
887 0.21861146 0.043911472 0.1176706 0.039286595 0.4352003 -0.0653238 -0.13430282 0.013905788 0.552034 0.36976507 0.010380629 0.12309611 0.038730025 -0.081568874 0.18756072 0.32688418 -0.18143402 -0.21685293 0.0378829 -0.56460965 -0.25370342 -0.21892571 0.38895035 -0.38928115 -0.20899244 0.7357061 0.35238633 -0.03470559 -0.55258554 -0.11306317 0.053905636 0.14396477 0.45465937 0.2954718 -0.3807807 -0.19591461 0.31436637 0.39370462 0.079406105 -0.12509656 -0.44450036 0.39330202 -0.020065228 0.02982893 -0.30168703 -0.24444121 0.3284208 -0.0071875677 -0.04090044 0.26486352 -0.22078998 0.47051793 -0.18867718 -0.38725224 0.4555041 0.32769114 0.15849166 -0.14290692 -0.23144236 0.030829202 -0.0743969 0.08007808 -0.40002018 -0.4915528 0.5417542 0.0066177924 -0.27006054 0.104224406 0.19904998 0.3358743 0.3535667 -0.01496563 -0.108182006 -0.101544715 0.004284098 0.021775424 -0.22937298 -0.05526503 0.11769572 0.41611102 0.17607078 -0.27206177 0.15397628 0.11786987 -0.21519095 0.042465594 0.4033487 -0.09194272 0.008497711 0.3806198 0.107749134 0.30024302 0.18826477 0.70961034 0.038602453 0.2822738 0.055857938 0.047428925 0.2427204 -0.4554083 -0.08575707 0.010309512 -0.5455688 -0.24819335 0.0146568725 -0.78564996 0.32072 0.28856164 0.22026174 0.08299203 -0.09273855 -0.379053 0.05012662 -0.23377119 -0.11515209 -0.23297696 0.21047235 -0.27254513 -0.058889247 -0.073178746 0.19339116 -0.10086792 0.04657868 -0.34610477 -0.27643698 0.21655467 -0.28665414 0.20412582
2440 -0.1314623 0.1823009 0.00050165947 0.115807414 0.18446231 -0.7609479 0.6988187 0.20139772 -0.25210348 0.17809197 -0.19017634 -0.09407883 0.34252635 -0.017975036 -0.55895543 0.15934756 -0.2628926 0.0685687 0.5099231 -0.0881774 -0.21446754 0.12733006 -0.52704674 -0.15346621 0.34701458 0.01891819 0.39970624 0.4752353 -0.49961248 -0.27076226 -0.3062116 0.17850086 0.26630664 0.18698782 0.27107853 0.30701676 -0.24288122 -0.038125787 -0.06942037 -0.0061901556 -0.42812482 0.40363577 0.7213409 0.028971769 -0.36713383 0.30351746 0.08425979 -0.020545583 -0.41551232 -0.47595996 -0.68287086 0.22972648 -0.39384213 -0.12996516 0.5234127 -0.07906986 -0.0663916 -0.20404106 -0.25977787 0.1362841 -0.12987465 0.13623926 0.25775394 -0.06843592 0.20238025 0.19305706 -0.1270671 -0.05592185 0.13053435 -0.044834737 0.421853 -0.056631383 -0.12623131 -0.4406916 0.24626398 -0.2544912 0.22440411 -0.15629745 0.12507105 0.07273647 0.021000925 0.44323856 -0.085554264 -0.47498006 -0.3762344 -0.10779774 -0.29771778 -0.31550506 -0.51239085 -0.2752228 -0.010248258 -0.06449161 0.08543878 0.3025327 -0.10458521 -0.2922709 -0.75786835 -0.82832396 0.0852513 0.0061952984 0.58146006 -0.39589152 0.2720559 -0.10590682 -0.20608328 -0.22742587 0.3259137 0.03511594 -0.038187865 0.06957959 0.22343777 0.057124466 0.21405548 -0.26488838 0.47940648 0.010514688 0.43757474 0.092468105 -0.19907913 0.12761603 -0.5132769 -0.11067771 0.6105792 -0.20774905 -0.77856135 0.35428086 0.06367127 0.13304092
2665 0.68156624 -0.24029236 0.035730254 0.31128493 0.2775075 0.079297826 -0.6697398 0.22366458 -0.28754982 0.046341226 0.63616604 -0.16966204 0.40629598 -0.2546543 0.033640005 0.6946713 0.6994044 0.0026323723 0.44445235 -0.49084914 0.21949601 -0.33134976 0.15285504 -0.20044969 0.5140891 0.36058316 0.15628453 0.16778317 -0.65065056 0.015073885 -0.18788438 -0.0704398 -0.006723982 0.3356206 0.35183144 -0.2410824 0.056357365 0.63997406 0.28837767 0.2422118 -0.2671576 0.0847481 0.5396459 0.30161628 0.20347476 0.28330645 0.3301241 -0.049327638 -0.57254887 -0.20078617 -0.31035048 -0.021185081 -0.5174381 0.2222656 -0.0059382953 0.21582131 0.05231588 0.3093941 -0.20346045 0.2491408 0.17564167 -0.0437532 -0.16312912 -0.3481099 0.5546839 -0.27262583 -0.016635476 0.53357124 -0.32747975 -0.42004207 0.13877454 0.40857854 -0.6707324 0.10811404 -0.18659222 0.31324172 -0.24610259 0.26208952 0.18412015 -0.39567205 -0.34217694 0.80512154 0.3604981 0.53644115 0.04612394 -0.42519718 0.3121525 0.55709785 -0.18682536 -0.7061585 -0.39501864 0.6733509 0.5450509 -0.20653263 0.3083863 0.3996081 -0.07535698 -0.1315291 -0.05466242 0.3600812 -0.33853513 -0.45079294 -0.10416822 -0.25593147 -0.31964764 -0.34946123 0.50996596 0.29358992 -0.056791812 -0.027201798 0.12093239 -0.043467935 0.095637344 -0.08401032 0.43727642 0.32623985 0.038543053 -0.2677319 -0.20239553 0.649964 -0.21219146 0.08068596 0.30285114 -0.32767797 -0.46972102 0.58727556 0.32646346 -0.04662972
19621 0.25088254 -0.35457554 0.25999245 -0.43093714 0.4272994 -0.23847227 -0.33764437 -0.42636648 -0.018712575 -0.63021994 -0.24783397 0.006707388 0.15837447 -0.39758042 -0.26086026 0.55617416 -0.07405682 -0.35315624 -0.030124439 -0.3680944 -0.13609691 0.10903454 -0.03182794 -0.21697062 0.4080725 0.3547463 -0.1258408 0.038376957 -0.530944 -0.31376302 -0.02949581 -0.22268297 0.19040479 -0.027822942 0.31376025 -0.09783735 -0.11504817 0.2071042 0.48657 -0.034860596 -0.3359652 0.20146684 0.05466798 -0.30808502 0.62351567 -0.17417112 0.32375428 0.28548184 0.00013082189 -0.04785232 0.25182402 0.42923805 -0.14067152 -0.3990867 0.044579986 -0.10242316 -0.10602611 -0.22151364 -0.009082601 0.50844353 0.03294022 -0.35275888 -0.33055258 0.08184163 0.85566175 -0.65954924 0.10318549 0.6031855 -0.7684995 -0.2794023 0.075993724 -0.121324144 -0.1930803 0.11464553 0.035359513 0.30998704 -0.412656 -0.017443253 0.22813033 -0.3524066 -0.5165794 0.21631713 0.015447708 0.36876935 0.1090613 -0.3163867 0.31946853 -0.119905874 0.15711208 -0.46870297 -0.15017457 0.3266197 0.19931702 0.07328083 -0.28490007 0.10608644 0.17683479 -0.5127248 -0.21217132 0.24018459 0.056624867 -0.35482216 -0.010554907 -0.18450981 -0.18346454 -0.2597028 0.33168468 -0.16546161 0.34373173 -0.24398585 0.05817848 -0.12076555 0.009899744 -0.118608564 -0.03774579 0.13596444 0.044748053 -0.032075856 -0.5474935 0.59026223 0.1024015 -0.21946529 0.17644446 -0.23011899 -0.22652027 0.46785772 0.2578119 0.26253575
6214 0.051697098 -0.12670381 -0.32086718 0.22008789 0.3472327 0.13359857 -0.45138547 -0.14139001 -0.17607196 0.47443345 -0.28404075 0.3172865 -0.11030952 -0.032535687 -0.17120735 0.46187624 -0.296156 0.19275013 -0.50960165 0.42531875 -0.020618634 -0.008780771 0.23479573 -0.43082952 0.1778493 -0.032146882 0.073275335 0.20215543 -0.16354908 -0.11077664 -0.46674055 -0.52208674 0.45912078 0.20479284 -0.5040561 0.21393017 0.19009389 0.363309 0.20340239 0.08073418 0.01210535 0.65972745 0.14598973 -0.20435286 -0.10010768 -0.22643986 0.3545586 -0.0016089474 -0.25706318 0.14547989 -0.19637705 -0.1394892 -0.48478433 -0.47516105 -0.025187995 -0.3500555 0.008974047 -0.42347467 0.15760852 0.13674544 0.039443262 0.4340511 0.08249179 -0.23296149 0.62637484 0.29135302 -0.6943756 0.1876011 -0.17956202 0.22326772 0.14295045 -0.09020888 -0.32350042 0.20879522 -0.3089737 -0.3227942 0.060546476 -0.018398063 -0.3298297 -0.07538733 -0.024506694 0.12921757 0.25764093 0.21615593 0.07203968 -0.11567289 0.14559016 0.18469797 -0.07210554 -0.25639936 -0.24120982 -0.09531743 0.093022145 0.19613676 -0.0296431 -0.04071239 -0.19572616 -0.20432083 -0.39904404 -0.14437833 0.13254263 -0.31921086 -0.6630927 -0.21122842 0.029903023 -0.40314388 0.3544482 0.30814543 0.29411227 0.083172806 0.06792445 0.17842379 0.2323256 -0.17318043 0.48909616 -0.42714307 0.32755184 0.09672706 -0.15759246 -0.21166523 -0.12119375 0.094503 0.06608813 -0.22186881 -0.15168552 0.37817204 -0.100788385 0.20431243
8224 -0.0067421766 0.08092499 0.02873569 0.07397851 -0.13670339 -0.36096632 0.34399843 0.1388904 0.1826763 0.07496891 0.13551354 -0.09504219 -0.21923222 -0.07286907 -0.18185912 0.36963695 -0.39557 0.1944001 0.00694214 -0.059893135 -0.23905122 -0.34058386 0.29745755 0.044680685 -0.005926467 -0.05524871 0.11419694 0.1812681 -0.520312 0.11736432 0.47620538 -0.034617133 0.24672563 -0.16372396 0.4971732 0.21873629 0.0506414 0.12968488 0.5545429 -0.23158506 -0.20237523 0.3185081 0.36654496 0.0547095 -0.27452055 0.20584679 0.063639805 0.0016031626 -0.4896399 -0.42849255 -0.72026527 0.40208554 -0.09901129 -0.11147851 0.25782004 0.123769805 0.35583514 -0.14131553 0.10813623 0.03297384 0.61865383 -0.6122227 0.22274083 0.047031567 0.5228623 -0.36103883 -0.23353091 0.36136165 0.31774625 0.2516037 0.14713286 0.009182923 -0.10884844 -0.1156156 0.22443144 -0.41195905 0.087161794 0.11307078 0.0065966533 0.13233231 -0.03238315 0.08320819 -0.40948027 -0.40330768 0.013253067 0.059815448 0.32403314 0.10673417 -0.7932733 0.078877695 0.44335333 -0.27933067 -0.36183813 0.18595067 -0.08048317 -0.37070414 -0.37481707 -0.7787883 -0.19562024 0.040325098 0.8486092 -0.1214915 0.16331454 0.08122427 -0.17645742 -0.078796685 0.15939331 -0.22976002 0.057230245 0.19016877 0.11456601 0.24624707 0.028194746 -0.46295252 0.24670307 -0.57475173 0.31406087 -0.24530293 0.036886103 0.01582831 -0.38094375 0.11491772 0.42640892 0.19191746 -0.36018303 0.98156637 -0.18080084 -0.074956834
20193 -0.25981906 -0.08973735 -0.046369657 -0.21531065 0.2801024 -0.17682028 0.11765823 0.055297017 0.48724917 0.03513513 0.21319106 0.28244385 0.22488087 -0.16029508 -0.062297594 0.15098232 0.12809922 -0.11690776 -0.38875645 -0.13304475 -0.34641775 0.14289053 -0.027975924 -0.31497696 0.5590682 0.38866585 0.10865928 -0.041922215 -0.17755432 0.15048885 0.032189097 0.30925894 0.335914 0.06231041 0.003156803 0.35024452 0.414596 0.1995617 0.19367735 -0.31239182 -0.025455656 -0.022115154 0.09103717 0.080511846 -0.43293476 0.1676954 0.63505214 0.3041381 0.04211275 0.04165527 -0.7794507 -0.0034306645 -0.7720249 -0.06932875 0.17691134 -0.22091916 0.38911572 -0.5129711 -0.6479759 -0.3651401 -0.18752582 0.014713287 -0.34045106 -0.9605219 0.46151686 -0.22974554 -0.07294053 -0.08566489 0.056970228 0.2870493 0.6277566 0.11717554 -0.46815586 -0.49999034 0.4433958 -0.16845438 0.21386597 -0.49101108 0.008795016 0.03312715 -0.23296267 0.068689555 0.20974396 0.4623785 0.5568925 -0.02643942 -0.06803095 0.19598225 -0.48505744 0.23313403 0.18020508 0.54762936 -0.20718019 -0.019376447 -0.35401857 -0.14727148 -0.5326389 -0.6145965 -0.14848518 -0.05100638 0.36761189 -0.7421048 0.15178831 -0.026198672 -0.47239134 0.068362944 0.4500618 0.69402987 0.29144794 0.44361758 -0.56814784 -0.13886495 0.38079962 -0.5691748 0.55033475 -0.0031466833 -0.14074245 0.18632893 0.028175116 -0.102594994 -0.6601017 -0.058931466 0.6097727 -0.24011211 -0.47987902 0.24821755 0.117902115 -0.109859444
82920 -0.12865964 -0.20432246 -0.14760435 0.00546015 0.6411859 -0.5639413 0.017024439 -0.5260559 0.6087019 0.09709754 0.18679711 -0.2732283 0.45551738 0.188707 0.11771716 0.2146795 -0.08500007 -0.19493254 -0.26785874 -0.30328125 0.20861468 0.17375663 -0.3739842 -0.013207687 0.5537996 0.31973568 0.30252683 -0.19466664 -0.21249959 -0.2440554 0.35971192 -0.1039077 0.3607259 0.029055778 0.04788564 0.7540568 0.5142649 0.42129692 0.44333935 0.1558513 -0.4428628 -0.13014962 0.30908853 0.25231007 -0.09277181 -0.24971673 -0.17344695 0.10310727 -0.12813191 0.48065463 -0.15216386 0.8049848 0.04589521 -0.22129868 -0.07398277 0.17711835 -0.0058286437 -0.14729299 0.2351568 0.112108566 -0.09945247 0.082364485 0.03353357 -0.7260228 -0.16171962 -0.32410887 -0.70082706 0.5459167 0.1663383 0.19578923 -0.13194439 0.31704932 0.035080865 -0.095143914 -0.39820698 -0.26954222 -0.311596 -0.26282373 -0.34462124 0.30145413 -0.13778095 -0.051887657 0.47939268 0.16328365 0.27772957 0.36735988 0.2763837 0.1645989 0.015540187 -0.09695921 0.1522274 -0.12489864 0.5040375 0.4099299 0.39896443 0.071110494 0.040989585 -0.28338322 -0.35928047 -0.068801716 0.32632482 -0.026737642 0.06557819 -0.247003 -0.39450836 -0.19496003 -0.07629525 0.108657196 0.004715379 0.3285358 0.10071589 -0.05554799 -0.21059911 -0.53950775 0.1821624 0.07729571 0.29504126 0.27715233 -0.24888505 0.022392705 -0.16853744 0.24005783 0.14220059 -0.105522774 -0.36132023 0.56269103 -0.40835962 0.11592912
12182 0.02430906 -0.049379427 0.2626452 0.08447067 0.7124414 0.06016993 -0.24229363 -0.22132184 -0.4719105 0.06004517 -0.17720738 -0.2187338 -0.5444234 0.058981035 -0.3047257 -0.25586042 -0.24513279 0.11016419 0.5792741 -0.042123765 -0.018439282 -0.19185205 -0.23499481 -0.003553557 0.47201842 -0.36620995 -0.20048085 -0.059210263 -0.71838707 0.4852795 0.0028241628 0.27722618 0.18957314 0.09663301 0.14598188 0.028963584 0.5026808 -0.023331612 0.12502776 -0.10466158 -0.15663971 0.2752048 0.5039471 0.24685456 -0.22729996 0.5049383 -0.38479054 -0.113207 0.12155284 -0.3775355 -0.43793502 0.5482998 -0.17315684 -0.19555704 0.46496958 0.37162012 0.3800565 -0.52975386 0.037589073 0.1737362 0.15924844 0.27664828 0.24394453 -0.6173144 0.60367495 -0.3042566 0.07301379 0.2645729 -0.019484011 -0.7857033 0.618879 0.29908538 -0.06378315 -0.18343562 0.42721313 -0.12388393 -0.12301873 -0.4419272 -0.53415346 0.120789655 -0.4644085 0.033994038 0.060659237 -0.50500137 -0.2327128 -0.49358806 -0.3042076 0.21513234 -0.3851008 0.041964624 0.16611895 0.080699556 0.18209405 -0.22625612 -0.2796916 0.006933582 -0.31191903 -0.35411277 -0.21344802 0.04551203 0.084368035 0.14452513 -0.23842867 -0.4104523 -0.056708883 0.08355332 0.09998316 0.39631686 0.20554017 -0.11753484 0.3241075 -0.23235297 -0.30471164 -0.37745643 -0.21706976 -0.09257319 0.2964894 0.25987443 0.6200483 0.2842965 -0.8108452 -0.008651471 0.15566885 -0.09494674 -0.3271287 0.45816723 -0.48516187 0.07077525
10169 -0.06662858 0.05036906 0.15328573 -0.26331416 0.44437605 0.41388914 -0.028646909 0.058150932 -0.006282041 0.22747837 -0.14868926 0.18933506 0.02851392 -0.07893711 -0.44094688 -0.043698072 0.27198315 -0.1331222 0.6801765 0.3032986 0.1445348 0.043110754 -0.044309597 0.057348445 0.12606892 0.22506917 -0.011144912 -0.017557194 -0.41260982 0.2296512 0.120167695 -0.064545736 -0.04214675 0.20406787 0.24029708 -0.21173806 0.61291707 -0.11512447 0.068529174 -0.18760031 0.05731349 0.05959757 0.45834124 -0.32417944 0.054163773 -0.37379164 -0.18190211 -0.03825344 -0.15945642 -0.12537368 -0.3004288 0.52400273 -0.0973922 -0.047414966 0.48516732 0.1416051 0.3742656 -0.38673362 0.121904306 -0.016615849 0.012840314 -0.1655705 0.18304704 0.05471917 0.026364252 -0.30201477 -0.28390107 -0.3216518 0.40249497 -0.12288698 0.23932952 0.55450463 0.023424504 -0.23295222 0.5314051 -0.21570154 -0.2652798 -0.294332 0.25124237 0.026637025 0.027032848 0.046320226 0.281748 0.58820266 0.38148877 -0.14497326 0.16362904 -0.043439694 -0.5853583 0.1947511 -0.28590214 -0.08142013 -0.20209697 0.10560274 0.21013623 -0.21415222 -0.25925025 -1.0307715 0.20508486 0.019891458 0.05018825 -0.3531994 -0.05597161 -0.36706793 -0.30256635 -0.3695016 -0.33606645 0.029307414 0.030889042 0.23198508 0.30736127 0.30012926 0.122906156 -0.47909728 0.62827635 0.30958888 0.0032888972 -0.09336799 -0.121284015 -0.4020513 -0.46930996 0.45746705 0.28749633 -0.29889506 -0.2538927 1.001502 -0.6848381 -0.0024853535
22563 0.34629908 0.21271001 -0.22881608 0.38774902 0.14051783 0.083364934 0.31107837 0.55394536 -0.51638395 0.37012857 0.31644985 0.13559899 -0.13008681 -0.120796494 -0.17812093 -0.14349334 -0.5664899 0.095774226 -0.046353262 0.14860293 -0.4118522 -0.17261861 0.36611867 0.07010307 0.30546418 0.37309438 -0.21306759 0.4521234 -0.28075528 0.10169346 0.39513242 -0.4445706 0.36168495 -0.07230727 0.44380185 0.124044724 -0.06641923 0.3469412 0.16391157 -0.5963267 -0.0309466 0.3636485 0.30108303 0.20747331 -0.28533548 -0.30808532 -0.26006365 0.21218027 0.23526599 -0.26208523 -0.51903045 0.23618728 -0.26853096 -0.000510555 0.14907268 0.43208876 0.577605 -0.42533556 0.15395378 0.011833089 -0.10922759 -0.006025921 0.045564905 -0.25660574 0.23492825 -0.43849626 -0.17990333 0.47857693 -0.090775914 -0.1302516 -0.027152913 0.017337052 -0.26945356 -0.24159822 0.3285547 -0.4595323 -0.3347108 -0.18911268 0.117465585 0.63929904 -0.3129377 0.31668562 -0.60531336 0.24872082 0.44877255 -0.23550147 0.17822321 -0.20007132 -0.17841494 -0.35825694 -0.027394004 0.34623682 0.26409847 0.10578506 -0.16415273 -0.041716564 -0.78383875 -0.4950554 -0.18123826 0.29411155 0.70988065 0.07788615 0.1543572 -0.22735539 -0.055161826 -0.356905 0.03472389 -0.12430955 0.38654965 -0.037547685 0.19710414 0.03356115 -0.14671084 -0.10249443 -0.06106786 -0.13612905 0.43416667 0.18638012 0.021621052 0.19034085 -0.48683342 -0.23854214 -0.22720237 0.23092534 -0.33139426 0.50733197 -0.26276457 0.28341362
12576 0.20821969 -0.1899733 0.094248354 0.08571362 0.64229435 -0.043241877 -0.07296817 -0.18224223 0.42725247 0.42615563 -0.13069418 -0.32947743 0.54218405 0.014181388 0.071212605 0.6246242 0.29444844 0.15907073 -0.11192536 -0.22043881 -0.32424036 0.061248936 0.04114089 0.01217344 0.26950014 0.73880583 -0.012552084 -0.2528649 -0.22652625 -0.212455 0.24027173 0.21493769 0.24212432 -0.033974446 -0.35926458 0.08358592 -0.07855993 0.46045387 0.4714696 0.1626895 -0.317329 0.30369973 0.38673177 -0.30669338 -0.27994525 -0.09164338 0.03287617 0.2666569 0.07327044 0.701362 -0.1615853 0.5338502 -0.25750688 -0.46828243 0.38110793 0.1815664 0.17127173 -0.13113627 0.14719601 -0.12894563 0.1666995 0.24390562 -0.4967154 -0.31251317 0.025417067 0.017486472 -0.2805408 0.29095846 0.21942775 0.013644574 0.63351053 0.09120675 -0.120656766 -0.41000587 0.15469812 -0.33514908 -0.28903687 -0.392144 -0.01629688 0.026410067 0.22491859 -0.169106 0.105177216 0.14543138 0.33533406 0.21151051 0.052116208 -0.011103555 -0.025482532 -0.19377477 -0.037694205 0.23218319 -0.15027267 0.318781 0.5989385 0.013047679 -0.19804089 -0.1796547 0.23226726 0.03336599 -0.11246879 -0.077061094 0.053452756 0.23973362 0.25699735 -0.22682919 0.32023484 -0.004219867 -0.11684735 0.17598635 0.3445513 -0.4250085 -0.037152153 -0.5343695 0.66703296 0.020515192 0.24300922 0.31808206 -0.07372811 0.13241842 -0.29672796 -0.03830186 0.08258771 -0.6394019 -0.34026405 0.53693163 -0.29270422 -0.09507254
39890 0.6847625 -0.37387452 0.2607915 0.18084258 0.36462474 -0.15162604 -0.35471466 -0.48778236 -0.68367213 0.1430931 -0.40857643 0.5719872 -0.33754638 -0.100738324 -0.29190174 0.27444458 -0.23866378 0.18249886 -0.2107383 0.061834536 0.06827623 -0.6006926 0.51277626 -0.28813097 -0.005320671 -0.19803368 0.4013977 0.6736005 -0.38792938 0.47480756 -0.41075146 0.09262908 -0.41507533 0.044775575 -0.1696798 0.100239724 -0.041610256 0.19659182 0.5021693 -0.4125553 -0.05533771 0.20913433 0.4403625 0.048556685 -0.23944858 0.22629823 0.17119552 -0.03961598 0.05046382 0.54089963 -0.68241596 0.34953415 -0.60183567 -0.6060078 0.17450657 -0.3151995 -0.11709931 -0.39173245 -0.28659183 0.27850345 0.21437818 -0.07858863 0.7422227 -0.038456295 0.5543016 -0.027124703 -0.44279882 0.14411028 0.09629299 -0.28072453 0.5076744 0.3065296 -0.44706497 0.13417105 0.06598161 0.009211655 0.4004509 -0.20260493 -0.048976537 -0.10517642 -0.01915179 -0.21294397 0.26093242 0.19667141 0.42537427 -0.05726008 -0.096569486 0.38935772 -0.11738631 -0.34802872 -0.19929145 0.07026366 0.34570965 0.36006916 -0.014062867 -0.2769727 -0.56231064 -0.46580684 -0.29730347 0.14468339 -0.04233215 0.25340864 0.12278558 -0.3915448 0.29889393 -0.17851484 0.4295494 -0.02093076 -0.381398 0.3101453 -0.03670954 0.11710166 0.16693553 -0.28972653 0.42035258 -0.03489439 -0.15053241 0.08836638 -0.21588518 0.532679 -0.20344418 0.026616888 0.20299217 -0.11670324 -0.50518197 0.03770218 -0.7185032 0.17904486
8703 -0.09991796 -0.3379037 -0.59728676 -0.11127328 0.7108745 -0.10753375 0.6040734 0.33408502 0.3241802 0.30393535 -0.27357095 0.24710304 -0.035187125 -0.27415368 -0.13999891 0.20791286 -0.38027048 0.1881778 -0.07646678 0.29118556 -0.5865855 0.04315217 0.36139545 -0.12606618 0.12021026 0.30316955 0.20855291 0.30266318 -0.16292411 0.16948014 0.025190802 0.40139765 0.07316322 0.30368656 -0.027691605 0.32688373 -0.2822869 0.3776876 0.27377206 -0.3539894 -0.020395465 0.42207965 0.1482587 -0.12111079 -0.5214221 0.13064681 -0.039335646 -0.33221284 -0.07413222 -0.37544823 -0.8743558 0.36221442 -0.54918 0.10001405 0.37814426 0.30542272 0.3912979 -0.39188024 -0.20822032 -0.22141267 0.31071272 -0.078389876 0.079513386 -0.4913181 0.034350395 0.06689872 -0.09061156 0.3448206 0.43401763 0.008146844 0.23124005 -0.20371638 -0.40331566 -0.014598937 -0.06038055 0.19233078 -0.072481774 0.403938 -0.13532372 0.19294325 -0.5453577 0.14945386 0.4249706 0.063306555 0.2936086 0.001159404 0.06053187 -0.037786655 -0.6738514 -0.1320162 -0.10139896 0.29970583 0.25167623 -0.22725616 -0.37629905 0.14967832 -0.735535 -0.42798424 0.13439427 0.09757034 0.09717825 -0.80680525 -0.025779385 0.07253156 -0.28444088 -0.24459289 0.27833793 0.44329593 0.5365024 -0.08106036 0.2211958 -0.32985198 0.2305151 -0.15001139 0.3004978 -0.27662382 0.23794629 -0.039929472 -0.48439398 -0.25349173 -0.40982422 -0.1681689 0.050244562 -0.13215132 -0.35044697 0.5788992 -0.23185866 -0.23180223
31353 0.052295543 -0.3765873 -0.1448041 -0.065501384 -0.014564896 -0.305661 0.18501933 0.045502875 0.4623469 0.032784794 0.10702502 0.010564176 0.2297852 -0.17324394 0.09296936 -0.13699068 0.014102465 0.2093309 0.22786856 -0.104145035 0.18556838 -0.043631703 0.221092 -0.018645644 0.60633373 -0.5146325 -0.25805596 -0.25659513 -0.7251832 0.3043923 -0.3235835 -0.61478066 -0.18701717 0.7036167 0.6272337 -0.19953379 0.1568837 0.23058695 0.2925912 -0.41032594 -0.42392448 0.51568794 0.5427828 0.6259598 0.11423677 -0.075627044 -0.07479168 0.016854193 -0.22445512 -0.47471306 -0.25750735 0.12610675 0.13218948 0.123338304 0.34653515 -0.111501 0.12772764 -0.6625067 -0.30634835 0.57692844 0.008627007 0.24103844 -0.041551035 -0.33214328 0.6555794 -0.9634826 -0.5726519 0.70855814 0.1543715 -0.5387958 0.48030496 0.31804237 -0.17972964 -0.26257017 0.02714083 -0.089787506 -0.5337934 -0.2964071 -0.17289148 0.17862858 -0.5085319 0.09072283 0.03227161 0.06628871 0.28114074 -0.3993931 -0.008441415 0.6830676 -0.08995142 0.36920485 -0.17353202 0.8106699 0.24684714 0.1795997 -0.37145615 -0.7048594 0.12629916 -0.38472015 -0.20278755 -0.24599728 -0.22629029 0.42198223 -0.54992694 -0.20596695 -0.044404984 -0.05542537 -0.01988085 0.13601175 0.13384278 -0.07691772 0.04333956 -0.06449313 -0.4422032 -0.6128306 0.08323157 -0.11788596 0.4141799 -0.003329441 -0.22116344 0.2597574 -0.18330266 0.22119293 0.41059867 -0.38200274 0.090472646 -0.17628466 -0.28643826 -0.19792983
15429 -0.119668975 -0.12364784 -0.5212026 0.005824306 0.49416485 -0.045329105 0.44140407 -0.17997016 -0.12520441 0.27497798 -0.49170977 -0.15180168 -0.06923261 -0.2245804 -0.3564809 -0.12474549 0.3391966 0.011159331 0.4576575 0.16098557 0.3458732 0.21929508 -0.1244496 -0.35066175 0.1772273 -0.16896932 0.10513929 -0.112415545 -0.5845807 -0.19317654 0.33987078 -0.028235244 0.16590722 -0.13193074 -0.1755683 0.28923172 0.10922759 0.063922 -0.09404753 0.0022480164 -0.19510452 0.18026812 0.5649396 -0.23056583 -0.021292483 0.019161407 -0.3082804 0.07534186 -0.20734721 -0.1742833 -0.41170773 0.39436406 0.096314624 0.014929237 0.5412541 0.26112548 0.44738358 -0.2572206 0.14661172 0.42932588 0.30965677 -0.32372835 0.17446359 -0.13302115 -0.088124916 -0.4647881 -0.3970251 0.17137447 0.17080235 -0.5038804 0.6644367 0.70390445 -0.17157249 -0.24961665 0.22023395 -0.21913081 -0.40679717 -0.46886963 -0.50801975 -0.059343662 0.12669042 -0.08380137 0.12683229 0.36393335 0.047025885 -0.26770967 -0.42511937 -0.12029607 -1.0660739 0.08783418 -0.001705766 -0.16419229 0.4126797 -0.22168656 -0.09174404 0.2551678 -0.51251584 -0.58715594 -0.15939967 0.30968696 0.06531336 0.25756413 0.060774107 -0.20615394 -0.22365904 -0.24256745 0.38117445 0.23455776 -0.07041005 -0.025038136 0.15537983 0.0725103 0.014990578 -0.72664446 0.33849698 0.47204465 0.1798898 0.15867206 0.023114396 -0.25951394 -0.5770224 0.33010176 0.21632269 -0.19573122 -0.5112043 0.45885655 -0.56582546 0.60040146
3191 0.8333382 -0.3334985 0.25534305 0.14194705 0.1352084 0.16829538 -0.41445422 -0.37662858 -0.48325506 -0.23796816 -0.31966054 0.031698667 -0.019370947 0.34935972 -0.21253362 0.042920686 -0.25636968 0.12739164 0.39285275 0.20167802 0.49427763 -0.35867825 0.21980263 -0.068496175 -0.07867089 0.02929304 0.40636447 0.62346643 -0.5012099 0.19073598 0.02736815 0.18098085 -0.56842077 0.41038045 0.009044641 0.27066785 -0.11591407 -0.19293424 0.22537042 -0.69276625 -0.29568082 0.026156424 0.5287445 0.31933233 0.037876375 0.39456642 0.0809228 0.18111841 0.30804205 0.3609649 -0.61597544 0.113297515 -0.40175033 -0.390952 0.07277485 0.12445285 -0.22449744 -0.16885883 -0.14355859 0.47045407 -0.52047366 -0.09238962 0.41771826 -0.404878 0.8733471 -0.37166443 -0.35729578 0.033170603 0.03987159 0.26913762 0.15876919 0.37281746 -0.4192137 0.13252366 0.35537362 0.14566395 0.25266445 -0.3860858 -0.37310755 0.053912494 -0.24324211 -0.21698193 -0.081104316 0.080356166 0.26473013 -0.07999513 -0.04558849 0.0361876 -0.16474764 -0.24762562 -0.492606 0.10793494 0.4824461 0.23381537 -0.2623526 -0.5607361 -0.39156273 -0.65043014 0.07481279 0.5089852 -0.33758247 0.077523455 -0.056526765 -0.37616822 0.26583913 -0.14660192 0.35270286 0.0151190525 -0.36539376 0.09587203 -0.2281261 -0.089236714 0.25677037 -0.26683784 0.24957533 0.23033656 -0.020248964 -0.03142304 -0.25632435 0.42406783 0.11971844 0.25400144 0.6593939 -0.38084716 -0.32668602 -0.0749496 -0.7509623 0.20075993
3220 0.035093516 0.07389135 -0.23756729 -0.03685597 -0.10381399 0.29795387 0.31644037 0.61720395 0.035221133 0.5917366 0.1998159 -0.031209838 -0.0062234714 -0.17368092 -0.349702 -0.017756663 -0.20908453 0.339617 0.4226451 0.45485666 -0.38399324 -0.0021494848 0.41776678 0.22236955 0.2995243 -0.21467339 -0.22649588 0.06959104 -0.5024538 0.03343384 0.2540177 -0.61327165 0.22071582 0.47956192 0.1410163 0.092973456 0.27179393 0.67565715 0.19923781 -0.5309798 0.0032562918 0.18839234 0.12063915 0.113015 0.07661841 -0.14126769 -0.1441166 -0.00079997786 -0.02418477 -0.6114924 -0.74855214 0.10337776 0.100373544 -0.15100965 0.32299986 0.49276742 0.43053356 -0.35184997 -0.17951268 -0.27067077 -0.2561536 0.569397 0.33683047 0.064547144 0.5849933 -0.25968698 -0.43585825 0.3312029 0.5693159 -0.019987442 -0.0565608 0.23783779 -0.3183116 -0.3867616 0.32775277 -0.3433172 -0.20053235 -0.1580366 0.18482205 0.13360038 -0.63318217 -0.089549504 0.19918409 0.14792086 0.32753968 -0.3826329 0.20214632 0.14674042 0.17149709 -0.06732794 -0.20814905 0.48455125 0.3742573 -0.064980105 -0.17348173 0.14429589 -0.8739318 -0.57491755 -0.31942272 0.30611068 0.31233913 -0.22448425 0.058337692 -0.1552103 -0.29813638 -0.036643207 0.33272988 -0.17749837 -0.23690383 0.30398864 0.20957561 -0.022708548 -0.35098824 -0.64987665 0.32155022 -0.12957329 0.5280844 -0.22960773 -0.099122465 0.34831324 -0.33258757 0.19172607 0.36801738 -0.10465648 -0.24214812 0.34641254 -0.102900945 0.008265549
2653 0.05347604 0.14868753 0.01564569 0.31406996 0.3351945 -0.05323341 -0.4015449 0.33985808 -0.08608142 0.019166788 -0.45967942 -0.39833 0.049805872 -0.33713418 -0.5658423 -0.21886212 -0.10835762 0.025626827 0.8241942 -0.12742417 0.05483789 -0.32708374 -0.08748373 -0.19006675 0.30107158 -0.27911294 0.08473283 0.06388351 -0.3183495 0.32088545 -0.022220762 0.33409795 0.06210597 0.059841134 0.022720294 0.22723052 0.27444923 0.065308526 0.42671037 0.066385455 -0.049564786 0.29457018 0.2130063 0.2293884 -0.060089447 -0.0494442 -0.5920547 0.089902416 -0.15972075 -0.1944595 -0.006267758 0.6794311 -0.03135441 -0.023086336 0.4774906 0.28314707 0.21796899 -0.5793505 0.17337899 0.4777618 0.28333887 0.2787162 0.17083521 -0.124235824 0.5573689 -0.35520765 -0.32804543 0.3788551 -0.3143356 -0.085841894 0.58645624 0.010287985 -0.19217739 -0.26410013 0.31643105 -0.62997985 0.037508212 -0.3040933 -0.13910702 0.011722389 -0.30503237 -0.050239418 -0.296382 -0.35522452 0.35213694 -0.4897249 0.049009502 0.09647683 -0.18911172 -0.25312126 -0.10522861 0.10606558 0.13276346 -0.5090072 0.081591755 -0.4158908 0.07542016 -0.18050016 -0.08619054 0.07137939 0.25091654 0.042897277 0.20964588 -0.26848155 0.13147166 -0.04033293 -0.34301132 -0.16371411 0.21685319 0.51256263 0.06780795 -0.35701925 -0.5842339 -0.45396185 0.029324464 -0.17949802 0.40138757 -0.011458363 0.28609145 0.016060844 -0.73686737 0.46269864 0.5843581 -0.13971029 -0.5478312 0.47010463 -0.4867775 0.10168129
117 0.49649665 -0.16081716 -0.15768465 0.0059817834 0.5567891 -0.10550399 -0.096032664 -0.22054562 -0.17552374 0.4797451 0.11218486 0.34444934 -0.3613243 -0.07991203 0.28378436 0.90232813 -0.007462402 0.038212422 -0.23602429 0.0960379 -0.33385855 0.3196702 0.5207516 -0.45135602 0.23033418 -0.040982112 0.0015114684 0.03718901 -0.25833395 -0.18584561 -0.39317086 -0.2756895 0.26345843 0.15755859 -0.2617482 0.044293318 0.28489193 0.4511747 0.28242278 -0.06913484 -0.019012187 0.4173531 0.43466106 -0.24718197 -0.5007845 0.37630183 0.054638907 -0.22046687 -0.37013048 -0.04890612 -0.25830123 0.3407996 -0.25017995 -0.49773705 -0.023054626 -0.10181309 0.070437945 -0.62553424 0.014637702 0.3543229 0.5011398 0.05590576 0.5848177 0.022885693 0.78113705 -0.16212316 -0.34622723 -0.14457135 -0.2575653 0.29580584 0.6881245 0.2193171 0.15558225 0.3043465 -0.1431698 -0.04335506 -0.04154877 0.09666429 -0.5071895 -0.07924292 0.10985617 0.007420187 0.20065773 -0.04216931 -0.2959261 0.2221453 -0.33622617 0.3391178 -0.2857933 -0.18372941 -0.31903288 -0.038959272 0.17224668 0.4267812 -0.12179915 0.14056267 -0.03917527 -0.21769711 -0.35954842 0.0147030335 -0.32687822 0.13429756 -0.56725544 0.08474744 0.14162146 -0.39847672 0.48391724 0.46501958 -0.00195774 0.025335602 0.15869889 0.112978555 0.067741334 -0.32635543 0.39829838 -0.16790892 0.13791548 0.17149907 -0.21457182 -0.054302476 -0.14325921 -0.11946749 -0.03725839 -0.17967822 -0.5337863 -0.07514696 -0.361029 0.16802351
2658 0.4392271 -0.4729832 0.28917316 0.24398859 0.16423155 -0.20502198 -0.7938964 0.13507427 -0.33848435 0.27785715 0.4743234 -0.21864809 0.26051003 -0.37635812 -0.018590871 0.9480765 0.8241602 0.15400901 0.13805157 -0.46573234 0.25659618 -0.40629363 0.15929642 -0.21702655 0.77376294 0.39303076 0.18526424 0.4126816 -0.85424024 0.19169113 0.07674253 -0.045629475 -0.19361886 0.23741136 0.4222141 -0.0565615 -0.13474791 0.74359614 0.31437898 0.124696255 -0.30616653 0.1177385 0.8388874 0.009640759 0.13504292 0.30407235 0.5019373 -0.20835134 -0.6740334 -0.47307077 -0.5153736 0.15668337 -0.35895035 0.21183604 -0.09456723 0.554685 0.020485893 0.4096621 -0.28398675 0.2906536 0.09975074 -0.095990665 0.072411865 -0.63531965 0.4472449 -0.40336007 -0.25815642 0.8480543 -0.26495978 -0.45625913 0.32977536 0.47101372 -0.7131911 -0.010139408 -0.24122539 0.2236995 -0.25155073 0.3117642 0.07162285 -0.4406402 -0.3417916 0.72864246 0.20223078 0.3509329 0.08035603 -0.34554425 0.61503994 0.45810387 -0.23038219 -0.8882577 -0.48706868 0.7176957 0.7766861 -0.34752843 0.40899876 0.32121277 -0.2447886 0.04679851 -0.36035457 0.40002537 -0.5026912 -0.75182045 0.032125477 -0.058331937 -0.18147953 -0.3572042 0.7032235 0.105373435 0.12499877 0.08583204 0.4184617 -0.09444782 0.24897961 -0.25378463 0.20409906 0.18603095 0.063622795 -0.14375946 -0.061104313 0.7320465 -0.20262921 0.014366634 0.115631305 -0.48507798 -0.42698926 0.6217634 0.11490294 0.061725702
12350 -0.32996488 -0.11183503 -0.053770345 0.21004528 0.8090325 0.11140662 0.6160202 -0.4110078 0.12190962 -0.14870813 -0.3788864 -0.15082371 -0.39631107 -0.47129288 -0.30604285 -0.14730446 -0.3305149 0.16601592 0.15547886 0.025022151 0.1736692 0.11828271 -0.3426382 -0.52110434 0.2255419 -0.12524171 -0.08150129 0.051501237 -0.7685162 -0.08675144 -0.0017116137 -0.045025624 0.3784839 0.36523083 -0.015117993 0.17804936 0.11401258 -0.0025620142 -0.072084144 0.06587787 -0.43214846 0.031091819 0.48142081 0.49104583 -0.42844918 0.11393653 -0.14517444 -0.18441048 0.11109151 -0.32688564 -0.30135617 0.30674276 0.08872029 -0.2687161 0.5549944 0.26228923 0.47391275 -0.19673465 -0.016960392 0.6132571 0.1268897 -0.22263773 0.29868826 -0.3014507 0.0046639005 -0.3334852 -0.38755026 0.19603233 0.08702437 -0.63783234 0.063766465 0.49571735 -0.21303305 -0.058258552 -0.14412598 -0.35571676 -0.26418155 -0.1578454 -0.52111876 0.09663956 -0.16656333 0.075717054 0.23134995 0.079773545 0.1653765 -0.24646668 -0.29874942 0.15524448 -0.6075609 0.14403339 0.04048334 0.2528222 0.1531086 -0.07650068 0.058921576 0.05354835 -0.5296063 -0.41349307 -0.21101123 0.10038175 0.24339706 0.27000943 -0.110122085 -0.008348419 -0.60390943 0.047452863 -0.049642675 0.30260175 0.2756945 -0.30170658 -0.051448386 0.06541524 0.17118262 -0.53493494 -0.34541363 0.17157055 0.21052392 0.094781324 -0.13384533 -0.040302 -0.8093235 0.38423374 0.11231221 0.064526685 -0.33763614 0.43363774 -0.78913355 -0.010055848
39127 -0.20919362 0.14287151 0.11398819 -0.14202958 0.4049793 -0.32533506 -0.37083486 0.27681303 0.13951176 0.15533273 -0.38263947 -0.02130606 0.14118448 -0.5142385 -0.6183527 0.03390986 0.18897623 -0.25255233 0.23342723 -0.2909798 -0.44049144 0.0010705875 0.047147457 0.2561918 0.48416007 -0.15691683 0.124662116 0.25920412 -0.29201964 0.010763684 0.12443836 0.0446922 -0.15915719 0.38565135 0.51036644 -0.010710692 5.5361215e-05 0.073121324 0.24995187 -0.5201437 -0.068781346 0.00531501 0.69407713 -0.15954003 -0.06705681 -0.055839643 0.3257893 0.3375353 -0.61293846 -0.50372684 -0.3021091 0.15842827 -0.42885944 0.053744823 0.104585305 0.16122645 -0.20146133 -0.17758471 0.30218408 -0.2768565 0.12495315 -0.13235466 0.6583918 -0.07038892 0.04098677 -0.1745991 -0.10458978 -0.12809809 0.20403105 -0.26866636 0.18132006 0.066198304 -0.6280361 -0.021976693 0.4877624 -0.3958878 0.09704571 -0.32510012 0.20832127 0.12999037 -0.11756726 0.26151794 0.21096775 0.11376757 0.56408054 0.08706378 0.45001063 0.253115 -0.49622372 -0.12688905 -0.5014287 0.19846734 0.09547109 -0.32981765 0.32756814 -0.029933253 -0.4585766 -0.8188509 0.21250749 0.20407103 0.5767877 -0.31349745 -0.1415497 -0.14674263 -0.6376273 -0.5679476 0.34574187 -0.032960467 -0.029011907 0.22983539 0.42221826 0.3556548 -0.23473181 -0.76413375 0.09423491 0.40589833 -0.11389826 -0.3201939 -0.48993856 -0.37406382 -0.5019399 0.115000725 0.18427819 -0.1262454 -0.49757546 0.8663655 -0.2433169 0.082564555
85352 -0.3564351 -0.15826039 0.18281019 0.11501716 0.6586621 -0.13649863 -0.43212074 -0.6263449 0.4029543 0.32536983 0.054207355 -0.16589253 0.36196572 -0.041714355 0.2580979 0.18233879 -0.02653865 -0.25222534 -0.1081862 -0.23208168 0.23327087 0.1004017 -0.33375221 -0.42633042 0.67126983 -0.02494733 -0.19784015 -0.21138822 -0.22344285 -0.13835457 0.23020297 -0.3245163 0.5102524 -0.16073713 -0.034313306 0.3145352 0.02576403 0.46852368 0.29379505 -0.08578637 -0.49262136 0.27331966 0.23772596 0.34786996 -0.080752075 -0.01428806 -0.0022193964 0.519251 -0.45668742 0.5328744 -0.101164885 1.0775973 -0.15036522 -0.09892636 -0.043546755 -0.0022690813 0.08420586 0.14133136 -0.03757609 0.28028986 0.24104884 0.18907903 -0.11446838 -0.96925706 -0.15724586 -0.65678453 -0.65618896 0.46907207 0.14649367 -0.05526321 -0.09803214 0.48208797 -0.2012237 -0.40947318 -0.2897511 -0.14311023 -0.41482356 -0.36558783 -0.017454917 0.05036141 -0.4110895 -0.1824156 0.37887132 0.0018877895 0.18085057 0.2204667 0.38835815 -0.072965264 0.120496094 0.0033189757 -0.26152113 -0.53551817 0.30125132 0.22950481 0.31252936 -0.2061013 0.019575242 -0.09740483 0.05305211 0.20796688 0.25116175 -0.34257144 0.0048091575 -0.22231425 0.0880354 -0.2817249 0.13627647 -0.22693343 0.032986812 0.4491164 0.10484989 -0.41273284 -0.25531614 -0.26390094 0.08446928 -0.15558119 -0.04737904 0.42631108 -0.35145208 0.14175792 -0.08537419 0.046910293 0.13989472 -0.47962466 -0.6251265 0.2029584 -0.5776617 -0.19488594
35922 0.21918714 -0.1882454 -0.09048242 -0.08537388 0.40054387 0.03933465 0.007668779 -0.13658316 0.27563956 -0.15000704 -0.21556379 0.038696364 0.14108193 -0.2893381 0.18205975 0.5848186 -0.10006456 0.19314198 0.22699703 -0.024691213 0.1010303 -0.064678796 0.07442837 -0.21251303 0.28907487 -0.11295076 -0.35336414 -0.4127392 -0.5523941 0.26748794 -0.19349685 -0.24316621 -0.02983504 0.80117464 0.48850653 -0.037462987 0.57862693 0.14612468 0.5941031 -0.069795206 -0.32719922 0.436119 0.115129784 0.11969792 0.33377418 -0.0044862097 -0.56943226 0.02599076 -0.192536 -0.09072282 -0.1548942 -0.07509999 -0.14136069 0.009233707 -0.05780733 0.04475448 -0.26374584 -0.5577987 -0.14899896 0.38748476 -0.22474706 -0.2536992 -0.08564787 -0.38182944 1.019081 -0.7890133 -0.2606416 0.18512316 -0.11772734 -0.32390958 0.60964996 0.29487732 -0.3111054 0.2668948 0.20096074 0.058338307 -0.37648213 0.14111444 -0.30161363 -0.18888822 -0.42902437 0.054354876 0.024401724 0.3669206 0.09366339 -0.19915576 -0.0440617 0.16137503 -0.054516777 0.08929977 -0.26208785 0.5168091 0.6206981 0.35093173 -0.19847274 -0.5485684 0.15390243 -0.644279 -0.4496379 0.26366714 -0.183017 0.32858437 0.0076060113 -0.35263303 -0.11964602 -0.029862931 0.13323002 0.15207046 -0.013719375 -0.3191605 -0.08569341 0.18205544 -0.31470647 -0.073993675 0.029645495 0.17627852 0.21712469 -0.076995194 -0.12217649 0.56984437 -0.008637601 -0.10482504 -0.21043807 -0.3723308 0.010459042 -0.078561485 0.08040862 -0.3538587
643221 0.13428296 -0.45652667 0.4389445 -0.06680417 0.8139362 -0.8470049 -0.09106057 -0.12274211 0.14328977 -0.13232206 -0.14498347 -0.1106937 0.057921544 -0.48504776 -0.09524572 0.5724636 0.37226906 0.11039883 0.5552088 -0.19573477 0.15238608 0.070417404 -0.04934409 0.42352605 0.22435583 -0.08965299 -0.30951664 0.46880198 -0.112583965 -0.23224962 0.36809012 0.61477363 0.12961689 0.9928784 0.3164577 0.30618432 0.26131123 -0.24955471 0.53760093 -0.10974013 -0.57368195 -0.38219234 0.55244744 -0.14025833 -0.054932576 0.22617185 0.46178293 -0.03591955 0.12445688 0.59004945 -0.10959874 0.30466673 -0.52613306 0.40569025 0.10051425 0.3127153 0.009067791 -0.14665814 -0.24871743 0.07477292 0.32235515 0.036777064 0.1099205 -0.95796096 1.1812662 -0.3177141 -0.51469594 0.14937428 0.41001925 0.36640278 0.3503348 -0.9721891 -0.38026306 0.07296703 0.38628277 0.12769784 -0.45369858 -0.19513585 -0.2764015 -0.27236435 -0.42705193 0.16683976 0.3253017 0.011825361 -0.29877663 -0.42978582 -0.19887048 0.32305187 -0.2998369 -0.17382155 -0.4375289 0.49678314 -0.18652086 -0.010752542 -0.08408838 -0.16587916 -0.47715497 0.02416042 -0.23628098 0.90824866 -0.4333704 -0.558345 -0.33807755 -0.059581235 -0.37410268 -0.07608249 0.6309029 -0.07423628 -0.6847272 -0.077871025 0.1300446 -0.08749089 -0.35788643 -0.6330672 -0.06541034 -0.15472904 0.74208206 0.06221545 -0.18656029 0.47474274 -0.37436602 -0.23600332 0.67176974 -0.22936358 -0.40695077 0.07956033 -0.36331987 0.0669853
16819 0.10976646 -0.3267056 0.3540407 0.18589273 0.4568546 -0.6824607 -0.080988 -0.011127059 0.035713077 -0.12340661 -0.13734491 -0.15167642 0.09049743 -0.30167553 0.029337855 0.6632609 0.34741718 0.14569409 0.34503415 -0.1820625 0.5008062 0.057160944 0.047453906 0.5103806 0.36913618 0.08762361 -0.3003282 0.3361736 0.016599756 -0.3813496 0.60839653 0.27932546 0.198882 0.5057098 0.2207799 0.45678523 0.29164785 -0.39548823 0.5239956 -0.41914612 -0.46720356 -0.36129496 0.63083297 -0.26573715 -0.1405982 0.1840387 0.32073632 -0.11203538 0.13808843 0.3303901 -0.10522117 0.26807562 -0.503856 0.25371927 -0.059936393 0.2773158 0.008775881 -0.33430567 -0.13895926 0.10949752 0.29546198 0.33186653 -0.053535193 -0.9251952 1.1155585 -0.36528453 -0.40242103 0.1965069 0.48884183 0.26679656 0.103272416 -0.74030876 -0.34578162 0.21375084 0.28302163 0.36362478 -0.19783978 -0.014782752 -0.47164214 -0.20325749 -0.48536667 0.23801686 0.22164094 0.20555592 -0.3191407 -0.35459372 -0.30082813 0.38611513 -0.45612904 -0.15065135 -0.34273663 0.5149817 -0.1956633 -0.35876554 0.0047411583 -0.10321813 -0.6260416 -0.035575356 0.0141739445 0.79092854 -0.4458527 -0.55441624 -0.1079318 0.043782666 -0.40278986 -0.17044547 0.6065507 -0.10852278 -0.67992985 -0.16800205 -0.096231095 -0.032909162 -0.17682447 -0.6143699 -0.028958602 -0.13864283 0.74134004 0.17398898 -0.2271632 0.27429828 -0.4854727 -0.23748688 1.0248541 -0.15166345 -0.3578687 -0.07401407 -0.4274457 0.060719486
230879 0.38873795 -0.35153162 0.24208328 0.1351754 0.33566484 -0.27261627 -0.71778756 0.009440455 -0.3270872 0.23489645 0.41967022 -0.534372 0.08978147 -0.29882932 -0.025704524 0.6977438 0.91311413 0.12069939 0.14150818 -0.26075083 0.10061106 -0.39573535 0.18959144 -0.3116629 0.63695437 0.19570546 0.12751305 0.31339684 -0.8554079 0.13182254 0.026656544 0.13669889 -0.13057731 0.2529727 0.29265356 -0.15436271 -0.020407757 0.72240764 0.10063077 0.17925945 -0.3947442 0.08602589 0.8096775 0.1717189 -0.035221692 0.20603518 0.616953 -0.01883429 -0.6195564 -0.46884385 -0.43899265 0.09428759 -0.5380972 0.01811724 -0.11446279 0.67864734 0.02822153 0.5822238 -0.09807203 0.26463398 0.050171375 -0.32610378 -0.1219918 -0.711362 0.3841159 -0.37698162 -0.19924219 0.73244643 -0.3438493 -0.45305973 0.42011866 0.2709596 -0.7218843 -0.16440262 -0.12648095 0.25600195 -0.13431677 0.20170894 -0.10563967 -0.34785768 -0.2858501 0.7456425 0.15094931 0.22207089 -0.16894789 -0.48032743 0.43756634 0.3045901 -0.29006574 -0.7507753 -0.28815314 0.7298095 0.4177199 -0.35071275 0.35188663 0.3294369 -0.4284279 0.30887443 -0.6045354 0.32480448 -0.5350174 -0.7986856 -0.10902022 -0.20576662 -0.5761914 -0.37250978 0.7129771 0.2762132 -0.0011480744 -0.048014842 0.250266 -0.1935591 0.21881352 -0.3663136 0.084410034 0.22039911 0.38716266 -0.1828247 0.0066651003 0.73534054 -0.23734793 -0.036695767 0.3096618 -0.7124261 -0.49370053 0.5614523 0.103723176 0.038807362
4804 -0.18093267 -0.29063836 -0.18390341 -0.037809126 0.44340247 0.31269866 0.1353144 -0.06815304 -0.21630295 0.43389985 -0.34680027 -0.10416822 -0.5125048 -0.4927748 -0.44972032 -0.37964052 0.44732013 -0.06533676 0.772251 0.18638839 -0.16623026 -0.10429005 -0.54959583 -0.286911 0.10602159 -0.22544205 -0.14860226 0.054688457 -0.60488814 0.24020566 0.17004776 0.09180456 0.11361424 0.028014287 0.0940451 0.012572654 0.4978031 0.42599258 -0.12454384 0.11909432 -0.08010053 0.152978 0.68815076 0.3951599 -0.031341124 0.38333344 0.058458593 -0.26607326 -0.034680437 -0.013144538 -0.6064249 0.45322847 -0.23875183 -0.2421327 0.33219224 0.14856309 0.1766839 -0.18940742 -0.21853396 0.37888736 0.4439207 0.09141588 0.60601705 -0.27268577 0.1664115 -0.18100622 -0.25329068 0.10702182 -0.10716556 -0.20200402 0.37196732 0.46792343 -0.30617443 -0.019183774 -0.01570775 -0.44802657 -0.17228036 -0.33417585 -0.55750793 -0.14040232 -0.12736563 -0.18092497 0.35015258 -0.056447998 -0.0943144 -0.36058533 -0.3139865 0.38840938 -0.7824175 -0.06636474 -0.11435129 -0.024363877 0.36374903 -0.26125872 -0.2576115 0.076591775 -0.074351616 -0.35416108 -0.17168447 0.20631942 0.03420271 0.24763426 -0.41821015 -0.124745235 -0.32134464 0.21946874 0.42975104 0.057366453 -0.026632978 -0.36413544 0.030320698 -0.2518087 -0.17818148 -0.6217476 -0.20314841 0.20236348 0.088494405 0.14955287 0.21258484 0.0028212967 -0.66152203 0.41611356 0.6323163 0.0064833034 -0.39873317 0.57191765 -0.40908718 0.33023903
10796 -0.09468758 -0.23838419 -0.029040992 0.17312348 0.4876043 0.003748569 -0.04142208 0.105056636 0.28045222 0.22885746 -0.11979211 0.1585426 0.16250119 -0.2694624 -0.40275857 0.3592154 -0.3269716 0.55986756 -0.3963087 -0.57663435 -0.3086944 -0.342221 0.17264189 0.20592318 -0.1391992 -0.02733746 0.35958666 0.001565869 -0.4849206 -0.010135049 -0.12382209 0.09626285 0.36604077 0.15789291 -0.05112309 0.12569273 0.2664166 0.5963986 -0.16341054 -0.39704916 0.082303114 0.78836036 0.10507496 -0.20898594 -0.0813539 0.24503177 0.39006326 -0.1707299 -0.17873457 -0.20689128 -0.5694197 0.12279436 -0.3611207 -0.23558876 0.71118176 -0.30534443 0.2610923 -0.26985726 -0.109461784 -0.2766807 -0.0534086 0.0122234 -0.04340778 -0.08286831 0.35147455 0.3050715 -0.1494072 0.48634994 0.31998318 0.3652269 0.32671803 0.27929538 -0.52112395 -0.40384546 -0.09937769 -0.13211082 -0.013622048 -0.005858274 0.37047592 -0.21787342 -0.027788173 -0.10078834 -0.072648674 0.031360306 0.39807624 -0.031851258 -0.15137069 0.11811963 -0.42590815 0.082582496 -0.19377916 0.062077474 0.28124478 -0.15996766 0.16593444 -0.4277389 -0.07252961 -0.9457548 -0.13790959 -0.32381207 0.32869926 -0.34682032 0.10609058 -0.22172955 -0.05048379 -0.34169787 0.33455136 -0.17239588 0.398985 0.1085348 0.25599715 0.08231268 0.2550269 -0.1162375 0.044005934 -0.24022 0.08246992 -0.5383587 -0.42531067 -0.02706233 -0.24263948 0.07392827 -0.120406285 -0.019649202 -0.43504533 0.10080602 -0.3949694 0.040196955
1481 0.060694598 0.062058005 0.010127168 -0.060191657 0.19875923 -0.33059847 0.08183797 -0.08903123 -0.1374803 0.9059927 -0.03667419 0.63442093 0.1642949 0.20903869 -0.27835903 0.28466 -0.07437463 0.4194249 0.018602243 -0.18962035 -0.30082938 0.27950066 0.15301086 -0.054715224 0.23882711 0.52212733 0.1597171 -0.27365872 -0.46315578 -0.11556978 -0.23571676 0.28224683 0.2881564 0.257691 -0.03207163 -0.29131472 0.03928315 0.36944762 0.3480988 -0.38797635 0.28436044 0.28974563 0.2560104 -0.4503699 0.21998517 0.022266198 0.7488721 0.33323926 -0.50243807 -0.19174594 -0.641194 -0.12906042 -0.27328807 -0.84506863 0.66227937 0.20240495 0.21200787 -0.18613297 -0.4615917 -0.17981796 0.02612459 0.34245256 0.07565087 -0.047695026 0.041856825 -0.12913103 -0.22092871 -0.2206477 -0.1063005 0.51736146 0.15483253 -0.0035307198 -0.2336586 -0.26045132 -0.050842516 0.04891286 0.0015812215 -0.49180818 -0.32032466 0.019655904 -0.39721802 0.16451326 0.01731534 0.1574208 0.8822233 -0.0734331 0.2997927 0.22407845 -0.24364111 0.19721882 -0.015996436 0.25403863 -0.1961006 -0.16543254 0.051346373 -0.3085225 -0.3616791 -0.3607663 -0.54905397 0.1383168 0.11638748 -0.26681253 0.007037054 0.050436042 0.013392247 -0.000423649 0.4023317 0.36877167 0.039467253 0.3222818 0.2286117 -0.039417725 -0.03648885 -0.2773639 0.82813686 -0.0036648011 0.3097791 0.034505837 -0.03647619 0.6562542 -0.23381232 0.14087705 0.11856336 0.017061898 -0.74829745 0.2529216 -0.036162477 0.31113598
10177 -0.14911503 -0.22207586 -0.23092301 -0.17226778 0.5348599 0.21492068 0.22993809 -0.08086755 0.05796084 0.48944047 -0.38600612 0.025384072 -0.2834541 -0.33950618 -0.51907545 -0.19083942 0.29276174 -0.11564687 0.84984356 0.150293 0.18927483 0.13081793 -0.26656222 -0.18233441 0.35619769 -0.14152968 0.09299694 0.10848313 -0.61298436 0.21674289 0.16489512 0.017929975 0.09270109 0.20159143 -0.035697572 0.13445576 0.4828761 0.15447992 -0.09924175 0.2479077 -0.35589597 0.15921742 0.54677796 0.18060608 0.11011431 0.11767697 -0.017094273 0.05036068 -0.07589782 -0.07406334 -0.46781144 0.70229745 0.031071773 0.074207395 0.6570524 -0.026401984 0.30194637 -0.32615882 0.03715195 0.48132747 0.33921105 0.1220154 0.16128114 -0.35132253 0.010499194 -0.26313353 -0.12116607 -0.028105946 0.0850076 -0.5471043 0.30786687 0.6572409 -0.097987756 -0.29533017 0.18296924 -0.23282613 -0.4984088 -0.42357013 -0.5721762 -0.064701885 -0.1094704 -0.29213902 0.43242326 0.34475094 0.30020955 -0.30915594 -0.30141243 0.3393383 -1.0104682 0.13391963 -0.045191042 0.07604996 0.33048818 -0.3257359 0.12070138 -0.0213985 -0.5281388 -0.59903157 0.078191444 0.17411861 -0.03037299 0.2245032 -0.30477422 -0.16038208 -0.5304605 -0.0628852 0.20667557 0.18761256 -0.060412876 -0.37062496 0.06574558 0.027405823 -0.1385169 -0.7391834 0.059474383 0.1672239 0.19345583 0.08750982 0.17131448 0.025563957 -0.69023734 0.49007133 0.35860476 -0.12956135 -0.2408697 0.5643139 -0.8146356 0.29304507
6334 -0.14817704 -0.059818268 -0.512628 -0.0036455756 0.20347103 -0.06892984 -0.3110307 0.30061948 -0.21047558 0.35836416 -0.24450532 -0.09078181 -0.11086906 -0.056535624 -0.5045804 0.107410796 -0.14434314 -0.32470325 0.3834165 0.19024678 0.10686541 0.082375415 -0.08434708 0.09818085 0.04899637 0.19988796 0.41511717 0.10642261 -0.19068114 -0.2062508 0.041330926 -0.19561775 0.15403989 0.043643754 -0.22357397 -0.27780125 0.5910051 0.09645438 -0.043784663 -0.44771075 0.11801846 0.15491755 0.48266652 -0.11643899 0.2625504 -0.44566572 -0.28947765 0.079358175 -0.09961849 -0.3936818 -0.33773646 0.5815287 0.18280184 0.08676099 0.31451693 0.5060361 0.49894562 -0.31980655 0.1765794 0.11872215 0.02531251 -0.07146291 0.17947263 -0.029064503 0.48740292 -0.2758559 -0.49917144 -0.25434017 0.29335698 0.004718079 0.28239173 0.23689732 -0.19791774 -0.4557648 0.24746467 -0.3723588 0.14554328 -0.5800742 0.34806454 0.018776385 -0.1237039 -0.028074142 0.26310584 0.38856462 0.4381668 -0.14368583 0.32803172 0.4642755 -0.42576694 0.17538168 -0.10839337 -0.19634256 0.15051645 0.019786626 0.06609688 -0.13089283 -0.2393797 -0.3720705 0.04863055 0.4143541 0.48986593 -0.37322104 -0.0029158862 -0.6442487 -0.2730252 -0.23946513 -0.2633516 -0.028156256 -0.21582647 0.065081105 -0.10879255 -0.04761052 0.02286198 -0.49063545 0.15675442 0.019909501 0.15772992 -0.1190368 -0.25968066 -0.31823352 -0.33786628 0.4283196 0.31395748 -0.34504414 -0.6042917 0.56218755 -0.09481241 -0.066913225
3218 -0.08444784 0.2035392 -0.041662257 0.11302932 0.31923717 -0.61188185 -0.14883432 0.44676867 -0.017032253 -0.011419535 -0.2511824 0.39138618 -0.041660044 -0.2937409 -0.38587874 0.3772244 -0.38497296 0.35723495 0.46724847 -0.04651119 -0.40124416 0.14759123 0.03764879 0.35485637 0.38603368 0.4534646 -0.3886483 0.4558931 -0.68001056 0.04404552 0.22820319 0.1733353 0.14412479 0.15868135 0.5076454 0.15740784 -0.15915914 -0.29791215 0.15444192 -0.43752518 -0.040646747 0.10391405 0.4620931 -0.15857972 -0.20075874 0.049633514 0.2524268 -0.28072295 -0.25940663 -0.30539685 -0.4834982 0.25415468 -0.38215667 -0.072696015 0.23169264 0.49673808 0.33220553 -0.213441 0.17719148 -0.31509194 0.029714108 0.069233544 0.47266382 -0.21692182 -0.11567515 -0.44205806 -0.5118805 0.006969679 0.037177272 -0.18605055 -0.15492135 -0.28119537 -0.12550011 -0.10468465 0.21946311 -0.25134295 0.0707902 -0.2562359 0.15819485 0.014836349 -0.0032092156 0.009577937 0.07657927 -0.11255009 0.41402367 -0.08571112 0.14541918 0.123824164 -0.24732256 0.4459546 -0.009108136 -0.27073044 0.07139329 0.1643717 -0.16023889 -0.0058614793 -0.5278618 -0.48568845 -0.3091495 0.32937428 0.81708 -0.2342157 -0.071819715 -0.1334397 -0.3270394 -0.24780954 0.6105921 0.6031871 0.13972804 0.06423183 0.3700243 0.5991166 0.07500694 -0.41052878 0.31329364 -0.068117715 0.042662255 -0.17681466 -0.45319355 -0.110386685 -0.6198821 -0.09229055 0.515205 -0.08753422 -0.40911147 0.8919848 -0.06292577 -0.00528082
54129 -0.12850045 -0.6559687 -0.18031286 0.21079502 0.6738438 -0.5581309 -0.3289086 -0.23979004 0.19855648 0.37530914 -0.08502055 -0.27277035 0.30945572 -0.36481565 0.283976 0.6967266 0.042928923 -0.05619279 0.070831686 0.42132184 -0.22150052 -0.30458537 -0.11134262 0.12052376 0.6863987 0.56733745 0.48897973 -0.28024745 -0.07419127 -0.02756897 0.052664857 -0.20013101 0.33104056 0.33527875 -0.1899356 0.15329757 0.769639 0.2481239 0.6066029 -0.31750253 -0.08978277 -0.14065666 0.46700186 -0.26247907 -0.79428995 0.17644033 0.1550922 0.39019534 -0.28373027 0.43521845 -0.10542625 0.9242996 -0.29164368 0.10869213 0.36003464 0.21961667 0.1594022 -0.47120297 0.43193755 0.34071422 -0.16448537 0.24024685 -0.20548311 -0.21397069 0.3055382 -0.17859834 -0.72295487 0.29898942 0.03265174 0.06537715 -0.11390405 0.43389595 -0.16769227 -0.11149141 -0.29692042 0.058225133 -0.069848165 -0.48472956 -0.101729095 0.11725916 0.17668381 -0.25163445 -0.13088015 -0.13376755 -0.07986836 0.25023982 0.115233995 -0.045656487 0.10419863 -0.27187634 -0.4998728 0.1319742 -0.015188556 0.25992283 0.2376119 0.23943244 0.19662088 -0.33865964 0.043704316 0.14234622 0.7164384 0.046848882 -0.29362935 -0.08007596 -0.3516684 -0.34316364 0.20615026 -0.003043264 -0.27081808 -0.11299806 -0.15460525 -0.40917528 0.03386846 -0.17520179 -0.057084806 -0.283794 0.14558697 0.19919355 -0.22659591 0.0759389 -0.20440616 0.16517411 -0.016298793 -0.17337719 -0.64027363 -0.061565597 -0.21517308 -0.7462553
54131 -0.060864486 -0.49806282 -0.17881115 0.047281392 0.33146548 -0.5678226 -0.2851898 -0.37081465 0.57946247 0.1305861 -0.008282001 -0.43931818 0.5181316 0.001864017 0.5259639 0.29951006 -0.2495714 -0.10458532 0.148423 -0.1491703 -0.045916036 0.16871537 0.0982555 -0.18708755 0.45922562 0.71396816 -0.07944798 -0.16924943 -0.15817088 0.025217382 0.28055474 -0.31298968 0.42209515 0.21870446 -0.2694058 -0.016790282 0.29997158 0.121054925 0.769833 -0.4234428 0.094278194 -0.21302786 0.6732971 0.1605503 -0.49826425 -0.08717119 0.34919956 0.38213125 -0.02382002 0.5853987 0.1130489 0.60279304 -0.57761127 0.0074827643 0.16785093 0.00076428504 -0.23328629 -0.34821862 -0.010493551 0.14822814 -0.19577266 -0.082305044 -0.1423093 -0.60682416 -0.020739429 -0.0028734924 -0.5555789 0.18180513 0.058887344 -0.16054574 0.16007964 0.36589214 -0.16624625 -0.1036031 -0.102348745 -0.122700505 -0.09666837 -0.322064 0.12610866 0.23072779 -0.11717795 0.26183584 0.16559353 -0.33947903 -0.30953735 0.11460286 -0.17461611 0.16985014 -0.097082146 -0.18610053 -0.7121693 -0.35470432 0.051136214 0.31688 0.14281286 0.15075454 0.03957345 -0.3098177 0.2250354 0.12751333 -0.06571416 -0.37558424 -0.35130632 -0.1856652 -0.3200269 -0.15948416 0.11818269 -0.41254812 0.2799379 0.42569652 -0.1259052 -0.026813023 -0.16051167 -0.30347544 0.17311078 -0.0193774 -0.1536771 0.3240907 -0.25283074 0.033702124 -0.26801437 0.4238999 0.14042059 -0.36876944 -0.61601436 0.410102 -0.3184282 -0.5945247
23738 0.36696166 0.19863129 0.11821811 0.17760901 0.2830719 0.008476871 0.52576953 -0.123708054 -0.20580319 0.15494038 -0.16448446 0.10233695 -0.19858935 -0.017792005 -0.20578301 -0.12792893 -0.68100864 0.12275575 0.090460025 -0.2150171 -0.19446328 -0.58862257 0.29944956 0.0014318742 -0.04151611 0.10407421 -0.26611435 0.28070173 -0.68793327 0.20864719 0.3419868 0.13557139 -0.14163819 0.044992182 0.34891167 0.19143566 -0.12860647 0.10726765 0.24661846 -0.20910428 -0.27051032 0.4380018 0.52623415 0.3175646 -0.4348264 0.095733136 -0.04366191 -0.22727777 -0.2201112 -0.5019149 -0.56336486 0.33447292 -0.5704645 -0.18037476 0.56808007 0.1937095 0.3216376 -0.1415357 0.18211888 0.3173563 0.27343225 -0.27749297 0.12853216 -0.13479757 0.32876465 0.011576155 -0.24858893 0.25695768 0.20879295 0.07930325 0.405512 0.18238416 -0.0033861217 -0.04265968 0.34381536 -0.5250664 0.058933508 -0.15977514 -0.2908036 0.046877075 -0.25173178 -0.16225407 -0.34627396 -0.3853338 0.42415425 -0.16194265 -0.16259722 0.034089547 -0.14858787 0.15690196 0.04586562 0.5607464 0.28287315 0.3427201 -0.36367786 -0.19212928 -0.4388441 -0.5036253 -0.3628936 0.10628186 0.56471336 0.35545743 0.14445433 0.13823794 0.025216455 -0.017362442 0.24720927 -0.065850675 -0.10922411 0.12781547 0.32895803 -0.20648472 -0.34110668 -0.17383783 0.1390001 -0.5127749 -0.032281723 0.071646966 0.27304992 -0.15993637 -0.6759545 -0.016789556 0.11438125 0.09568463 -0.46924198 0.7513075 -0.40212154 0.12250173
2696 0.75879854 -0.4792159 -0.4154951 0.37866408 0.49990374 -0.3070137 -0.41955078 -0.15338618 -0.101422496 -0.04189033 0.20347583 0.22647879 0.52239776 -0.34226078 0.29510912 0.34140015 0.306921 0.095452376 0.16171315 -0.22308667 0.38079542 0.3502712 0.25268033 -0.074971765 0.46231386 0.21027932 0.12761426 0.18760303 -0.2336347 -0.28327122 -0.23606056 -0.18261822 0.018911613 0.19563422 -0.14252523 -0.029343091 -0.23397662 0.6267768 0.35889915 -0.11146282 -0.1811822 0.19368339 0.57756823 0.19575167 0.13230348 0.11061071 0.33042994 0.09890758 -0.4152004 -0.5537124 -0.47325054 0.083319016 -0.38658127 -0.36934996 -0.4673921 -0.04707581 -0.085432276 -0.31303415 -0.06446405 0.08011251 -0.027251877 -0.13498196 -0.31615135 -0.4789766 -0.014712391 -0.71944135 -0.19482021 0.664507 -0.34232217 0.053769443 0.32959318 0.51058245 -0.38011876 0.46667013 0.118073 0.28431514 -0.33624727 -0.094664834 -0.14370953 -0.13084573 -0.6832063 0.7108386 -0.057963528 -0.05842393 -0.22015215 -0.4588299 0.1454322 0.3927249 -0.6566175 -0.5549717 -0.4267004 0.6153633 1.1140523 -0.54096925 0.046706818 0.21948169 -0.16962774 -0.48942748 -0.23321594 0.07374715 -0.357268 -0.07454206 0.098985545 -0.28248385 0.2864644 -0.3728105 0.12645634 0.05313897 -0.058111247 -0.15402143 0.11770042 0.38334244 -0.06086531 -0.2324846 0.5314335 0.09287685 -0.032364167 0.17070192 -0.01112109 0.43012786 0.11407743 0.3321441 0.69226205 0.047117252 -0.44455656 0.1645463 0.2771885 -0.070456766
642894 -0.012920967 -0.4132463 0.20976818 0.011913715 0.7116911 -0.91752696 0.14952378 -0.09889087 0.4405208 0.023597535 -0.17202657 -0.18472919 0.04875901 -0.4143484 0.066716425 0.61640453 0.046360727 0.22864296 0.6680475 0.12363007 0.15663442 0.163844 -0.1310545 0.373105 0.3069735 -0.13805026 -0.06229863 0.4002396 -0.004990334 -0.35183075 0.33660007 0.46766382 0.29099542 1.0101776 0.15674256 0.40308717 0.12300833 -0.09783739 0.3972268 -0.29602665 -0.69498235 -0.47026303 0.5591975 -0.11284975 0.16568977 0.061405767 0.67065537 0.13342953 0.4296066 0.5337109 -0.023367586 0.287073 -0.6596278 0.20994894 0.033260763 0.35797748 0.032221004 -0.13050237 -0.0640651 0.09989735 0.5640331 -0.08110074 0.3023567 -0.7480797 1.1512033 -0.48101297 -0.6408382 0.012724493 0.35297352 0.2846109 0.4096478 -0.81712544 -0.45383698 0.079183415 0.26063466 -0.20791927 -0.6005783 -0.1970702 -0.2511904 -0.24736992 -0.24351045 0.22984768 0.31566253 0.03291813 -0.358573 -0.49372053 -0.3424281 0.13504252 -0.3370202 -0.17889495 -0.33403087 0.64783454 -0.2563925 -0.31520995 -0.33421913 -0.15384252 -0.3268714 -0.094983645 -0.24092977 0.79322827 -0.40461007 -0.5059428 -0.29188657 -0.1393489 -0.49558935 -0.12364222 0.4699366 -0.18609056 -0.6787861 -0.10855798 0.038124606 -0.030041974 -0.3454467 -0.79355115 0.05188887 -0.10761027 0.82205266 -0.16213281 -0.30127728 0.35955706 -0.71929497 -0.1858676 0.9354193 -0.3338239 -0.4869132 -0.07613998 -0.51762253 0.1278741
1688 -0.3632232 -0.29486838 -0.12562262 -0.27216575 0.72988075 -0.11533574 -0.5376366 -0.4660658 0.3089579 -0.15923423 -0.0783031 -0.24139364 0.47815767 0.19700825 0.05044813 0.34755912 0.11311186 -0.25644052 -0.23913923 -0.032550115 -0.1954044 -0.1355966 -0.47850642 -0.01919351 0.49319908 0.34778002 -0.07553913 -0.18219194 0.051221628 0.05016555 0.1516178 -0.034152362 0.5812551 0.3695445 -0.04160143 0.30789447 0.0038247067 0.35119224 0.40677613 -0.18379928 -0.25578907 -0.22998488 0.3160195 0.07662472 -0.081484735 -0.4451723 -0.44987196 0.31682938 -0.42808518 0.12804805 -0.5388112 1.0695666 -0.2746737 0.018517094 -0.0933814 0.41815323 -0.08059505 0.2305669 0.2904138 0.45066515 -0.036559064 0.13871215 -0.23529796 -0.8401237 0.08056004 -0.45857006 -0.5855302 0.46581534 0.40754142 0.2234193 0.39825216 0.3416184 -0.23746029 -0.3716114 -0.11854587 -0.54382247 0.11491244 0.17835198 -0.18206054 0.10107388 0.20109351 -0.24084678 -0.102593474 -0.036629084 0.2693952 0.13650656 0.50448143 0.29770565 0.100846 -0.34228012 -0.22102478 -0.15898612 -0.10667969 0.28736225 0.1131718 0.24076375 -0.041457005 -0.092171386 -0.06865544 0.31039762 0.38221848 -0.24700661 0.039640855 0.082200184 -0.19820751 -0.16408116 0.5303871 0.020720746 -0.3739541 0.3113007 0.033508692 -0.10989981 0.12329214 -0.31114015 -0.16321403 -0.1741505 0.075723946 0.30396852 -0.08072624 0.3559213 -0.16464528 0.10195623 0.32220066 -0.6907997 -0.4616173 0.58561087 -0.39029178 -0.13797729
210871 -0.11986604 -0.33104143 -0.099877186 0.12188468 0.2742787 -0.33861315 -0.023372961 -0.22713548 0.65055937 0.23356499 -0.14986785 -0.38060394 0.20737495 -0.046602312 0.42827532 -0.10730291 -0.2772502 -0.1321236 0.09847042 -0.3478775 -0.26946083 0.03194699 -0.028185595 -0.2980775 0.22850747 0.58955586 0.27085575 -0.29060635 -0.14156274 -0.029054957 0.532312 0.09405443 0.4708062 0.11688949 -0.05001622 0.45097902 0.32306567 0.8338778 0.3062535 -0.34165165 -0.39261085 0.084345534 0.13840574 0.30400518 -0.72172755 -0.28965798 0.1280132 0.041377813 0.10714252 0.604372 -0.0011001972 0.5752225 -0.29419586 -0.32194424 0.32508397 0.100830115 0.015842848 0.00076965045 0.19708823 -0.20729138 0.2112727 -0.15140206 -0.33144033 -0.58503115 -0.071937054 -0.01152066 -0.38411966 0.49778274 0.096583866 0.2681063 0.2346933 0.15082565 -0.25133458 -0.12079733 -0.19312471 0.13808708 -0.023281533 -0.08260048 0.5091864 0.21110064 0.025656236 -0.018841103 0.113433 -0.2942266 -0.11607198 0.19528218 0.08884319 0.41812265 0.035578463 0.28665504 -0.2452077 -0.08621408 0.30230683 0.4568209 0.13300699 0.35138112 0.10209212 -0.05803041 -0.23772092 0.067264855 0.004505943 -0.3767717 -0.38781106 -0.25948927 -0.3529907 -0.37390473 0.28793186 0.20612444 0.094834864 0.09432572 0.065596044 0.083473705 -0.062482707 -0.118592635 0.23708996 0.08249724 0.119488515 0.14609371 -0.43578097 0.11764208 -0.08620037 0.15365109 0.32060483 -0.66436946 -0.62096035 0.21517758 -0.18421495 0.008177883
4335 0.19268288 -0.064265735 0.0054941913 0.13747439 0.4049814 0.27834338 -0.11253898 0.010923703 -0.16099556 -0.21756677 -0.0068856236 -0.22572121 -0.08806122 -0.31608126 -0.081371576 0.14086933 -0.21938205 0.01014469 0.27695045 -0.15494604 0.47559294 -0.29464114 0.28393164 -0.19443136 -0.2221036 -0.08305461 -0.36915863 -0.37193775 -0.37792286 0.09650808 -0.018667739 -0.052727092 -0.118187465 0.8427156 0.65949297 0.14010012 0.13627371 -0.19039294 0.49391028 -0.18271741 -0.44444448 0.06354804 0.29587504 0.022636564 0.27365223 0.20490043 -0.17539704 -0.25827673 -0.22879079 -0.36456963 -0.46464264 0.005462945 -0.38230336 0.031641327 0.08514637 -0.05198295 -0.47896478 -0.4796927 0.2189141 0.5602881 0.071098045 -0.27131158 -0.27140054 -0.5081803 0.77865267 -0.63255495 0.080208644 0.011382434 0.069894604 0.06083838 0.8561682 0.037237026 -0.26591513 0.33510962 -0.06728566 -0.28633764 -0.48895058 -0.28853136 -0.14700729 -0.1341221 -0.523881 -0.04978139 0.173487 -0.012662195 -0.11670786 -0.22632466 -0.27057987 0.107341595 -0.25511566 0.046778567 -0.19469164 0.47366124 0.44547713 0.54227275 -0.4084188 -0.5908491 -0.22395766 -0.4821802 -0.44346064 0.35902774 -0.20850316 0.31707323 -0.15075395 -0.55641276 -0.13262835 -0.11337395 0.119701326 0.5466193 -0.15396418 -0.20823534 -0.17841712 -0.322431 -0.29079002 -0.23778622 -0.02205867 -0.40297163 0.40535727 0.092527956 0.09115579 0.6964151 -0.10241796 0.040285625 0.10085366 -0.40411216 -0.39157706 0.48279417 0.045452807 0.18553667
35797 0.55122775 -0.26696926 0.11035709 0.37204576 0.024996737 -0.17282636 -0.46963614 0.116847746 0.17136593 -0.18591622 -0.0353712 -0.25855327 0.31483123 -0.043532204 -0.07798831 -0.043682113 -0.7445008 -0.0021742752 0.3270316 0.13878833 0.19843996 -0.376757 0.16541196 -0.18119055 -0.010593566 0.9317497 -0.06309962 0.14468516 -0.3247864 -0.036096025 0.18797322 -0.336974 0.544642 0.33840114 -0.11504182 0.0980401 0.17190814 0.052390523 0.17928368 -0.1288677 -0.012600007 -0.30572823 0.415368 0.032026336 0.03928756 0.010879338 -0.03171092 0.08688673 -0.3227178 -0.081167586 -0.71922845 0.31089765 0.05529716 0.19795905 -0.178105 0.24387524 0.078320175 -0.00027648924 0.3364874 0.057875812 -0.36860633 0.10655226 -0.12860876 -0.19260629 0.24907085 -0.17504379 -0.29619387 0.43362567 0.34497565 -0.10727932 0.26494285 -0.36576968 -0.35769093 0.051261555 -0.12494468 0.1527753 -0.59295315 -0.11517515 0.04867994 -0.26929128 -0.62348735 -0.04776312 -0.3486829 -0.056981597 -0.06871673 -0.47970825 0.14863014 -0.21462327 -0.16787554 -0.0945941 -0.44600725 0.46842492 0.30505368 0.09623444 0.5307969 -0.011476739 -0.20251481 -0.31884524 -0.12454003 0.37924883 0.2061558 0.0598375 -0.27667916 -0.038898777 0.1593851 -0.5044738 0.24928083 0.041052263 0.5786152 0.28616276 0.013699256 -0.13030545 0.011656128 -0.10518286 -0.21625073 0.18324666 0.78630424 -0.060844243 -0.019773612 0.32794827 0.11829928 0.12637521 0.4056545 0.22411023 -0.24351236 0.3486495 -0.005736221 0.09246816
34257 0.4051244 -0.53022134 0.6957663 -0.023572544 0.42549223 -0.71004075 0.07429117 -0.4855512 -0.12626939 -0.08321939 0.1471967 -0.31030086 0.113473244 -0.08601936 -0.6983955 0.12624349 -0.27154985 0.18377323 -0.056616776 0.6087705 -0.26568592 0.2074279 -0.5395899 -0.1323125 0.71790427 -0.2322663 0.15705308 -0.20593339 -0.8361708 0.060376715 -0.2098371 0.09642672 0.15406667 0.08638145 -0.37655604 -0.1690789 -0.094354756 0.60250807 0.28341767 -0.34639114 0.06702704 0.5652866 0.55979055 -0.36782822 -0.33981556 -0.1261215 0.35647765 -0.1842688 -0.016788308 -0.068732776 -0.2992541 0.42733037 -0.22143023 -0.12842466 0.70787203 0.12293238 0.11912903 0.112953044 0.11703371 0.09696612 0.12754476 -0.12866604 -0.28836983 -0.3823776 0.41574883 -1.1295954 -0.6347671 0.09110682 -0.10545605 0.1755233 0.4252011 0.04923173 0.013198227 -0.14913881 -0.17458487 -0.18305121 -0.27036664 0.107043 -0.22881097 -0.16240981 0.092211396 1.0928357 0.22690606 -0.3819132 0.2631709 -0.14978833 -0.1295462 0.22829312 -0.52058494 -0.052261326 -0.61503124 0.98510677 0.34454778 0.49339008 -0.019815894 0.12680823 -0.47116822 -0.39604098 0.42291614 0.0041614724 -0.26019484 -0.09601452 0.36040586 0.20092079 0.22371739 -0.6978614 0.4252907 -0.08613425 0.23130079 0.3806672 0.013620313 0.14637583 0.31009912 -0.46958125 0.12844637 0.26904956 0.36765394 0.03282968 -0.7198564 -0.28817624 -0.981378 -0.55516696 1.1689597 -0.20295975 -0.3449219 0.38050598 -0.33253726 0.023637623
6910 0.28699934 -0.21025899 -0.14506866 0.7274072 0.11821755 0.35166347 -0.09353788 -0.3409939 0.31832397 0.16336037 0.21758519 -0.18637465 -0.061370578 -0.06293292 -0.21727785 0.58017534 -0.2995738 0.11559579 0.2585781 0.043099158 0.65606 -0.0841101 0.069633305 0.3171215 0.04488052 0.56844497 -0.15522544 0.08760412 0.18416879 0.013609855 0.0767746 0.03575315 0.16912474 0.8289988 0.10854356 0.22616985 -0.12921795 -0.31104398 0.69409955 0.1704746 -0.39626452 -0.2952074 0.74408525 -0.2655739 0.19189267 0.27004427 0.21874371 0.017778179 0.32437417 0.09264513 -0.5969372 0.26820415 -0.64648455 -0.16445556 0.19585459 0.26738942 -0.49563077 -0.03804383 0.12124415 0.0702437 0.12731087 0.06921503 0.24935775 -0.587653 0.9692116 -0.53375745 -0.46890107 0.13144971 -0.047276694 0.18666834 -0.049934953 0.011178238 -0.6585509 -0.2273398 0.62374675 -0.23307611 -0.43444747 0.6264007 -0.32254913 -0.31593865 -0.18942012 0.5321987 0.15451561 0.18854569 -0.34664118 -0.5357096 -0.08949723 -0.36328188 -0.3989445 -0.16658503 -0.60074717 0.5972964 0.35344905 0.023992881 -0.0960488 -0.06570784 -0.10318971 -0.2986418 -0.21998422 0.526728 0.08993578 0.35790777 -0.0032097367 -0.67556727 -0.4338416 -0.36377445 -0.38441208 0.1078988 0.0054669194 -0.063142374 -0.38603702 -0.23179904 -0.12908685 -0.88054395 0.2838612 0.2862389 0.6341415 0.3386247 -1.0327317 0.8114551 -0.06542547 -0.2860656 0.66811275 -0.19378005 -0.50159687 -0.21379454 -0.2639358 -0.17084336
2654 0.41154388 0.15278271 0.16564836 0.3375151 0.34797177 0.34978274 -0.099859886 0.19572026 -0.2816421 0.06695594 -0.17371981 -0.3652913 -0.01610426 -0.21608587 -0.34246072 -0.21374142 -0.32946327 -0.061833028 0.5608621 -0.4992079 -0.057628606 -0.31825903 -0.013865667 -0.23442873 0.2838402 -0.044049382 -0.042058863 0.23378134 -0.69361573 0.102152646 -0.04836995 0.04847381 -0.10201935 0.20134567 0.30219987 0.31681055 -0.25927696 -0.24174444 0.06455882 0.016627586 -0.2329447 0.38294518 0.58242464 0.28148112 -0.06642556 -0.24907914 -0.14120966 0.30292353 -0.178105 0.14503905 -0.5038017 0.51843035 -0.38615462 0.24447766 0.31672964 0.3455116 0.38121518 -0.42144182 0.25194287 0.50737596 -0.032442816 0.27731934 0.59220475 0.09976631 0.5200014 -0.023652403 -0.15459494 0.07746073 0.0112667605 0.06279848 0.32502353 -0.14440723 -0.70797414 -0.11664255 0.32539696 -0.38661563 0.23222706 -0.23006386 0.1807604 0.23612805 -0.56939214 -0.015436378 -0.2730354 -0.2011276 0.17063214 -0.3257347 0.12282243 0.15118985 -0.09550868 -0.3327078 -0.5013574 0.124800295 0.18281183 -0.03177761 0.0040392987 -0.38495517 -0.32616588 -0.009363463 -0.057871614 0.33428663 0.739457 -0.3688625 -0.16616093 -0.22627918 0.06814863 -0.09408459 -0.4459974 -0.07489135 0.034404363 0.5360053 -0.17426288 -0.34629652 -0.51855344 -0.301503 -0.078223914 -0.40303934 0.084779456 -0.104899295 0.022094194 0.00034543814 -0.43129402 0.42879918 0.4423251 -0.23221686 -0.67367435 0.47111785 -0.1877664 0.14509398
5348 0.8392849 -0.3680968 -0.38734776 0.16960359 0.3579118 -0.13614216 -0.55726486 -0.13371623 -0.18886204 -0.06622804 0.45829394 -0.007352033 0.66120434 -0.40278 0.31808552 0.23661065 0.075151786 0.05158626 0.3151415 -0.1553701 0.29753262 0.10074309 0.3185617 -0.28390914 0.4975259 0.33353704 0.13591024 0.35231182 -0.2916391 -0.3575546 -0.14474523 -0.47604972 0.21004003 0.25514227 -0.23352793 -0.12689371 -0.1319954 0.8402317 0.44884327 0.0035013766 -0.20510846 0.23609824 0.48915344 0.2683061 -0.017698595 0.13050382 0.44886303 0.2717894 -0.57936937 -0.55958146 -0.43851876 0.23493613 -0.39105192 -0.15204363 -0.3068911 0.06776233 0.08778752 -0.1411711 -0.09670985 0.050373636 -0.0204633 -0.097050846 -0.107968666 -0.49102893 0.086498775 -0.43540657 -0.33077624 0.72565186 -0.29817536 -0.019016149 0.27679572 0.18603335 -0.35049614 0.332505 0.1426582 0.2518426 -0.3821429 -0.088926986 -0.00811791 -0.071882114 -0.6416859 0.8271832 -0.084794566 0.11339913 -0.24949919 -0.6042697 0.13398899 0.27215177 -0.42278013 -0.4694908 -0.42513552 0.75783664 1.0169717 -0.48045114 0.18062331 0.19367893 -0.16346855 -0.39953902 -0.28753832 0.06673133 -0.4212863 0.113080345 -0.04558493 -0.3107707 0.15037858 -0.45942444 0.30533665 -0.0044160597 0.176981 0.002554037 0.16085555 0.320453 0.17462948 -0.09684979 0.5013208 0.11872436 0.007028838 0.28147635 -0.06443531 0.392836 0.09015641 0.19579011 0.501417 0.12876509 -0.34053448 0.2819254 0.29416898 -0.029321373
5086 0.6153887 -0.35302222 0.5767767 0.17860737 0.0499452 -0.27139226 -0.41978338 0.00847562 -0.20538403 -0.3794355 -0.10087206 -0.124729976 -0.30684102 0.29169026 -0.15781277 0.026937274 -0.051565386 -0.0671611 0.1557071 0.12440402 0.36249056 -0.36847413 0.12691571 0.021329748 0.021102684 -0.28070572 0.26318038 0.76602334 -0.19105875 -0.023372503 0.35411724 0.4134932 -0.63190806 0.49158385 0.2836057 0.5469754 -0.22549194 -0.21751651 0.25761342 -0.31404194 -0.46636662 -0.21213286 0.7762512 0.34774604 -0.07548723 0.4153729 0.3944951 0.03229245 0.27788985 0.39939314 -0.66053206 0.57499826 -0.36719084 -0.24688233 0.017334681 -0.09152607 -0.14397271 -0.16254914 -0.16994847 0.23629928 -0.29880413 -0.1890769 0.43174586 -0.22603254 0.9920419 -0.49773684 -0.06270373 0.3320408 0.20815311 0.16195998 0.22800866 0.19085285 -0.537661 0.28847528 0.39380273 0.22804248 0.055664003 -0.654996 -0.3184216 -0.19136609 -0.21977635 -0.27070972 -0.17274533 -0.066722326 -0.035009682 -0.057772502 -0.16473004 0.29136544 -0.2770603 -0.35410324 -0.4181472 0.3890293 0.26796743 0.5555006 -0.05962565 -0.24407849 -0.54901433 -0.63138235 -0.37328085 0.44341537 -0.41341698 0.06505948 -0.29245335 -0.2687502 0.041144483 -0.14019299 0.2278776 0.2877677 -0.3634692 0.21815047 -0.115871854 0.08828288 0.08468186 -0.2996498 -0.10239519 0.09598082 0.17602219 -0.030754754 -0.14525789 0.2596885 -0.4127217 0.04181389 0.6437648 -0.30050075 -0.6593706 -0.07814394 -0.28781673 -0.066863
3233 -0.19701312 0.27539864 -0.13047422 -0.14847569 0.33331338 0.048464954 0.3026867 0.13705194 0.059390746 0.3928454 0.031280167 -0.14179601 -0.22335361 -0.04523939 -0.25889787 -0.18179838 0.08086417 -0.103947856 0.6318095 -0.36723918 -0.22776632 -0.037320554 -0.2495184 -0.2476302 -0.0035572262 -0.09254482 -0.009550945 0.30899623 -0.57899195 -0.20695424 0.4374821 -0.06351482 0.1563435 0.28152275 0.21067426 -0.1404835 0.05725988 0.2317273 -0.063666955 -0.19395326 0.18119535 0.24591038 0.64881665 0.37639523 -0.20229843 0.41611096 -0.06965334 0.3588355 0.014166576 -0.035669204 -0.72072583 0.38159785 -0.44562608 -0.013786077 -0.009524601 0.10307348 0.059000053 -0.1652509 -0.11276446 0.04138525 -0.010984934 0.32359838 0.66825825 0.104497015 0.5070888 -0.04265084 -0.19112933 -0.21487635 0.17608725 0.3026779 0.61887926 -0.058449805 -0.43695697 -0.32808155 0.7879777 -0.7717835 0.01155009 0.0633256 0.19723739 0.1606365 -0.4866648 -0.07213936 -0.016508495 -0.12470092 0.00084834796 0.090599716 -0.17368233 0.045252874 -0.65438545 -0.18034562 -0.26330656 -0.18597133 0.4363236 -0.02091606 -0.07796968 -0.22602117 -0.4085835 -0.4786709 0.3502083 0.04938316 0.15771958 0.088934645 -0.16781323 -0.15844835 -0.10237188 -0.066001385 0.13468787 0.0017625197 0.15329567 0.43431523 -0.009683804 -0.15955257 -0.05317456 -0.7563624 -0.082997024 0.24169345 0.04249547 -0.4256023 -0.26344207 0.33268622 -0.066893734 0.4172309 0.7312095 -0.43498164 -0.26575893 0.5715671 -0.47938594 -0.058624912
28350 -0.46377146 -0.6083237 -0.015545887 0.2876352 0.6179463 0.10674764 -0.10624234 -0.045096252 -0.08630722 0.6666433 0.3717154 0.16431975 0.08078193 -0.2509339 0.27174482 0.85871106 -0.032498688 0.09364668 -0.085127726 0.3478345 -0.32796273 0.26361468 0.510126 -0.44305956 0.24928656 0.43657047 0.25609016 -0.2531203 -0.05034553 -0.3328082 -0.41346142 0.06623418 0.09971476 0.029195596 -0.27573106 0.4192263 0.11021559 0.45117784 0.18696454 -0.036217384 -0.05871042 0.83174497 0.35115653 -0.27564877 0.24610347 -0.03803805 0.1609712 -0.186321 0.11010746 0.011852576 -0.3740527 0.23956375 -0.36986142 -0.46313456 0.083272986 -0.02152348 -0.09345755 -0.52953047 -0.06836709 -0.06181572 0.54102296 0.20681792 0.05849298 -0.16604109 0.64144486 -0.084571436 -0.3689986 0.13993035 -0.07536181 0.31055525 0.5114508 0.026036989 0.1239613 0.016509997 -0.06092745 -0.03282494 -0.30421045 -0.031011647 -0.36093813 0.004125732 -0.18928024 0.043870054 0.18887857 0.2504765 -0.45804265 0.07834086 -0.2395636 0.013101053 -0.56046885 -0.44492543 -0.39456502 0.47750998 0.0023151685 -0.14313428 -0.23579489 0.04987684 0.084975764 -0.2700295 0.09241543 -0.0080281645 -0.03600914 0.08563746 -0.060829334 0.124109276 -0.17975558 -0.47682157 0.43962604 0.4991695 0.27590895 -0.18813342 0.14226909 -0.123153195 -0.22114757 -0.37659314 0.05690037 -0.08932887 0.36851946 -0.08239535 -0.22582826 -0.23286626 -0.23974456 0.08894898 0.08943047 -0.21535423 -0.47833306 0.25927112 -0.23153874 0.5310961
1956 -0.4000002 -0.30224088 0.30498964 0.017050628 0.020126749 -0.5781246 0.08891434 -0.0175384 0.41556138 0.15743224 0.00059354695 -0.3851596 0.31001213 0.033065505 -0.14430842 0.3070571 0.064210676 -0.25127906 -0.13755004 -0.49136958 -0.2909915 -0.123095095 -0.5305441 -0.35311985 0.356473 0.53123695 0.4434402 0.043755308 -0.10984631 0.27952722 -0.011675126 0.12143779 0.27591336 0.23854572 -0.044992905 0.03512438 -0.053346332 0.29596478 0.25089228 -0.3025788 -0.52387035 -0.35416502 0.30050212 0.16224727 -0.2943381 0.10514908 0.29695845 0.12981999 -0.52307075 0.08520447 -0.6796198 0.7030773 -0.17293143 0.3750271 0.28304106 0.15677823 0.106967084 -0.44691065 -0.20141408 -0.17225428 -0.11622339 0.20310637 -0.018368188 -0.9478969 0.2679868 -0.60364705 -0.2961212 -0.016097255 0.14098448 0.21678762 0.040695034 0.17970788 -0.11744672 -0.69342196 -0.15365617 -0.026163023 0.4154997 0.076171316 0.32398427 0.28287798 0.52505714 0.06422384 0.16836953 0.014607644 0.29950854 -0.06502181 0.55410326 -0.26254043 -0.4952998 -0.2598767 0.20739922 -0.057022322 0.2262498 -0.020482613 0.010177838 -0.06676118 -0.18392318 -0.253314 -0.4963543 -0.12130978 0.4809976 -0.14115132 -0.21792954 -0.18063328 0.014828906 0.24060786 0.30186394 -0.1959035 -0.0147769395 0.3027839 -0.05295414 -0.2462376 0.019398235 -0.35510564 0.3422197 -0.28423032 -0.11158666 0.2669982 -0.5081491 0.2556452 -0.30889848 -0.050094835 0.052621897 0.075458705 -0.7971394 -0.0035613265 0.12729451 -0.22502273
153063 0.21651076 -0.6182757 0.54370254 0.11221606 0.051080976 -0.5129679 -0.4307292 0.13465163 -0.22864452 -0.054697126 -0.15979874 -0.18043426 -0.26762304 0.1052012 0.15646689 0.5727188 0.3350408 0.40439105 0.06271957 0.2332028 0.38982123 -0.23312458 0.15152648 0.473872 0.65056294 -0.13457206 0.25099748 0.57524675 0.15180196 -0.24297793 0.67347646 0.22051288 -0.36427295 0.24070653 0.29970315 0.8856162 0.18537831 -0.3158276 0.5864603 0.04014022 -0.46883053 -0.33470657 1.0109128 -0.08842231 -0.40543145 0.26479015 0.5397664 0.018011648 0.4274095 0.61012715 -0.50188446 0.85110795 -0.43804 -0.59142333 -0.12707831 0.108945936 -0.00011289167 -0.19406675 -0.5572629 0.016927306 -0.05003557 0.1393023 0.4982069 -0.72558796 1.2436818 -0.40415305 -0.060344882 0.021163609 0.026443161 0.44617796 -0.055560626 -0.09275322 -0.38944793 0.031276196 0.32350126 0.45413122 -0.11455103 -0.38957763 -0.22546744 -0.13828838 -0.10127011 0.16445947 0.10954638 -0.117464155 -0.23244387 -0.36464775 -0.3110585 0.5026537 -0.2752932 -0.21490364 -0.38674107 0.7237206 0.20314036 -0.29817116 0.06914683 -0.34541836 -0.590462 -0.51612127 -0.06025132 0.6155515 -0.5069418 -0.3601604 -0.114985004 -0.188033 -0.121360935 -0.08706866 0.44195575 -0.21931747 -0.5785547 0.04717512 -0.26048586 -0.050440352 -0.006831248 -0.42863593 0.14928254 0.12423663 0.3939666 0.6506408 -0.39219075 0.29402018 -0.52942 -0.025228085 0.6985413 -0.27722973 -0.6071229 -0.016316058 -0.3278333 0.01806684
65074 0.13787638 -0.21952046 0.3275039 -0.08459623 0.11145471 -0.19558023 -0.46053818 -0.2620421 -0.31219688 -0.016359936 0.13626413 0.16233818 -0.10924177 0.08485171 -0.41738877 0.21048959 -0.38508925 0.0021810406 0.18879566 -0.1420333 0.2598827 -0.20051366 0.68393624 -0.33622193 1.2595577 0.32815665 -0.3718237 0.5063165 -0.4554589 0.6748044 0.041095063 0.20001298 -0.5508362 0.20824452 -0.15408778 0.42285672 -0.07858399 -0.01825395 0.6688232 -0.05042211 -0.8785682 0.2343289 0.68097466 0.013370789 -0.60598063 -0.27399254 0.41962212 -0.16834031 0.3632026 0.4862521 -0.5302076 0.40155166 -1.1757011 -0.25249252 0.043405432 0.30710235 -0.33654514 -0.24967255 -0.028579894 -0.02132267 -0.051633492 0.24994016 0.43043166 -0.37116888 0.5813712 -0.72823685 -0.40079778 0.23165742 0.16985193 -0.85253435 0.4243816 0.8399742 -0.13013728 -0.0042990376 0.27867046 -0.15155533 0.6478741 0.24814981 -0.31341124 -0.39944407 -0.13598378 0.21000038 0.25049603 0.15933459 0.13720354 0.059688114 -0.16121176 0.35408965 -0.28335783 -0.32960394 -0.31148466 0.17727886 0.36294624 0.30055007 -0.22196853 -0.18294361 -0.79103386 -0.032557987 -0.46005824 0.12484352 -0.06093301 0.060836166 0.30061227 -0.35877275 -0.26317602 -0.6214402 0.94622713 0.2078441 -0.6158223 0.47068352 0.3202223 -0.3564684 0.2988575 -0.3090998 0.35207057 0.107384264 -0.21302843 0.31963056 -0.60010976 0.7144404 0.004543157 -0.20099978 0.402234 -0.3201777 -0.55692875 0.14850321 -1.0477937 -0.098978646
17476 0.43093196 -0.24578868 -0.08601909 -0.056478772 0.7407369 -0.15090443 -0.2227162 -0.096314736 0.17238694 0.45282766 0.037777524 0.11183996 -0.24919769 -0.23206739 0.55895144 0.5349986 0.09027821 0.15815648 0.18388955 -0.029087944 -0.5080586 -0.19392474 0.30336577 -0.12633143 0.19884287 0.3191432 0.092855975 -0.36830243 -0.46827632 0.30016226 -0.44576073 0.08836377 0.084598504 0.39233527 -0.09518655 0.2968631 0.48765844 0.35999253 0.5432613 -0.011985527 -0.29180285 0.47250003 0.10495528 -0.16674875 -0.36262926 0.114374354 -0.160568 -0.17753816 -0.13518386 0.24623835 -0.20442864 0.5138332 -0.27328497 -0.3464134 0.57477546 -0.32101282 0.27446315 -0.46885675 0.11274038 0.1341772 0.08907969 0.017631551 -0.08991712 -0.29578722 0.86887527 0.012866438 -0.15363523 0.20678727 -0.075963825 0.14943215 0.40125138 0.22274676 0.13378318 0.2023177 -0.05318465 0.20684096 -0.059885632 -0.08189255 -0.2667309 0.22601393 0.23949908 -0.475432 0.38041484 -0.121398576 -0.15418346 0.22100158 -0.00589153 0.38227597 -0.08060005 0.17063408 -0.26438233 0.2410536 0.097081 0.541801 0.1215303 0.079593115 0.041656338 -0.0141103035 -0.100297906 -0.19160505 -0.0675441 0.16248016 -0.58920264 -0.040723868 -0.19486952 -0.40202314 0.30769175 0.65969193 0.33699864 -0.12986769 0.0758995 -0.057563532 -0.027538033 -0.26893336 -0.027607288 -0.32289338 0.24113704 -0.2417 -0.13148977 -0.011551285 -0.16983724 -0.22564416 -0.17553964 -0.37636828 -0.30140924 -0.102703854 -0.1947111 -0.2235748
35061 0.1882529 -0.06926828 0.14080311 0.22642545 0.62060815 -0.26719522 -0.12482873 -0.12512596 0.42359158 0.08490667 0.15611231 -0.4607002 0.2538114 -0.050078988 -0.26010427 0.41755357 -0.03630941 -0.21121098 -0.5306309 -0.15831915 -0.162507 -0.14773247 0.054940592 0.19861758 0.3624437 0.98466235 0.06444594 0.05226972 0.15940729 -0.39899358 0.28241947 -0.55034184 0.15296371 -0.15124801 0.08796125 -0.1360891 0.37468848 0.059284687 0.37688044 -0.10840408 0.0045601386 0.07831248 -0.12628317 0.15418647 0.0062144743 -0.4936653 0.122957505 0.4114763 -0.30936524 0.34455138 -0.13119566 0.26352054 -0.13598633 0.12000721 -0.13204236 0.37766194 -0.08900277 0.04230668 0.13034216 0.22940746 0.06762062 0.090586826 -0.48524597 -0.4053769 0.2832064 -0.40313557 -0.16856578 0.6096157 -0.19369401 -0.40180314 0.038771525 0.6463637 -0.18384054 -0.26265034 0.17537944 0.33054602 -0.16923459 -0.6131902 0.19654113 0.1620271 0.073315926 -0.12487133 -0.057362482 -0.21366861 0.29942638 -0.08913694 0.22405568 -0.09919639 -0.019547325 -0.3665494 -0.10279446 -0.37170038 0.00080282416 0.3309481 0.120964594 0.046183627 -0.3305948 -0.44564855 0.09607447 0.34693366 -0.11204531 -0.24381042 -0.39928102 -0.01723202 -0.16304812 -0.34521732 0.49553218 -0.3369402 0.32935575 0.14125796 -0.018055286 -0.41003695 -0.37249625 -0.37776092 0.23352249 -0.48616815 0.3576573 0.0071925046 -0.6012004 0.30877233 -0.39985415 0.07312279 0.14701302 -0.20088731 -0.234363 0.26280656 -0.40818316 -0.19442703
6913 0.23950143 -0.20920905 -0.07235117 0.3243675 0.5796648 -0.20659101 0.16249372 -0.21304391 0.15857534 0.22972684 -0.14832737 0.16149275 0.06648379 -0.117211655 -0.035448577 -0.23948023 -0.13923424 -0.115125075 0.34127432 -0.24008782 0.25868142 0.03839805 0.17752254 0.099770896 -0.35427672 0.055912174 -0.38530117 0.15818325 0.22956292 -0.08291673 0.15310228 0.24759783 0.23070076 1.0598257 0.07596112 0.23331086 0.008781355 -0.09006152 0.5303761 0.0022579741 -0.21369864 -0.54882157 0.5606503 -0.10612339 0.2623546 -0.03955447 0.4423752 0.061429184 0.17753156 0.30186376 -0.437708 0.24587888 -0.4344348 0.029895082 0.07238189 -0.2211595 -0.27451396 -0.32353595 0.4939303 0.04158378 0.15158382 -0.2007762 0.1698267 -0.4876623 1.0112779 -0.31884506 -0.264313 -0.005332759 0.32743752 0.18894735 0.36861926 -0.40056852 -0.18885969 0.112483725 0.42668426 -0.29659727 -0.37115225 -0.015706463 -0.29157963 -0.4245557 -0.77090704 0.29518974 0.2864609 -0.042881425 -0.4550271 -0.45301163 -0.39576173 0.09845495 -0.16130403 -0.33488217 -0.4553264 0.49317023 -0.001182293 0.16311276 0.11913199 -0.13540325 -0.30407876 0.024017429 -0.14044689 0.4193667 -0.22539079 -0.054743577 -0.3444549 -0.3577459 -0.276519 -0.49992967 -0.11363487 0.106434025 -0.2704485 0.014983788 -0.21669407 0.07966375 -0.30499473 -0.70913595 -0.081856705 -0.08836301 0.96006507 -0.018730061 -0.13080485 0.60954565 -0.07391456 -0.094665065 0.26421982 0.13848893 -0.20053986 0.25560874 -0.18372278 0.037093878
20601 0.16462693 -0.0023497865 -0.13046534 0.11193454 0.6306041 -0.03000723 0.1278586 -0.07831246 0.27373394 0.032437976 -0.27207744 -0.01689313 -0.30577168 -0.63618517 -0.55937177 -0.13085641 0.012066761 -0.092804894 0.44332674 0.34376583 0.10691769 0.027856145 -0.271694 -0.16945091 0.53156 -0.039435882 -0.059051614 0.16920687 -0.7357174 -0.08461088 0.18243493 0.15582006 0.3432806 0.36360192 0.18858786 0.13599847 0.59884655 0.29030287 0.22358888 0.16058268 -0.3614692 0.03038456 0.6186519 0.18863848 -0.11691615 -0.012711072 -0.21320856 -0.15512216 -0.13199303 -0.11771193 -0.071216695 0.57482207 -0.32610273 -0.01675822 0.51190025 0.003817741 0.39768916 -0.045873508 -0.19941884 0.7885765 0.23954949 0.1633118 0.13740826 -0.5470689 -0.029101325 -0.18315552 -0.016287375 0.1297063 -0.45383957 -0.77906424 -0.04779224 0.7307145 -0.2684043 -0.29582098 0.012920326 0.030093182 -0.31571728 -0.0345899 -0.4664846 0.26302668 -0.2849223 0.43890715 0.22501113 0.020969931 0.289783 -0.5032162 -0.044920098 0.2307751 -0.78257513 -0.03911458 -0.30915752 0.49617913 0.28678173 -0.29070675 -0.11732587 0.16117162 -0.7003849 -0.48143494 -0.14676699 -0.08084191 -0.012459556 0.0012385007 -0.41703957 -0.3240139 -0.2941578 -0.09018048 0.22124392 0.06257493 0.15475744 -0.22956975 -0.08270394 -0.2036413 0.1521169 -0.4662386 -0.15552938 0.010879747 0.10985378 0.4384235 0.51366025 -0.20490848 -0.78043824 0.71916306 0.4481579 0.29563323 -0.30222845 0.6842907 -0.6451233 0.41042918
