2708 128
0 -0.171415 0.218059 0.013989 0.359667 0.382748 0.090470 -0.081352 -0.647575 0.420899 -0.018186 0.203894 -0.276550 0.421773 -0.218890 -0.002680 0.366197 0.091977 0.218317 -0.096386 0.084554 0.505484 -0.093808 -0.486224 -0.155487 0.101777 -0.330446 0.200952 -0.409045 -0.198999 0.551535 -0.183892 -0.464768 0.089351 -0.116358 -0.058116 -0.298129 0.097843 0.287769 0.179954 -0.407314 -0.214908 -0.428137 0.559037 0.116080 0.042534 0.194295 -0.274244 -0.071787 -0.088384 -0.127197 0.230171 -0.063738 -0.013907 0.201648 0.041901 0.142687 -0.264180 0.056723 0.177828 -0.371569 -0.018762 0.320353 0.071139 -0.250326 -0.171135 -0.145153 -0.445383 -0.155960 -0.312949 -0.617825 -0.027396 -0.096379 0.073245 0.377158 0.073537 0.418010 -0.324073 0.329875 0.141108 0.280622 0.079937 -0.111372 -0.405200 0.192427 0.410021 -0.001713 0.087515 -0.216059 0.260911 -0.199865 0.092650 0.163284 0.255898 0.238032 -0.059409 0.015894 0.290644 -0.228629 -0.185596 0.179384 0.142464 -0.014759 -0.137873 0.123749 0.069080 -0.006613 -0.092340 -0.119016 -0.071000 0.218401 -0.107773 -0.440158 0.036815 -0.279286 0.175876 0.108294 -0.319028 0.312001 0.339753 0.221008 0.240229 0.128423 0.369271 0.214703 0.114873 -0.154453 0.147319 -0.199971
377 0.029022 -0.372571 -0.147625 -0.027735 -0.168809 0.566703 0.208982 -0.598760 0.537571 0.211277 0.131025 -0.235269 0.150611 0.205648 0.181987 -0.011817 -0.143053 0.085538 -0.192885 0.245550 0.128252 -0.246211 -0.173260 -0.257977 0.353511 -0.102235 -0.123672 0.214141 -0.154678 0.398145 -0.011350 0.022873 -0.144648 -0.095225 -0.767229 -0.079008 -0.148939 0.162038 -0.155832 0.052800 -0.034660 -0.314920 0.148676 -0.194574 -0.556019 -0.584868 -0.162480 0.356135 0.153166 -0.414392 -0.182871 -0.207402 -0.249807 0.288342 0.156928 0.256974 -0.136521 0.166154 -0.368622 0.130479 0.065497 -0.338521 -0.041095 -0.106282 0.138323 -0.629853 -0.381061 -0.193373 -0.050687 -0.034290 -0.082213 -0.290852 -0.073679 0.008587 -0.053319 -0.125936 -0.125357 0.032402 0.050420 0.337013 -0.366437 -0.118530 0.228762 -0.253505 0.251797 0.283294 -0.286177 -0.683956 0.047229 -0.166001 -0.416069 0.101112 0.092574 -0.204412 -0.171308 0.347356 -0.202417 -0.263235 -0.596774 -0.251387 -0.006690 0.034302 -0.192451 0.134863 0.384191 0.054342 -0.260819 0.030916 -0.185942 -0.108176 -0.006388 -0.249311 0.271610 -0.199745 -0.009398 0.172639 -0.404870 -0.247010 0.253855 -0.004224 -0.270772 0.573722 0.033193 0.720472 0.276891 0.250782 -0.574934 -0.273389
261 -0.370629 -0.160824 0.348341 0.107085 0.046931 0.344771 -0.051767 -0.446505 0.353016 -0.007427 -0.441071 -0.093129 0.238604 -0.087331 -0.133927 -0.070099 -0.033670 0.171891 -0.198070 -0.171072 0.159237 0.160084 -0.219071 -0.129243 0.252344 -0.632472 -0.029350 -0.453539 0.245371 0.401897 -0.378151 -0.215588 -0.030789 -0.181831 -0.359124 -0.599815 0.078750 0.126737 -0.756615 0.194840 0.098147 -0.397428 -0.238990 0.296434 -0.122278 -0.034229 -0.011708 0.089140 -0.053810 -0.097139 0.190946 0.024299 0.238036 0.415945 0.079531 0.085609 -0.278141 -0.308765 -0.198402 -0.367734 -0.110677 0.085410 0.298384 -0.480197 0.330029 -0.105207 -0.310124 -0.088736 -0.448977 -0.555387 0.109054 -0.003141 0.306783 -0.021738 -0.165514 0.243757 -0.431606 0.174397 -0.022472 0.455073 0.037890 -0.336185 0.417859 -0.180704 -0.121571 0.208266 -0.301473 -0.330239 0.268199 0.132386 -0.224297 -0.082927 -0.138566 0.103920 -0.209978 0.479660 0.386742 0.059336 0.037323 -0.315173 -0.108276 -0.090214 0.247133 -0.288948 0.036468 -0.168961 0.052912 -0.182854 -0.339049 0.104915 -0.070891 -0.062941 0.330731 -0.116607 0.113083 -0.315114 0.049569 0.145310 0.038476 -0.020934 -0.380697 0.399141 -0.126255 0.245123 0.500696 0.366926 -0.364436 -0.097391
714 -0.093678 -0.407910 0.015747 0.458289 0.108152 0.293920 0.209545 -0.075381 0.266876 0.272522 0.047002 -0.275587 0.180174 0.351511 0.247650 -0.077577 0.047513 0.200271 0.058006 0.293076 0.363847 0.080726 -0.332745 -0.204051 0.014716 0.055465 -0.227266 0.029183 -0.363632 0.337048 -0.006544 -0.235510 -0.254468 0.135099 -0.199194 0.080402 0.224934 0.162232 -0.084119 0.298214 0.207134 -0.524539 -0.039275 -0.250610 -0.271055 -0.212301 -0.431920 -0.135176 0.051455 -0.117593 -0.260941 -0.442149 0.626650 0.360179 0.033252 0.659645 0.155428 -0.187121 -0.128065 0.139516 -0.182343 0.092475 -0.398844 -0.541744 0.407317 -0.401958 -0.414278 -0.256657 -0.045232 -0.155729 0.266406 0.288965 0.227464 0.095270 0.280132 0.059094 -0.363775 0.259250 0.179176 0.010494 -0.029456 -0.095928 0.191721 -0.366712 -0.475438 -0.033669 -0.417066 -0.477762 -0.295408 -0.323621 -0.082076 0.191040 0.327336 0.330330 -0.399616 0.107181 0.038764 -0.522362 -0.342759 -0.269699 0.027697 -0.202518 0.021924 0.095664 0.420054 0.047006 -0.255501 -0.266241 -0.008702 0.095144 0.027965 -0.006099 -0.073252 -0.450607 -0.288928 0.283240 -0.467053 0.247880 -0.046673 -0.224062 -0.357991 0.370261 0.258265 0.189470 0.079854 -0.284463 -0.293073 -0.088414
272 -0.061848 -0.060229 0.337504 0.330245 -0.130882 0.736017 0.259592 0.184290 0.393995 0.036291 0.167767 -0.123597 0.090902 0.179783 0.004779 0.026889 0.184465 -0.008307 -0.314776 0.055139 0.703013 -0.149371 -0.282201 0.010976 -0.353177 0.295615 0.070991 -0.125615 -0.114155 0.303297 -0.131551 0.193192 0.108419 -0.107462 0.226223 0.020769 0.083560 0.164475 -0.528697 0.060717 0.095774 -0.568181 0.076893 0.112277 -0.858019 -0.615978 0.250607 0.482658 0.123084 -0.672599 0.142042 -0.062194 0.333190 0.350222 0.126572 0.294833 -0.365688 0.028317 -0.153141 -0.279628 -0.245165 -0.083680 0.097941 -0.527345 0.057847 -0.159615 0.135170 0.199651 0.068269 -0.492913 0.485994 -0.232551 0.037529 0.357124 0.329378 -0.090672 -0.052090 0.271511 0.082182 0.555269 -0.052356 0.130874 0.587864 0.191863 0.036585 -0.278535 -0.283638 -0.532660 0.265359 -0.022379 -0.642822 -0.400962 -0.233759 -0.186524 -0.485712 0.110652 -0.078206 0.044974 -0.447251 -0.127997 -0.294272 0.134579 -0.300172 0.193263 0.056065 -0.647753 0.000801 -0.060095 -0.416029 0.220186 -0.044872 -0.026879 -0.239236 -0.092845 -0.341595 0.143717 -0.489745 -0.009895 -0.547942 -0.074613 0.086965 0.238743 0.046294 0.159887 0.064083 0.187661 -0.467451 -0.279102
170 -0.185931 0.305222 0.282596 0.485168 -0.359184 0.099830 0.332255 -0.584127 0.570229 -0.057313 -0.784905 0.130271 0.458461 -0.259436 -0.029030 -0.270881 -0.083760 0.249247 -0.080180 0.226578 0.151759 0.114864 0.214575 0.376589 0.079309 -0.456419 0.063267 -0.406721 -0.012897 0.184540 -0.557414 -0.196007 -0.079844 0.059768 -0.399794 -0.422157 0.069132 0.246816 -0.146157 0.502710 0.091890 -0.009472 -0.047378 -0.113115 -0.172766 -0.306064 -0.277493 -0.125376 0.246196 -0.318258 0.260947 -0.115144 0.470026 0.042539 0.054819 -0.039409 -0.220977 -0.038417 -0.551828 -0.456094 -0.157940 0.005299 0.011170 -0.430892 0.341099 -0.012567 -0.255140 -0.216470 -0.629041 -0.555196 -0.305871 -0.137945 0.334735 0.047090 -0.346469 0.176789 -0.332072 0.103538 0.067682 0.171238 -0.347096 -0.309805 0.495772 -0.136541 0.135855 0.121410 -0.483356 -0.282453 0.137496 -0.010224 -0.177343 -0.188549 0.055359 -0.031675 -0.252109 0.429542 0.429261 0.465282 -0.304972 -0.060781 0.088199 -0.220278 0.052736 -0.322779 -0.112989 -0.153455 -0.029251 -0.165644 -0.186996 -0.043699 0.385412 -0.282063 -0.167968 -0.224233 0.155939 -0.201199 -0.386020 0.191719 0.030922 0.168517 -0.381029 0.413582 -0.291690 -0.080177 0.644488 0.531449 -0.563184 -0.320893
818 -0.145322 -0.274475 -0.193230 0.300521 0.067654 0.300811 0.299736 -0.282829 0.171586 0.454624 -0.079865 -0.261851 -0.332866 0.090576 0.682007 0.156965 -0.694306 -0.009717 -0.088910 0.013895 0.516227 0.254144 -0.124072 0.039357 -0.000538 -0.006764 0.136729 -0.218319 0.319886 -0.056156 -0.476455 0.045951 -0.277270 0.181624 0.170725 0.104422 0.137527 0.183429 -0.047288 0.324475 -0.212443 -0.258075 -0.274379 -0.037758 -0.054384 -0.186540 0.219986 0.234341 0.212339 -0.442571 0.054978 -0.051618 0.045399 0.413932 0.470773 0.042038 -0.081898 0.018100 -0.406012 -0.558833 -0.362356 -0.424967 0.379206 -0.333386 0.208408 -0.369096 -0.470249 0.452482 -0.345674 -0.107072 0.344647 -0.084488 -0.376291 -0.085248 0.350815 0.747771 -0.587644 0.151757 0.118745 0.410615 -0.288787 0.025503 -0.126297 -0.420520 0.237106 -0.247171 -0.250830 -0.316925 0.280420 -0.137575 -0.024225 -0.069507 -0.272901 -0.131673 -0.653703 -0.255065 -0.000310 -0.401093 -0.263630 -0.023473 -0.116976 0.024454 -0.298279 0.051487 0.024900 -0.085877 0.029449 0.068524 -0.201484 0.119751 0.163519 -0.120998 0.254810 -0.294449 -0.237754 0.093253 -0.302137 -0.146825 0.014270 -0.045978 -0.744341 0.468657 -0.319215 -0.296687 0.307955 -0.291821 -0.168192 0.066113
760 -0.207340 0.023654 0.279491 0.517031 0.105973 0.093159 0.058351 -0.445543 0.619700 0.329349 0.312409 -0.249004 -0.336583 -0.198363 -0.114201 -0.175909 -0.028395 -0.056428 0.001870 0.192980 0.244726 -0.202853 0.016484 0.512606 -0.305856 0.384761 -0.183821 -0.326443 -0.127452 0.260291 -0.255338 -0.441244 0.240184 -0.073583 0.101321 0.291419 0.025253 -0.012605 -0.059139 -0.043801 0.142303 -0.148143 -0.403915 -0.130084 -0.044264 -0.191243 0.079334 -0.108552 0.168729 -0.383415 0.076485 -0.155656 -0.360440 0.094461 0.091208 -0.253325 -0.222282 -0.444376 0.425992 -0.575110 0.104971 0.558506 0.329979 -0.359561 -0.032270 -0.498035 0.260681 -0.102469 -0.235650 -0.502836 0.215565 -0.109849 0.220856 -0.002851 0.084776 -0.019757 -0.584281 0.587847 -0.053852 0.408475 -0.109141 -0.606262 -0.290831 0.237949 -0.465397 0.224264 0.164172 -0.365750 0.280811 0.133804 -0.233748 0.285168 -0.112806 0.166487 0.022710 -0.229822 0.457708 -0.284341 0.307533 0.091465 0.111768 0.012001 -0.204579 -0.213440 0.051544 0.047569 -0.408229 0.088374 0.231446 0.464410 0.343187 0.268637 0.238786 0.030727 0.126337 0.333717 -0.594971 0.245298 -0.068516 -0.273913 -0.456325 0.279682 0.322718 0.025482 0.758082 -0.362943 -0.320332 0.028233
1493 -0.276250 0.054875 0.413001 0.083039 0.238507 0.500752 0.075673 -0.387596 0.762703 0.422446 0.368756 0.073864 0.073255 0.201167 0.673689 -0.043414 -0.524310 -0.054909 0.065873 -0.304270 0.302939 0.445022 0.019968 -0.242718 0.379320 0.079964 -0.111744 0.244434 -0.135322 0.581335 0.170356 -0.372275 -0.362457 -0.245616 -0.108577 -0.237260 -0.134551 -0.029074 -0.452698 0.371133 -0.090278 -0.395754 0.111842 -0.117181 -0.663921 -0.352889 0.085324 0.167536 0.507919 -0.097577 -0.010636 -0.377847 0.098402 0.310056 0.648554 0.429262 -0.327494 -0.130375 -0.313428 0.043606 -0.003435 -0.151010 -0.067366 0.102827 -0.114664 -0.437072 -0.362344 -0.120725 0.361462 -0.756555 0.162223 -0.377564 -0.378162 0.337478 0.273479 0.091867 -0.317841 0.174599 0.328889 0.307720 0.003041 0.080454 0.236358 0.171922 -0.527533 -0.487163 -0.063350 -0.479392 -0.112452 -0.301433 -0.447416 0.165908 0.465300 0.128373 -0.189181 0.146783 -0.140595 0.082520 -0.306341 -0.412347 0.457492 0.216334 0.016083 0.038519 0.552869 -0.197984 -0.245714 0.108654 -0.304621 0.006233 -0.187630 -0.090143 0.241692 -0.180315 -0.262830 0.076636 -0.156397 0.157759 0.252459 0.132898 0.062246 0.354717 0.412842 0.229301 0.057998 0.072952 -0.342224 -0.363861
346 -0.234342 0.319033 0.223168 0.234431 0.146222 0.186549 0.209708 -0.387857 0.108602 0.147766 0.300128 -0.188734 0.329739 0.296775 -0.214385 0.106510 0.179513 0.241796 -0.027750 -0.093698 -0.188637 -0.056303 -0.521323 0.026319 0.322335 0.094002 0.144374 -0.261986 0.090911 -0.262378 -0.414352 -0.194652 0.154611 -0.436860 -0.705896 -0.331085 -0.186245 0.086205 0.196545 0.522475 0.232381 -0.237412 0.035889 -0.502541 -0.274999 -0.349367 0.281299 -0.453417 0.620144 -0.041706 -0.148672 -0.035507 -0.123517 0.073065 -0.191626 0.089046 -0.460350 -0.380465 -0.021008 -0.154371 -0.138856 0.141591 0.210770 -0.358862 -0.241132 -0.222123 0.307368 -0.193340 -0.063877 -0.158642 0.321732 -0.264311 0.214390 0.309227 -0.013231 0.143325 -0.690854 0.563577 0.371953 0.310847 0.287595 -0.258931 -0.173144 -0.420529 -0.012816 -0.110677 0.330186 -0.332368 0.392919 0.330024 -0.325909 0.396393 0.028196 -0.225571 -0.053654 -0.155528 0.193378 -0.150048 -0.295742 -0.282559 0.285235 -0.101305 -0.225998 0.191712 0.191677 -0.034944 0.110875 -0.259606 0.149728 0.417354 -0.042478 0.325043 -0.052488 0.155145 0.177489 -0.291526 -0.128660 0.304516 0.355908 -0.107117 -0.637018 -0.355857 -0.241882 0.448772 0.278160 0.099700 -0.688637 0.285964
854 -0.047147 0.167101 0.166038 0.090076 -0.141725 0.505942 0.035730 -0.257995 0.900692 0.596647 -0.206377 -0.668315 0.271795 -0.208596 -0.002295 -0.029988 -0.269495 0.283786 -0.063386 -0.159486 0.150606 -0.063989 -0.016512 -0.360769 0.438201 -0.457183 -0.001857 -0.364461 -0.017725 0.061885 -0.359820 -0.385311 -0.041773 -0.119501 -0.066712 -0.514075 -0.080540 0.006198 -0.107960 0.075979 -0.003531 -0.121937 0.025321 -0.174955 -0.290400 -0.560585 -0.312112 -0.185534 0.032153 -0.186274 -0.253447 0.109924 0.073660 0.227220 0.320344 0.347609 -0.200371 -0.187451 -0.601088 -0.067712 -0.487505 0.180960 -0.295932 -0.446579 0.239518 -0.067906 0.012686 -0.050974 0.045788 -0.251392 0.125772 -0.098817 0.407288 -0.040710 -0.123885 -0.189793 -0.332892 0.374552 0.286629 0.110146 -0.291623 -0.246441 0.323144 -0.034649 0.357703 0.167971 -0.146678 -0.507686 0.358482 0.135774 -0.138516 0.012637 0.182748 0.100661 -0.087409 0.292823 -0.001045 0.276651 0.130949 -0.217729 -0.078235 -0.135486 -0.016490 0.131230 0.067235 -0.055850 0.325695 0.029857 -0.172734 -0.136265 -0.354841 -0.024374 0.120927 -0.208046 0.432948 -0.090592 -0.352242 0.149150 0.268970 -0.543726 -0.607179 0.420656 -0.072616 0.491740 0.339089 0.627490 -0.443137 -0.196462
223 -0.183257 0.098907 0.075031 0.132717 -0.144155 0.058519 0.483501 -0.724995 0.652535 0.300273 -0.372213 -0.152454 0.048939 -0.176009 -0.016178 -0.193730 -0.050003 0.163120 -0.131916 -0.048587 0.352346 0.370304 -0.120579 -0.316202 0.056717 -0.587264 -0.451973 -0.560471 -0.147373 -0.254862 0.177606 -0.174739 -0.354778 -0.111823 -0.648701 -0.087801 -0.307918 0.236737 -0.276848 -0.013559 -0.159549 -0.377381 -0.029558 -0.154655 0.168905 -0.517299 -0.139169 0.022428 0.090112 -0.209592 -0.002563 -0.035528 0.102987 0.505203 0.415455 0.389177 0.175517 0.047970 -0.405473 -0.430566 -0.106836 0.041449 -0.065343 -0.236090 0.384612 0.160988 0.299606 -0.138224 -0.478833 -0.537590 -0.055540 0.101282 0.167893 0.141298 -0.351433 0.148730 -0.627358 0.256871 -0.078566 0.104081 -0.130978 0.084500 -0.127730 0.056299 0.192397 0.006849 -0.211886 -0.261747 0.283774 0.075638 -0.127610 -0.070944 0.200510 -0.178395 0.146115 0.364810 -0.104117 0.324823 0.054405 -0.269806 -0.124270 -0.063374 -0.052569 -0.102822 -0.140457 -0.431814 0.276395 -0.330996 0.363110 0.096494 0.143376 -0.173851 0.016453 -0.147606 0.115063 -0.165727 0.224293 -0.027831 0.334106 -0.509607 -0.559584 0.579347 -0.006700 0.263674 0.430732 0.261002 -0.700348 -0.325781
528 -0.149164 0.041081 0.012049 0.268527 0.090899 -0.074315 -0.045793 -0.557009 0.342831 0.360280 0.495100 -0.580876 -0.027379 0.348088 -0.013701 -0.004149 -0.373433 0.893073 -0.319029 0.296690 0.092110 0.051513 0.365722 0.111969 -0.080892 0.537385 -0.090982 -0.371875 0.175886 -0.078817 -0.053861 -0.127937 0.019386 -0.335279 -0.466761 0.313250 -0.109253 0.394069 -0.245177 0.596857 0.192995 -0.362238 0.382809 -0.076726 -0.221014 0.104502 -0.308295 -0.326862 0.324103 -0.270850 0.462297 -0.418524 -0.284140 0.464853 -0.161704 -0.234168 -0.162054 0.086912 0.537206 -0.471192 -0.083810 0.198610 -0.331091 0.129045 -0.059742 -0.217687 -0.103012 -0.100491 -0.254878 0.045164 0.143081 0.292960 -0.129098 0.390580 -0.308678 0.478346 -0.452248 0.371307 -0.455792 0.471687 0.013105 -0.488959 -0.139602 -0.666261 0.253380 0.087497 0.040725 0.012023 0.321943 0.440095 -0.528689 0.144639 -0.153243 -0.215225 0.126061 -0.325121 0.177456 0.191588 -0.101766 -0.281214 -0.117661 0.008650 0.198304 0.028802 -0.129127 0.105762 -0.336009 -0.181429 -0.118573 0.122111 0.263534 0.059796 -0.053553 0.062337 0.568722 -0.400666 0.019266 0.130938 0.305596 0.283935 -0.876186 0.478631 0.066192 0.235653 0.813291 0.444219 -0.389496 0.200391
1599 -0.014576 -0.221406 0.346705 -0.178977 -0.131492 0.653899 0.459852 0.111992 0.477811 0.147569 0.347016 0.171092 0.220880 0.068993 -0.104821 0.108706 0.013744 0.122912 -0.161968 0.068905 0.350716 0.253687 -0.421561 0.647773 -0.371264 0.636304 -0.323578 -0.411588 -0.281363 0.043261 -0.114394 -0.082497 0.032021 0.199642 -0.447258 -0.510534 0.014642 -0.124333 -0.058194 0.325091 -0.218346 -0.763570 -0.226247 0.001704 -0.554409 -0.575041 -0.321334 0.049400 0.200275 -0.644227 0.369311 -0.142766 0.546900 0.162723 0.475967 -0.023192 0.310451 0.073320 0.149420 -0.276119 -0.571735 -0.327238 0.352245 -0.255998 0.044513 0.190726 -0.581468 0.346870 -0.148311 -0.075037 0.519112 0.353947 0.002149 -0.251026 -0.308304 0.167992 -0.345997 0.392685 0.064778 0.355871 0.095633 -0.308618 -0.075532 0.142235 -0.137451 -0.112963 -0.192598 -0.553531 0.288923 0.136892 -0.066188 0.243259 -0.115434 -0.058384 -0.068842 -0.250033 0.252927 0.466224 -0.431428 -0.291619 -0.062140 -0.102682 0.032277 -0.451494 0.230162 -0.062872 -0.161414 0.523492 -0.166081 0.346272 -0.201249 -0.002468 -0.427372 -0.173202 -0.468509 0.439433 -0.734957 -0.046146 -0.098334 0.066226 -0.310247 -0.073942 0.312256 0.639820 0.149203 -0.226931 -0.335778 0.184230
164 -0.340753 -0.397366 0.581245 0.462019 0.137084 0.225322 -0.257536 -0.389506 0.248603 -0.003382 -0.295507 -0.479985 0.257413 -0.162779 -0.336882 -0.375687 0.217766 0.034629 -0.139372 -0.016112 0.235940 0.139554 -0.234391 -0.263616 0.417830 -0.330006 -0.153710 -0.244184 -0.084139 0.592690 0.161400 -0.182439 0.051201 -0.035098 -0.083943 -0.023765 -0.174579 0.166463 -0.039153 0.242925 -0.070005 -0.345023 -0.124179 0.222306 0.159633 -0.357627 0.013810 0.086608 -0.321614 -0.134139 0.263758 0.364261 0.278647 0.199365 0.167547 0.058086 -0.281725 -0.252078 -0.014583 -0.408247 -0.138262 0.476713 0.177117 -0.103320 0.141557 0.294250 -0.517814 -0.090617 -0.542361 -0.255008 -0.103595 -0.201195 -0.158897 0.135052 -0.219091 0.475927 -0.454055 0.069189 -0.079698 0.428198 0.450859 -0.563707 0.239992 0.378902 0.036492 -0.088801 -0.382551 -0.163674 -0.062517 -0.164580 0.180693 0.054562 0.593947 -0.024366 -0.646804 0.138404 0.083825 0.307312 -0.158548 -0.318500 0.002020 0.199528 0.000098 0.036994 -0.141922 0.015837 -0.409547 -0.153461 -0.193781 0.424490 -0.110364 -0.342655 0.507158 -0.010048 0.467198 -0.167221 0.125206 0.046498 0.636967 0.362725 -0.583306 -0.013455 0.126189 0.382394 0.296124 0.509493 -0.232513 -0.096027
599 -0.069303 0.264529 -0.217475 -0.089917 -0.318313 0.459856 0.158989 -0.311898 0.665900 0.211714 0.131737 -0.314657 -0.375265 0.381037 -0.062441 0.081037 -0.451149 0.288197 -0.240086 -0.173567 0.017343 -0.036246 -0.337663 -0.192758 0.316254 0.129640 0.220837 0.155347 -0.664754 0.125297 0.234640 0.103902 -0.459014 -0.180242 0.245144 -0.278835 -0.060973 0.639900 -0.380022 0.679316 0.115704 -0.716383 0.014195 0.149476 -0.379543 -0.994642 -0.318561 0.147148 0.661681 -0.363690 0.143566 -0.310062 -0.198330 0.586492 0.599367 0.477209 -0.526896 0.210952 -0.313386 0.125583 0.482579 -0.519506 0.352367 0.002566 0.080459 -0.294241 -0.139030 0.118667 -0.175096 -0.337524 0.246743 -0.177658 -0.007298 -0.066934 0.257260 0.192354 -0.136750 0.346950 -0.059984 0.562641 -0.646828 -0.632420 0.384598 0.158097 -0.229103 -0.074784 0.389215 -0.299932 0.026069 -0.566839 -0.505943 0.614035 0.491000 0.069457 -0.028662 0.122062 -0.087201 -0.261431 -0.589845 -0.497388 0.599426 0.414171 -0.059851 -0.493106 0.652268 -0.125236 -0.490713 0.187145 0.028565 -0.024197 -0.059059 -0.300223 -0.015887 -0.300745 0.135013 0.474400 -0.395281 0.145597 -0.303371 0.411507 -0.251794 0.502987 -0.120578 0.527820 -0.023027 -0.115651 -0.337286 -0.127231
1240 -0.496591 0.352399 0.155609 0.405220 -0.414623 0.140624 -0.069714 -0.192861 0.368907 -0.089040 -0.179339 -0.108031 -0.327706 0.442734 -0.236789 -0.327441 -0.286829 0.594304 0.080074 0.243388 0.775328 0.580311 -0.546523 -0.367169 -0.093927 0.030081 0.131895 -0.478673 -0.031974 0.064063 -0.046314 0.215777 -0.121745 0.213488 0.166020 0.029280 -0.253573 0.337502 -0.871571 0.440925 0.247748 0.352613 0.639037 -0.389936 0.092048 -0.225409 -0.481850 0.029559 0.067790 -0.368047 0.146714 -0.093376 0.093161 -0.232623 0.212241 -0.044387 0.176410 -0.271207 0.549282 -0.442181 0.337667 0.516564 0.310459 -0.387020 -0.106186 -0.354806 -0.067408 -0.270841 0.247846 0.352468 -0.172759 0.233779 0.380168 0.819316 -0.134806 0.342053 -0.396526 -0.061380 -0.137608 0.074946 -0.100048 -0.435632 0.120441 0.160373 -0.149619 0.155339 -0.226473 0.031788 0.243534 0.384550 -0.304674 0.335390 0.000783 0.003729 -0.074942 -0.318544 0.030222 0.102046 0.017729 0.130020 -0.420663 0.094264 -0.089871 0.227815 -0.078043 -0.225973 -0.328209 -0.141472 -0.189130 0.798365 0.265869 0.064116 0.111427 0.172959 0.348911 0.676983 -0.285465 0.464108 0.480766 0.487816 -0.531146 0.245345 0.568346 -0.058897 0.507315 -0.156116 -0.919374 -0.148318
1120 -0.376561 0.278607 -0.152642 0.072511 0.083162 0.411731 -0.176203 -0.017663 0.475767 -0.149400 0.222277 -0.081305 0.278431 0.481901 0.281714 -0.013212 0.338136 0.566954 0.198203 0.251517 -0.028633 0.171744 -0.036470 0.096056 -0.004442 0.110437 -0.197654 -0.663372 -0.086591 -0.453393 -0.153878 -0.346655 -0.097644 -0.043838 0.204472 -0.224796 -0.454072 0.263820 -0.049246 0.276290 0.448668 0.039039 0.074922 -0.230336 -0.208979 0.065316 0.132844 -0.262666 0.351076 -0.162643 -0.029059 -0.262925 0.143454 0.035913 0.184480 -0.376685 -0.095225 -0.425483 0.430826 -0.492632 0.102279 0.018831 -0.197119 -0.167713 0.313538 -0.436456 0.337467 0.102807 -0.590823 -0.173325 -0.021922 0.209330 0.171106 0.372488 -0.154445 0.589692 -0.122075 0.254830 -0.028536 0.288769 0.357186 -0.438266 0.071708 -0.576611 -0.093536 0.234296 -0.137675 -0.379932 0.487088 0.150093 -0.190539 0.227246 0.404702 -0.118639 0.366632 -0.399844 0.530556 -0.085986 -0.381424 -0.316885 -0.445922 0.014581 -0.007576 -0.235245 0.079427 0.554206 0.194994 -0.097472 0.159631 0.246036 0.218867 -0.144237 0.371497 -0.268008 0.171232 -0.328568 -0.458477 -0.071272 0.132009 -0.044396 -0.224815 0.288119 0.489354 0.418069 0.502967 -0.159843 -0.576681 0.013791
880 -0.129720 0.283836 0.217654 0.195596 -0.465227 -0.324368 0.349343 0.504633 0.030557 -0.123933 0.244287 0.406967 0.290997 -0.172931 -0.198706 -0.054731 -0.240666 0.306183 -0.306786 0.045108 0.057185 0.263767 -0.442394 -0.371116 -0.306183 0.588262 -0.083556 -0.378489 -0.536322 0.091102 -0.503569 -0.076337 0.343823 0.050306 -0.592595 -0.301197 0.135790 0.079532 0.284292 0.534408 -0.193069 -0.175084 0.286356 -0.053023 -0.114136 -0.214105 0.124416 -0.013835 0.684182 -0.293102 0.612727 -0.244885 0.225173 -0.050118 0.343588 0.147033 -0.080438 0.104167 0.021239 -0.226318 -0.237070 -0.006721 -0.220432 -0.205775 0.098823 0.024797 0.376967 0.360776 -0.146826 -0.043515 0.016595 -0.211879 0.067462 0.719787 -0.199331 0.533478 -0.744552 0.336325 -0.140875 -0.188731 0.420840 -0.329453 0.421712 -0.292550 0.175218 -0.297853 -0.202308 -0.175843 0.707748 -0.066084 0.041942 0.149284 0.236566 -0.201099 0.204142 -0.296562 0.066568 -0.334638 0.315015 -0.800218 0.223633 -0.061890 0.326979 0.089888 0.701705 0.151713 0.002130 0.341976 0.265803 0.603502 0.551738 -0.588176 0.238459 -0.041689 0.491881 -0.065730 -0.156430 0.259301 -0.239991 0.324700 -0.700437 0.469021 -0.065821 0.012171 0.702966 -0.048887 -0.528095 0.143624
2101 0.031077 0.216830 0.099427 0.344260 0.442704 0.047283 -0.089223 -0.739188 0.197291 0.242822 -0.034146 -0.016205 0.389368 -0.016178 -0.071323 -0.035967 0.325330 0.401821 0.135814 0.033588 0.599229 0.149658 -0.605102 -0.087006 -0.025505 0.164468 0.079992 -0.770403 0.009083 0.403438 0.083400 -0.643330 0.341413 -0.021173 0.059393 -0.523285 -0.001188 0.246357 0.104636 -0.077386 -0.066126 -0.016924 0.367151 0.595919 0.004528 0.028637 -0.490883 0.129508 -0.161427 -0.425433 0.120163 -0.034864 -0.077248 0.484471 0.159727 -0.091258 -0.416374 0.178260 0.129362 -0.310400 -0.371985 0.220035 -0.175084 -0.499899 0.313500 0.103686 -0.676822 0.125908 -0.273027 -0.318105 -0.193663 -0.026191 0.308158 0.538915 0.206007 0.618039 -0.547053 -0.077734 0.097037 0.186368 0.096781 -0.127013 -0.335296 0.062173 0.487768 -0.263469 0.377833 -0.003256 0.208501 0.191006 0.095808 -0.143247 0.331994 -0.036690 -0.091951 -0.109519 0.115910 -0.510366 -0.017812 0.064133 0.107878 0.238585 -0.315894 0.367126 -0.252027 0.055970 -0.130579 -0.002563 0.259151 0.832947 -0.121730 -0.782199 -0.289306 -0.307009 0.061582 0.058398 -0.359265 0.459665 0.318282 -0.011794 0.157388 0.103180 0.574089 -0.045681 0.050182 -0.028953 -0.470008 0.095003
52 0.007073 0.016746 0.267679 0.056467 0.365777 -0.032091 -0.117617 -0.703008 0.457383 0.118077 -0.351646 -0.686205 0.004379 -0.024102 -0.136005 0.393885 -0.165699 0.256624 -0.141158 0.039653 0.191600 0.048481 -0.498168 -0.080287 -0.029677 -0.481676 0.287732 -0.426408 0.145809 0.818713 -0.191371 -0.457597 -0.143195 0.045750 -0.140295 -0.573534 0.007307 0.105071 -0.380488 0.001963 -0.013858 -0.208579 0.274040 0.218161 -0.166121 0.042859 -0.407917 0.095908 -0.300036 -0.035904 0.024191 -0.335416 -0.112790 0.536635 -0.084775 0.349453 -0.409642 -0.301747 0.070313 -0.422402 -0.163769 0.313802 0.323515 -0.303000 0.130442 -0.528834 -0.222244 -0.188535 -0.144484 -0.404838 -0.241804 -0.317253 0.208021 0.548265 -0.341234 0.240947 -0.436700 -0.046706 0.065310 0.605979 0.451125 -0.462676 0.171700 0.459117 0.130671 0.116946 -0.308641 0.010025 0.068994 -0.383682 -0.044978 -0.282948 -0.004481 0.228320 -0.017094 -0.287642 0.086563 0.151335 -0.487471 0.004112 -0.202508 0.118327 0.020273 0.151622 -0.292866 -0.059638 -0.166541 -0.340581 0.149435 0.555671 -0.247614 -0.129310 -0.136329 -0.222727 0.402229 -0.207059 -0.031821 0.247774 0.456355 0.002492 -0.107575 0.234238 -0.000023 -0.043903 0.767865 0.257899 -0.127095 0.031396
1302 -0.415442 0.090866 -0.010743 0.405888 -0.434121 -0.210051 0.128877 -0.216509 0.356652 0.243440 0.104484 0.072259 0.213756 0.119326 -0.617908 -0.213474 -0.127684 0.328220 -0.205409 -0.072231 0.279542 0.366675 -0.232185 0.077000 0.095115 0.447507 -0.538609 -0.421130 0.037672 -0.012006 -0.424468 0.111472 0.061996 -0.094577 -0.397393 -0.324975 0.316779 -0.070118 -0.007250 0.110379 0.028649 -0.090991 0.682000 0.189234 -0.210353 0.018479 0.168596 -0.122099 0.330670 -0.112570 0.328238 0.100246 -0.040432 -0.092284 0.066478 -0.056630 -0.338110 0.060387 0.102388 -0.535140 -0.408128 0.021647 -0.453154 -0.496143 0.379262 0.215724 0.019061 0.712068 -0.489244 0.130028 -0.206276 -0.029119 -0.032402 0.724052 -0.051019 0.394398 -0.087579 0.664294 -0.193357 0.218224 0.102234 -0.322787 -0.152872 0.162440 0.020476 -0.543990 -0.010419 -0.211441 0.482400 0.163742 -0.383880 -0.270489 0.144599 -0.246312 0.074484 -0.057708 0.075499 -0.255781 0.315266 -0.568729 0.386814 -0.142383 -0.072177 -0.102895 0.695148 0.094611 -0.239014 -0.030416 0.484075 0.803657 0.231228 -0.216080 -0.118287 -0.049752 0.277305 -0.182691 -0.268637 0.409787 0.043977 -0.062626 -0.388531 0.510444 0.024605 0.015405 0.148140 0.082400 -0.683050 0.565081
1194 0.010992 -0.027138 0.151046 0.419934 -0.302776 -0.094299 0.074148 -0.344293 0.557230 0.402672 0.331965 -0.328055 -0.179354 -0.282518 0.221243 0.181484 0.136685 0.123098 0.042947 -0.066525 0.292059 0.080616 -0.429367 0.370668 -0.227502 0.662473 -0.470203 0.163535 0.024830 -0.014761 -0.616302 -0.686373 0.065380 0.038896 -0.335110 0.203232 -0.067387 -0.122412 -0.177727 0.004762 0.068318 -0.128965 -0.052012 -0.219975 -0.132478 -0.345081 -0.129986 -0.417613 0.138235 0.279224 0.029532 -0.200432 -0.078694 -0.090968 0.121165 -0.365031 -0.326777 -0.020816 0.303633 -0.458465 0.005117 0.216732 0.203663 -0.390340 0.117459 -0.044732 0.016576 -0.103782 -0.016059 -0.379188 0.010517 -0.550174 0.333452 0.680235 -0.011865 -0.049259 -0.521192 0.232349 0.142409 0.518834 0.150801 -0.547447 -0.147202 0.056977 -0.401045 0.274189 0.138764 -0.735745 0.363680 0.170986 -0.350079 0.065614 -0.127362 -0.071670 0.148882 -0.531694 0.430962 -0.211601 0.188647 0.128189 -0.049009 -0.065071 -0.227325 0.205197 0.529602 0.337847 -0.225560 0.205113 0.196616 0.528486 0.219741 0.271478 0.042195 0.156113 0.260343 0.485047 -0.225610 0.404587 0.232214 0.068880 -0.396628 0.158347 0.097177 -0.108864 0.718466 -0.219615 -0.284673 0.550872
1230 -0.115951 0.194615 0.404568 0.633425 -0.334237 0.382208 0.139262 0.457873 0.143150 0.012873 0.129849 -0.450625 -0.058457 -0.240252 0.059441 -0.044833 0.021728 0.709060 -0.048870 0.134907 0.519246 0.377278 -0.792839 -0.036279 0.136697 0.216351 -0.177232 -0.316727 -0.353546 0.219738 0.130409 0.013989 -0.216889 -0.122709 -0.479849 -0.280781 0.321979 0.066617 0.294450 0.699662 0.192206 -0.341041 -0.293112 -0.261283 0.184342 -0.268330 0.041368 0.207158 0.788728 -0.674145 0.215858 -0.099699 0.581143 0.451443 0.526476 -0.161858 0.142968 0.216090 -0.381880 -0.367095 -0.379795 -0.246069 -0.449861 -0.394762 0.493957 -0.069891 -0.074366 0.488431 -0.482972 -0.332964 0.180137 -0.200207 0.361621 0.385363 0.245216 0.134283 0.098300 0.128822 0.321718 0.213544 -0.120699 -0.134841 0.095766 0.185745 -0.205250 0.023506 -0.208115 -0.295293 0.445914 0.373767 0.304958 -0.224662 0.346150 -0.037008 0.059409 -0.190468 -0.297021 -0.073583 0.081566 -0.335306 -0.007388 0.040289 -0.262347 0.014807 0.731675 0.233201 -0.088565 0.014662 0.248297 0.709602 0.017923 -0.125050 -0.312558 -0.194130 -0.292748 0.373010 -0.630187 -0.373232 -0.756792 0.242556 -0.460421 0.122116 0.359148 0.008822 0.420003 0.259525 -0.184524 0.240153
1130 -0.488273 -0.051865 -0.105423 0.023937 -0.060291 0.784974 0.165557 -0.174639 0.086661 0.061293 0.441598 -0.359221 0.363691 0.376114 0.032795 -0.003560 -0.184575 0.052954 -0.199150 -0.233673 0.433548 0.213538 -0.293735 -0.044037 0.142543 -0.042060 -0.142199 -0.303919 0.135205 -0.340174 -0.261511 -0.685584 -0.383576 0.227983 0.181119 0.136953 -0.271795 -0.187501 0.063056 0.477434 0.298520 -0.277164 0.401268 -0.037252 -0.197077 -0.186818 0.116370 -0.075665 0.548163 -0.228102 0.479127 -0.022643 0.134386 -0.136605 0.172315 -0.496303 -0.098508 0.060140 -0.174912 -0.083081 0.141251 0.030275 -0.164684 0.044729 0.169323 -0.571570 -0.297300 0.030715 -0.306634 -0.035162 0.084561 0.179576 0.254893 0.199223 0.166807 0.684343 -0.420301 0.189236 0.240257 0.533381 0.129841 -0.225323 -0.031399 -0.207639 0.019996 0.218020 0.701895 -0.827558 0.201661 0.353952 -0.295076 -0.072394 0.019103 -0.297364 0.410594 -0.234062 0.322804 -0.111504 -0.237606 0.046617 -0.207982 -0.411732 0.524718 0.100191 0.127059 0.064743 0.042906 0.025489 -0.085671 0.331066 0.572251 -0.016277 0.304676 0.174108 0.195192 -0.454688 -0.327228 0.504216 -0.034988 0.075938 -0.037938 0.342320 0.609459 0.163851 0.455391 0.044577 -0.256289 -0.020898
1206 -0.183802 0.192869 0.099861 0.384529 -0.277813 -0.104573 -0.007220 -0.324634 0.378797 -0.135947 0.120855 -0.120939 0.443943 -0.193247 -0.543167 0.229458 -0.268086 -0.024461 0.160846 0.060564 0.130612 0.355980 -0.402545 0.049754 -0.071129 0.251939 -0.477617 -0.067304 -0.021841 0.051079 -0.564435 -0.413801 0.286938 0.285805 -0.413555 -0.257679 0.257487 0.313130 -0.217235 0.320905 0.017138 -0.368213 0.294830 0.229073 0.193872 -0.512034 -0.084722 -0.129069 0.295507 -0.091074 0.143747 -0.027336 0.290118 -0.121038 0.137499 -0.073298 -0.386091 0.294657 0.381682 -0.307897 -0.378590 0.147680 0.045483 0.031610 0.357173 0.119758 -0.013190 0.165530 -0.371203 -0.044691 0.186655 -0.162679 0.415139 0.920375 0.109701 0.509469 -0.450367 0.574611 -0.329380 0.099552 0.071117 -0.743253 0.176031 -0.166074 -0.121341 -0.132700 -0.179207 -0.361600 0.987945 0.314550 -0.099192 -0.602220 -0.300831 -0.088706 0.216286 -0.420778 0.541462 -0.037614 -0.144691 -0.210085 0.134872 -0.196974 0.091299 0.359772 0.537238 0.146409 0.148680 0.213156 0.084316 0.944262 0.204823 0.016630 -0.617537 0.168935 0.174167 -0.010727 -0.303708 0.369003 0.016950 -0.010506 -0.377983 0.525148 -0.199427 -0.502333 0.398068 -0.159075 -0.124409 0.617198
1835 0.232655 0.010620 -0.158924 0.329742 0.059846 0.194311 -0.081973 -0.413103 0.374920 -0.095898 -0.153040 -0.166756 0.041908 0.131190 0.227022 0.178583 -0.042830 0.656137 -0.723848 0.026347 -0.009095 0.202608 -0.294789 -0.377618 -0.743726 -0.088070 -0.510638 -0.391444 -0.773927 0.107687 -0.211982 -0.027207 -0.076667 0.152036 -0.243288 -0.116644 -0.282040 -0.361480 -0.299450 0.022181 0.022402 -0.235284 -0.222718 0.349358 0.363854 -0.637940 0.048705 0.165193 0.173958 -0.223409 0.176124 -0.419260 0.559862 -0.201676 0.569620 0.293383 -0.202697 -0.120924 -0.058704 -0.428313 0.094319 -0.192555 -0.129562 0.077152 0.307101 -0.272705 0.066375 0.235403 0.097181 -0.328762 0.307385 -0.046972 0.142411 0.175115 -0.312754 0.132182 -0.767430 -0.175155 -0.200906 0.570064 0.255628 0.252029 -0.120483 -0.152229 0.153891 -0.282764 -0.235488 -0.139771 0.147859 -0.079079 -0.800017 -0.151736 -0.016843 0.207315 0.131393 0.221410 -0.189201 0.278644 -0.633927 -0.145267 -0.346571 0.081388 -0.053353 0.168977 0.339176 -0.121351 0.015271 0.211897 0.077608 0.157192 0.807562 -0.123319 0.326562 -0.328133 0.148526 0.104393 -0.380380 0.049543 -0.226773 0.283913 -0.468131 0.303706 -0.651702 0.159313 0.785584 -0.077046 -0.634282 0.537110
872 -0.592878 0.125700 -0.042516 0.236660 -0.068611 0.598067 -0.005490 -0.429212 0.385458 -0.422981 0.139745 -0.184974 0.032199 0.425581 -0.122504 0.628424 -0.423378 0.056752 -0.390818 0.046092 0.595340 0.235530 -0.455052 -0.176996 0.111708 0.198632 -0.097688 -0.114378 -0.032965 0.116709 0.045077 -0.439879 -0.235872 -0.131880 -0.136664 -0.267145 -0.240443 0.082865 -0.566520 0.599845 -0.259891 0.013107 0.043288 -0.326291 0.065918 -0.288644 -0.288090 -0.526737 0.161228 -0.048045 -0.130314 0.151412 0.425303 -0.173475 -0.002394 0.095149 -0.339452 -0.562763 -0.069668 -0.506330 0.044060 0.434374 0.300139 -0.035342 -0.382048 -0.304243 0.196644 -0.189778 -0.150839 -0.038920 -0.149464 0.106212 0.406471 0.414836 0.087747 0.022907 -0.540715 0.206746 -0.337913 0.293257 0.190737 -0.915977 -0.184207 -0.076902 0.496571 -0.029022 -0.017874 -0.547650 0.373288 0.284154 -0.535814 0.270880 -0.142357 -0.122758 0.395814 -0.023958 0.445979 -0.022539 -0.055285 0.223483 -0.138848 0.309579 0.629785 -0.246073 0.125232 -0.364786 -0.119962 -0.179379 -0.158556 0.305394 0.421573 0.000036 0.157233 0.336659 0.424231 -0.409655 -0.234166 0.176164 -0.213631 0.121169 -0.632654 0.103190 -0.232985 -0.032930 0.585011 0.094219 -0.657889 -0.083367
1430 0.461988 -0.181732 0.324552 -0.006286 -0.259993 -0.371292 -0.019745 0.052927 0.415679 0.578063 -0.083913 0.000020 -0.429322 0.161642 0.148010 0.383994 -0.338533 0.395245 -0.261713 -0.080042 0.021883 0.066299 -0.056284 0.224758 -0.485150 0.102747 0.166759 -0.683204 -0.279544 -0.000076 0.176528 0.305031 -0.513252 -0.226911 -0.122384 -0.124565 0.019311 -0.244241 -0.636951 0.800444 0.142960 -0.432433 -0.070705 0.214080 -0.643120 -0.272253 0.047664 0.189144 0.469678 -0.192252 0.015180 -0.267612 0.245226 0.006670 0.851968 -0.746228 -0.003417 0.195477 -0.369554 -0.629424 0.111381 0.039343 0.170354 0.053748 -0.210576 -0.510302 -0.119509 0.139098 0.003428 -0.183706 0.536770 -0.138541 -0.060939 0.714234 0.090026 0.603442 -0.453870 -0.050692 0.267388 0.698780 -0.197391 -0.928745 0.157645 -0.489631 0.315640 -0.410088 -0.860695 0.146024 0.177835 -0.081254 0.153041 0.458629 -0.242062 -0.072271 0.016422 0.192241 -0.864641 -0.131438 -0.315011 0.360820 0.141652 0.170275 1.009190 0.100383 0.555729 0.193961 -0.072607 0.029436 -0.518928 0.553510 0.475847 0.004590 0.179837 -0.368777 -0.153977 0.710432 -0.449625 -0.043148 -0.244818 0.263320 -0.763135 1.098055 0.205125 0.016420 0.249914 -0.037855 -0.806772 0.350469
551 -0.312842 0.604851 -0.017533 0.052714 -0.209086 0.116282 0.305822 0.544966 0.046966 0.427818 0.469076 0.008960 0.227982 0.103004 0.234757 0.303130 -0.221216 0.090837 -0.127314 0.178972 0.118832 0.506635 -0.146006 -0.208602 -0.087216 0.201029 -0.240853 -0.628384 -0.105954 -0.156507 -0.557408 -0.197639 -0.094468 0.080909 -0.405009 -0.436479 0.217966 0.450287 0.483378 0.158801 -0.007335 0.001362 0.252180 0.139857 -0.424769 -0.528207 0.155842 -0.259323 0.330154 -0.210530 0.542835 -0.436357 0.092798 -0.266299 0.191629 0.000235 0.040140 0.075584 0.117846 -0.389534 -0.528757 -0.127511 -0.133524 -0.518433 -0.120153 -0.242509 0.463555 0.188662 -0.120099 -0.455312 0.254180 -0.115499 -0.093551 0.416691 0.191726 0.709996 -0.134904 -0.005214 -0.127422 0.089058 0.205207 -0.406792 0.230054 -0.107935 0.048579 0.036417 -0.173526 -0.527988 0.339337 0.046519 -0.054094 0.220721 0.121566 0.015935 0.450145 -0.268517 0.035983 -0.534252 0.171806 -0.667670 0.229353 0.066527 0.149414 0.545890 0.174362 0.365982 -0.309503 -0.006693 0.397912 0.534471 0.414299 -0.342534 0.220153 -0.175254 0.203767 0.040360 -0.254981 0.219001 0.005769 0.074427 -0.525095 0.093895 0.033922 0.058191 0.857500 -0.208300 -0.200434 0.040908
579 -0.159758 0.507032 -0.268829 0.160258 -0.334545 0.242217 0.167008 -0.189360 0.589656 0.356212 -0.056420 -0.302766 -0.513186 0.531404 -0.142509 0.148744 -0.639380 0.313958 -0.364720 -0.148130 0.010329 -0.058616 -0.278369 -0.321676 0.499285 0.153633 0.325473 0.072011 -0.654071 0.145914 0.120736 -0.014370 -0.396113 -0.103110 0.352831 -0.389729 -0.060859 0.580700 -0.564018 0.802243 0.434132 -0.697907 0.187239 0.218965 -0.431232 -0.928912 -0.471708 -0.165001 0.770690 -0.334466 0.047661 -0.410963 -0.314404 0.838189 0.681334 0.233646 -0.741790 0.479690 -0.477102 0.232636 0.488057 -0.226544 0.239669 0.038016 0.116436 -0.121035 -0.140089 -0.018452 -0.421182 -0.169618 0.372675 -0.066050 0.036179 0.160402 0.127675 0.340529 -0.049574 -0.046745 -0.141537 0.505671 -0.836845 -0.973441 0.595399 0.143889 -0.274083 0.021008 0.271555 -0.181241 0.020344 -0.570543 -0.575433 0.706075 0.501467 0.027415 0.199616 0.236512 -0.073128 -0.214757 -0.341333 -0.528106 0.475058 0.187925 -0.193692 -0.704699 0.464021 -0.236316 -0.691203 0.147665 0.144625 0.132048 0.172619 -0.277086 0.117625 -0.309081 0.137784 0.261036 -0.420572 0.255574 -0.214361 0.654929 -0.259771 0.382671 0.177799 0.398522 0.170201 -0.203891 -0.460114 -0.041233
446 -0.352186 0.050202 0.076542 -0.104230 0.135912 0.711925 -0.245081 -0.688566 0.289202 -0.282381 -0.056156 -0.526419 -0.290624 -0.197014 -0.114223 0.144544 -0.234940 0.691591 -0.078876 -0.341277 0.242150 0.045121 -0.138668 -0.246974 -0.272663 -0.151504 0.323670 0.113409 -0.107777 -0.249928 -0.217088 -0.320403 -0.125357 0.319843 -0.017745 -0.353688 -0.214225 0.102391 -0.282516 0.199736 0.212302 -0.156663 0.251702 -0.581801 -0.263612 -0.605759 -0.571149 0.117304 0.316084 -0.183691 -0.126199 -0.254032 -0.455182 0.426931 0.080697 -0.115340 0.041045 0.300259 0.438349 -0.617573 -0.055840 0.438517 0.136789 0.048249 0.031700 -0.198310 0.047910 -0.140182 -0.189886 -0.358730 0.158466 -0.062822 0.556667 0.350847 -0.520818 0.505625 -0.523646 0.330689 0.266638 0.124222 -0.130386 -0.257183 0.057931 -0.190012 -0.426697 -0.047455 -0.162917 -0.163376 0.331410 0.019063 -0.087437 -0.659415 0.166956 -0.063263 -0.104570 0.028345 -0.298470 0.531046 -0.048516 0.403404 -0.150375 0.125485 -0.337822 -0.210058 0.107528 -0.322095 0.020910 -0.109501 -0.035383 0.236571 0.689951 0.325860 0.562802 -0.317148 0.285772 0.050053 -0.133110 0.405010 0.249852 0.176521 -0.274514 0.438800 -0.116329 -0.128722 0.780159 0.123229 -1.021125 -0.313257
745 0.249123 -0.139781 -0.074587 0.212449 -0.309679 0.304729 0.304315 -0.019537 0.461423 -0.030231 0.208023 -0.345516 0.115348 -0.136479 0.163034 -0.273155 -0.026703 0.443405 0.051358 -0.227923 0.421814 0.500321 -0.405802 -0.213277 0.014700 -0.004283 0.202247 -0.088512 -0.494034 0.283298 -0.119224 0.082025 -0.526935 0.284865 -0.120225 -0.008141 -0.010995 -0.029023 0.135165 0.645382 0.196544 -0.539833 -0.177663 -0.176664 -0.016492 -0.166922 0.392444 0.290183 0.379670 -0.369189 0.308020 0.053187 0.401705 0.476568 0.263452 0.027070 0.306958 0.051012 -0.224642 -0.645876 -0.182491 -0.071853 -0.015586 -0.245308 0.151155 -0.182454 -0.353463 0.180189 -0.163250 -0.480998 0.159248 -0.008426 0.291080 0.227724 0.356929 -0.032441 -0.109142 0.132999 0.336782 0.047426 0.229549 0.357849 0.358209 0.168777 -0.236452 -0.105700 -0.533762 -0.515740 0.231575 -0.447281 0.012366 -0.087489 0.544095 0.166834 -0.395297 0.461598 -0.317450 -0.173874 -0.072608 -0.489993 0.365756 0.287373 0.042291 -0.147801 0.923769 0.256990 -0.169423 0.322605 0.197099 0.157880 0.067063 -0.183116 -0.137853 -0.201351 -0.597123 0.654433 -0.588515 -0.172529 -0.474010 -0.038778 -0.509438 0.175035 0.375979 0.359254 0.721597 -0.317538 -0.273598 0.119818
1423 0.289576 -0.232039 0.223425 0.210626 -0.123637 -0.589804 -0.008457 0.001318 0.667796 0.772117 -0.151945 -0.096121 -0.227582 -0.043485 -0.117423 0.427886 -0.191394 0.139721 -0.230610 0.114267 0.096590 -0.109865 0.132910 0.159248 -0.271070 -0.084236 0.162472 -0.776222 0.004580 -0.002503 0.157195 0.190847 -0.323334 -0.271629 -0.041290 -0.199543 -0.220889 -0.140708 -0.647594 0.499143 0.013699 -0.377244 0.213241 0.350312 -0.363574 0.034960 -0.133895 0.254753 0.536832 -0.263992 -0.306753 -0.293883 0.138323 -0.037201 0.937993 -0.707498 0.146768 0.234123 -0.412698 -0.596451 0.045602 0.007679 0.064346 -0.149074 -0.115581 -0.219957 -0.127501 0.037856 -0.018756 -0.506559 0.403318 -0.165338 -0.094773 0.848436 -0.043689 0.505662 -0.436576 -0.151130 0.306458 0.728016 -0.082099 -0.947470 0.216959 -0.536244 0.325118 -0.260555 -0.819867 -0.031729 0.053546 -0.212201 0.152258 0.592063 -0.116738 0.031034 0.173711 0.248298 -0.821078 -0.096491 -0.545739 0.520618 0.154863 0.110386 1.156775 -0.014029 0.378860 0.298054 -0.072651 -0.007801 -0.382140 0.682493 0.299245 0.138712 0.347100 -0.225599 -0.321190 0.258284 -0.666333 0.072614 -0.164992 0.145871 -0.702069 0.568636 0.243059 -0.106289 0.149201 -0.155503 -0.603261 0.394696
875 -0.250640 0.536290 -0.013156 0.034040 -0.592686 -0.527332 0.211352 0.148090 0.108547 -0.019962 -0.184805 -0.168824 0.226575 -0.270745 -0.294438 -0.026471 -0.295231 0.111199 -0.241928 0.065583 -0.027641 0.387526 -0.506235 -0.339085 -0.181491 0.005013 -0.120381 -0.028349 0.170273 0.231595 -0.327926 -0.330288 0.454379 0.116441 -0.591254 -0.115570 0.119322 0.055750 -0.023269 0.388808 -0.154347 -0.188547 0.227163 -0.248226 -0.311310 -0.289475 0.265671 -0.127709 0.340224 0.106598 0.230061 -0.197212 0.233175 0.167707 0.122297 -0.024701 -0.277905 0.130445 0.263693 -0.473204 0.131830 0.043454 -0.381777 -0.406913 0.479362 0.078865 -0.034937 0.775969 -0.473244 0.032674 0.216776 -0.241012 0.242528 0.469006 -0.227057 0.412736 -0.375745 0.798820 -0.221733 0.292528 -0.318948 -0.496459 0.203542 -0.093570 0.274889 -0.526273 -0.120261 -0.024987 0.696076 0.034366 -0.170151 -0.032155 -0.239028 -0.263204 0.308818 -0.178559 -0.038276 -0.187016 -0.017653 -0.475367 0.218679 -0.220455 -0.267276 0.138590 0.672667 0.039596 -0.281264 0.456062 0.371782 0.785952 0.288789 -0.319163 -0.180752 0.006853 0.121340 -0.084194 -0.568955 0.404382 -0.044193 0.204053 -0.510967 0.421820 -0.190127 -0.216974 0.525093 -0.170822 -0.297894 0.114865
690 -0.645810 0.107316 -0.183706 0.644529 -0.055685 0.296926 0.000578 -0.063742 -0.006942 0.214786 -0.010780 -0.351573 -0.358613 0.179268 -0.023753 0.058076 0.036189 0.031811 -0.247255 -0.149627 0.526452 0.026004 -0.735436 0.434991 0.064313 0.356297 -0.094400 -0.348186 0.038740 0.096752 -0.003741 -0.337500 -0.078287 0.224821 -0.031441 0.286700 -0.228362 0.029656 0.245362 0.346899 0.413530 -0.647167 0.134446 -0.076475 0.063616 -0.071037 -0.030199 -0.218059 0.639137 -0.436154 0.249030 0.043465 0.238892 0.163107 0.264355 -0.412420 0.185538 0.060016 0.077709 -0.674909 -0.116985 0.293016 -0.077639 -0.392308 -0.143586 -0.673973 0.281275 0.054390 -0.358354 -0.252344 0.357761 -0.126589 0.509487 0.439353 0.163541 0.394252 -0.553739 0.034821 0.165689 0.347541 -0.250036 -0.727312 -0.124404 -0.450613 -0.270822 0.099505 -0.091128 -0.577278 0.449638 0.326501 -0.187332 -0.342955 0.367013 -0.111801 0.331653 -0.199264 -0.278451 -0.316024 -0.219203 0.105767 -0.256441 -0.461372 -0.068213 -0.231051 0.176046 -0.253770 -0.114862 -0.103477 0.293428 0.162321 0.546148 0.338599 0.243988 -0.342299 0.102595 -0.050107 -0.299339 0.357281 -0.581055 0.228147 -0.173557 0.076169 0.393961 -0.133886 0.971560 0.173792 0.212884 0.119395
659 0.432085 -0.515843 0.015884 0.498950 0.023617 -0.073819 0.123064 0.068032 0.366438 0.302845 0.430337 -0.149621 0.242544 0.331542 0.467683 0.131646 -0.255795 0.476092 -0.401088 0.275241 0.122750 0.143869 0.025272 -0.249306 -0.920487 0.103998 -0.293639 -0.362682 -0.759363 0.117069 0.018808 -0.238452 0.178406 0.403230 -0.127989 0.015952 -0.034265 -0.399933 -0.348806 0.179414 0.018840 -0.347204 -0.004783 -0.139576 0.150956 -0.483819 -0.040274 -0.076724 0.457982 -0.386739 0.050999 -0.097251 0.666733 -0.074467 0.595349 -0.002529 -0.017093 0.049812 0.091525 -0.536985 0.087707 -0.433277 0.158593 -0.131806 -0.219311 -0.305214 -0.021411 0.161426 -0.031602 0.166573 0.647165 0.109883 -0.066597 -0.183487 -0.378531 0.210227 -0.472293 0.099883 -0.290109 0.654561 0.150236 -0.017130 -0.100838 -0.471507 0.225821 -0.398676 -0.240974 -0.314467 0.064634 -0.166561 -0.866071 -0.034447 0.050623 0.322778 -0.231224 -0.084867 -0.354780 -0.064897 -0.059819 0.103134 -0.193363 -0.170837 0.029460 0.102207 0.193944 0.196845 -0.298534 -0.038017 -0.010837 0.511975 0.666153 -0.434142 0.054605 -0.324645 -0.166819 0.383633 -0.300140 -0.014418 -0.133110 0.253432 -0.277703 0.149731 -0.438264 0.422652 0.684097 -0.260446 -0.403548 0.378111
1824 0.225297 0.280580 0.182053 0.515952 -0.099071 -0.228773 -0.104925 -0.275667 0.747935 0.222848 0.010053 -0.235200 -0.276723 0.175849 0.476568 0.043477 -0.316558 0.266597 -0.529424 0.036110 0.093962 0.170898 -0.055323 0.526363 -0.204715 0.303700 -0.113652 -0.056142 -0.036513 -0.049133 -0.202214 -0.059200 0.430968 0.048055 0.314342 -0.014365 -0.306297 -0.006326 -0.716076 0.268436 0.154978 -0.053458 -0.129137 -0.393353 -0.518870 -0.425913 -0.071289 -0.512396 0.694279 -0.126196 0.195812 -0.345577 -0.439988 0.006390 0.186166 -0.264696 -0.408317 -0.297823 0.569926 -0.437254 0.043369 0.176942 -0.196870 -0.346578 -0.307976 -0.724555 -0.014696 -0.154502 -0.355606 -0.357116 0.123363 -0.334297 0.028837 0.236503 -0.075172 0.619117 -0.595222 0.517123 -0.111698 -0.040052 -0.020358 -0.885557 -0.243311 0.002757 -0.467885 0.496446 0.531664 -0.498378 0.386701 0.478959 -0.228268 0.317674 0.411184 0.167303 -0.121855 -0.234346 -0.011542 -0.177444 -0.222375 -0.462663 0.008584 -0.037251 -0.075426 0.179362 -0.026304 0.119486 -0.460140 -0.066232 0.128340 0.245053 -0.079015 0.275666 -0.116720 0.026573 0.097468 0.553057 -0.556201 -0.085816 -0.040796 -0.491988 -0.576467 0.160273 0.374388 0.219188 0.424898 -0.207185 -0.329384 0.430021
161 0.195392 -0.122521 0.143898 0.549662 0.203690 0.188957 -0.139582 -0.357553 0.436407 0.402603 0.401770 -0.253270 0.353815 -0.086789 -0.282046 0.461321 0.235565 0.289898 -0.174628 -0.034994 0.831223 0.009789 -0.493828 -0.291176 -0.186278 0.003214 0.405535 -0.919087 -0.217954 0.463810 0.062080 -0.142749 0.060639 -0.046233 -0.156755 -0.451763 0.171119 0.289169 0.167907 -0.379275 -0.085777 -0.080317 0.330001 0.129640 0.045389 -0.141364 -0.270379 -0.128163 -0.249470 -0.185305 0.266252 0.098225 0.209482 0.544240 0.334983 -0.319795 -0.171228 0.099195 -0.054625 -0.138920 -0.407374 0.033843 -0.226248 -0.584829 0.173486 -0.352670 -0.373516 -0.081797 -0.322715 -0.715122 -0.101002 -0.387253 0.099968 0.232879 0.135818 0.302913 -0.497580 0.062121 0.304794 0.066061 0.242449 -0.119674 -0.507999 0.511881 0.327687 0.064848 0.288952 -0.297890 0.085756 -0.404687 0.053843 0.062609 0.026763 0.081338 0.163775 -0.565612 0.296229 -0.357249 -0.255451 0.077609 0.066356 0.231861 -0.200262 0.411879 -0.094398 -0.019999 -0.248740 -0.204461 -0.016958 0.842597 -0.267950 -0.618604 -0.252982 0.063858 -0.205086 -0.200615 -0.679978 0.211572 0.433822 0.394398 0.210177 0.399304 0.747550 0.239888 0.002051 -0.102694 -0.050547 -0.048833
213 0.076343 0.118282 0.692168 0.178373 -0.089398 -0.152141 0.167909 -0.557840 0.338898 0.254714 -0.654160 -0.055761 0.222317 -0.203627 -0.108307 0.007085 0.054611 0.492265 -0.178809 0.078012 0.172177 0.276897 0.034117 -0.015599 0.251418 -0.824682 -0.258260 -0.445305 -0.111844 0.330034 -0.236427 0.176190 0.035277 0.164796 -0.724080 -0.212585 -0.214330 0.233102 -0.364767 0.389798 0.024524 -0.437707 -0.301483 0.035030 0.092475 -0.439611 0.268995 -0.027881 0.305733 -0.195059 0.429954 0.135473 0.762343 0.216640 0.200291 0.353016 -0.167663 -0.197669 -0.227396 -0.524610 0.020394 -0.006289 -0.013183 -0.211611 0.233681 0.100498 -0.198956 0.025255 -0.354052 -0.622581 0.057961 -0.284300 -0.093880 0.224895 -0.390991 0.161480 -0.572561 0.010667 -0.152089 0.219932 0.069186 0.160375 0.041355 -0.142517 0.162602 -0.170313 -0.499362 -0.408971 0.426452 -0.166016 -0.524783 -0.399878 -0.036789 0.073175 0.241542 0.436101 0.184994 0.358973 -0.616566 -0.302236 -0.297436 -0.062037 -0.189723 -0.023090 0.010921 -0.033622 0.152493 0.220207 -0.198610 -0.050436 0.333487 -0.146872 -0.113156 -0.345355 0.053387 -0.497170 -0.222179 0.124084 0.074728 0.095530 -0.518980 0.239304 -0.469216 0.419581 0.374972 0.194056 -0.413328 0.055946
2393 0.012893 0.419998 -0.323008 0.092664 -0.219984 0.148005 0.229981 -0.292308 0.335820 0.316540 -0.127568 -0.409432 -0.520553 0.548509 -0.021713 0.248554 -0.572065 0.162326 -0.581656 -0.126464 0.000262 -0.157239 -0.232725 -0.319629 0.324908 0.010865 0.436145 0.009352 -0.674891 0.208932 0.103969 -0.093412 -0.259660 -0.043432 0.377355 -0.166025 -0.096859 0.408848 -0.400839 0.550785 0.370644 -0.626896 0.153100 0.247132 -0.301573 -1.130358 -0.520333 -0.240187 0.822210 -0.455578 0.048403 -0.224148 -0.286503 0.754437 0.676332 0.152059 -0.752985 0.616706 -0.659443 0.223919 0.391447 -0.240183 0.143870 -0.000183 0.065180 -0.040101 -0.104203 -0.028052 -0.323818 -0.029719 0.452971 -0.133371 -0.159048 0.152300 0.079373 0.535655 -0.163498 -0.212696 -0.087044 0.592777 -0.762452 -0.991686 0.451116 0.089080 -0.080801 0.038421 0.509093 -0.336434 0.052295 -0.768530 -0.600486 0.670542 0.709487 -0.049550 0.141419 0.002181 -0.012536 -0.359081 -0.443718 -0.540365 0.340505 0.083156 -0.135566 -0.590717 0.410496 -0.085151 -0.721944 0.165338 0.074737 0.116081 0.337144 -0.554131 0.359574 -0.157608 0.416908 0.353502 -0.511563 0.355866 -0.196172 0.656504 -0.172110 0.440687 0.218635 0.377510 0.233377 -0.388961 -0.361535 -0.022969
1131 -0.343457 0.263149 -0.106701 -0.013648 0.157907 -0.030565 -0.136041 0.091278 -0.152556 0.004116 0.161730 -0.127326 0.145280 0.140592 0.261395 -0.053546 0.122943 0.221984 -0.430021 0.134134 -0.018463 -0.019845 -0.086682 -0.219536 -0.134886 0.330461 -0.327373 -0.763419 -0.247303 -0.421589 -0.486315 -0.365524 -0.298162 0.372494 0.059993 0.076648 -0.438538 -0.254146 0.300185 0.398066 -0.167317 -0.261631 0.277837 -0.003747 -0.155234 -0.033906 0.346760 0.083178 0.327875 -0.407204 0.374787 -0.469113 0.391149 -0.026008 0.162896 -0.123603 -0.451469 -0.074783 0.078896 -0.479556 -0.114261 -0.037919 -0.221356 -0.277844 0.190865 -0.418997 -0.005298 0.309234 -0.329038 -0.139778 -0.101585 0.102326 0.136644 0.362470 0.151102 0.431641 -0.401178 -0.105172 -0.133505 0.363733 0.509744 -0.260440 -0.076796 -0.444517 0.050098 -0.008800 0.223683 -0.411851 0.241787 0.007068 -0.276944 -0.189475 -0.044829 0.148835 0.479220 -0.052979 0.002051 -0.098037 -0.078059 -0.612725 -0.279051 0.341399 -0.003904 -0.042901 0.106651 0.182198 -0.106653 -0.067417 0.632338 0.531251 0.404244 -0.308037 0.333521 0.256888 0.018927 -0.424629 -0.239917 0.005925 -0.076794 -0.091572 -0.422626 0.274643 0.149826 0.188800 0.661216 0.301993 -0.869010 0.282623
244 -0.482025 0.049780 0.186673 0.396650 0.374745 0.636345 -0.207375 -0.238718 0.704358 -0.010788 -0.237519 -0.205572 -0.092653 0.202722 -0.153738 -0.028239 -0.139326 0.153094 -0.070668 -0.284802 0.254162 0.028006 -0.512595 -0.402573 -0.084588 0.125569 -0.080909 -0.063132 0.118874 0.224247 0.277852 -0.318425 -0.095080 0.231309 -0.236348 -0.155286 -0.479323 0.507328 0.008773 0.399727 -0.453692 -0.151542 -0.154512 -0.378556 0.061687 0.084956 -0.247314 -0.139526 -0.027722 -0.368171 0.093435 -0.216979 0.011420 -0.074216 0.045918 0.233265 -0.322938 -0.443723 0.374204 -0.232383 0.264354 0.266032 -0.268226 -0.215111 0.113512 -0.192775 -0.126866 0.151374 -0.110759 -0.371273 0.384291 0.282975 0.413274 0.035200 -0.166088 0.262522 -0.465980 0.288457 -0.042722 0.219513 0.449104 -0.643394 0.087145 -0.114771 -0.267001 0.614358 -0.322329 -0.268754 0.379181 0.275947 -0.249156 -0.198407 0.200566 -0.067447 0.277904 -0.001520 0.211826 0.175092 -0.354988 -0.058469 -0.267731 0.017195 0.006850 -0.215075 0.375673 -0.319992 0.070017 -0.338526 0.142056 -0.184702 0.251139 -0.368941 0.422264 0.297562 0.419339 -0.188322 -0.302761 -0.274808 0.448357 -0.056930 -0.610287 0.409911 -0.210651 0.069488 0.512313 0.381615 -0.643762 -0.014143
776 -0.422051 -0.147341 -0.036249 0.398231 0.108001 0.107474 -0.063764 -0.084127 0.415965 0.574980 -0.027673 -0.190701 -0.083075 -0.002893 0.101952 0.036308 -0.204111 -0.285807 0.084874 -0.265706 0.372727 0.008125 -0.242365 0.388604 -0.174197 0.194806 -0.310410 -0.283954 -0.055186 -0.007074 -0.291392 -0.370549 0.195743 0.285949 -0.340522 -0.145286 0.267773 -0.226185 0.115657 -0.021690 0.351434 -0.170596 0.058845 -0.262178 -0.223623 -0.405855 -0.336668 -0.192252 0.033640 0.034304 0.417253 -0.329804 -0.298815 0.157641 0.016061 -0.386968 -0.016479 -0.200049 0.716196 -0.622108 -0.033298 0.385878 0.230879 -0.236479 0.055743 -0.485150 0.132473 -0.188922 -0.142113 -0.728928 0.739022 -0.151480 0.409510 0.453936 -0.263846 0.418787 -0.705060 0.497735 0.257344 0.435067 -0.240686 -0.386737 -0.135246 0.043928 -0.044177 0.202629 0.196699 -0.509739 0.154820 0.149324 -0.053555 -0.062061 0.018307 -0.114855 0.160796 -0.525185 0.229301 -0.235485 -0.007850 0.055989 -0.005582 -0.066120 -0.328575 -0.149918 0.049938 -0.031677 -0.264373 0.120532 0.487255 0.076163 0.750957 0.059183 -0.085112 -0.245454 0.237844 0.336873 -0.216544 0.204373 0.059826 -0.452228 -0.437072 0.225244 0.391734 0.002531 0.380519 -0.409152 -0.443157 0.081215
60 -0.171532 0.086705 0.052323 0.449248 0.249446 -0.082394 -0.244598 -0.403037 0.665958 0.222435 0.326958 -0.390399 0.407397 0.144903 -0.058238 0.382160 -0.024194 0.340276 -0.381170 0.131792 0.213219 -0.270542 -0.617616 -0.003323 -0.012214 -0.211533 0.077094 -0.669696 -0.504845 0.619248 -0.328961 -0.449209 0.011550 0.089361 0.236989 -0.520829 -0.187262 0.664303 0.077876 -0.229016 -0.256914 -0.236021 0.345115 0.353252 -0.218937 0.366154 -0.533053 0.217425 -0.218635 -0.127659 0.219087 -0.386465 -0.249266 0.411913 0.239486 -0.012618 -0.571846 -0.365844 0.157845 -0.505558 -0.379494 0.295106 0.021794 -0.182236 0.120000 -0.235033 -0.454128 -0.206398 -0.509252 -0.722050 -0.316277 -0.068653 0.030264 0.474753 0.008925 0.146036 -0.509042 0.023611 -0.108866 0.133576 -0.074977 -0.128275 -0.362441 0.215926 0.253943 -0.052966 0.074161 -0.042326 0.018924 -0.352259 0.083461 0.456101 0.089966 0.530273 -0.306956 -0.259683 0.400985 -0.400210 -0.153072 -0.053739 0.183331 0.180538 -0.163177 0.461890 -0.092754 -0.040556 -0.433875 -0.075635 0.621243 0.397349 -0.080352 -0.366737 -0.019724 -0.072440 0.281573 -0.304037 -0.488119 0.314968 0.134253 0.013343 -0.139546 0.082716 0.536718 0.532355 -0.200523 -0.347844 -0.222599 0.097534
840 0.072522 -0.606416 0.059066 0.161522 -0.408660 0.185242 0.611989 -0.095409 0.170833 0.230175 -0.056857 -0.170609 -0.023103 -0.242950 0.350278 -0.230639 -0.197462 0.173740 0.019238 0.245408 0.429335 0.339822 -0.111486 -0.558801 -0.030472 0.477726 -0.188917 -0.522977 -0.413470 0.013807 -0.656427 -0.282588 0.051295 0.341757 0.478067 0.034032 -0.100284 0.198718 -0.031653 0.612142 -0.226844 -0.442558 0.040200 -0.319735 -0.170813 -0.576964 0.474295 0.067843 0.239712 -0.746393 0.296003 -0.170823 0.240695 0.309492 0.538027 -0.152135 0.035972 0.017490 -0.321393 -0.400849 -0.109503 -0.067416 0.238663 -0.053848 0.186824 -0.052920 -0.337455 0.398798 -0.291122 -0.456061 0.339708 -0.049376 -0.031648 0.131953 0.166152 -0.028464 -0.458257 0.162048 0.166763 0.314934 0.204945 -0.104192 0.118362 -0.176776 0.358006 -0.317051 -0.487071 -0.205252 0.303104 -0.113193 0.101623 -0.149894 0.217165 0.177161 -0.527243 0.045937 -0.111827 -0.101161 -0.094817 -0.490662 0.048413 0.388052 -0.156154 -0.347567 0.565286 0.213251 -0.084599 0.550380 0.261870 0.293017 -0.101161 -0.277880 0.034120 -0.284194 -0.692931 0.120834 -0.176505 -0.545294 -0.501513 -0.020538 -0.441635 0.590208 0.346090 0.107614 0.528845 0.008035 -0.538852 0.018492
619 -0.021587 0.292762 -0.071855 -0.260711 -0.357970 0.797433 0.478652 -0.073914 0.583954 0.154924 -0.067553 -0.158478 -0.140011 0.540147 0.021535 -0.067604 -0.139701 0.332862 -0.267791 -0.110920 0.253726 -0.055373 -0.427388 -0.043075 -0.014853 0.240347 0.149274 -0.285208 -0.583775 0.236890 0.027005 0.258004 -0.042775 -0.053775 -0.055907 -0.152716 -0.005791 0.646685 -0.731810 0.586088 0.291121 -0.713852 -0.143417 0.536524 -0.715277 -1.039562 -0.193699 0.408499 0.187660 -0.632596 0.036762 -0.147446 0.353783 0.446406 0.515040 0.312385 -0.418054 0.399639 -0.155842 0.084217 -0.078951 -0.284995 0.054307 0.034085 0.056323 -0.194173 -0.372027 -0.095461 -0.161138 -0.190843 0.659146 -0.181075 0.220819 -0.091612 0.200765 0.110739 -0.059044 0.183395 -0.211979 0.824449 -0.658252 -0.079788 0.643025 -0.184597 0.131802 0.000686 0.308131 -0.473581 0.587513 -0.287084 -0.588620 -0.084970 0.010338 -0.357956 0.102619 -0.256479 -0.112750 -0.210687 -0.444126 -0.666819 -0.146118 0.370502 -0.158916 -0.260763 0.018735 -0.299155 -0.365142 0.045481 -0.456175 0.146474 -0.076458 -0.399836 -0.365649 0.060019 0.036248 0.476192 -0.692955 0.083168 -0.372559 0.046889 0.067787 0.395626 0.138486 0.365655 -0.068784 -0.112353 -0.411289 -0.082619
2596 0.424250 -0.106607 0.385913 0.087259 -0.244546 -0.259816 0.038320 -0.096088 0.560065 0.642307 -0.156210 -0.010366 -0.346524 0.287671 -0.064336 0.310451 -0.340731 0.476701 0.034593 -0.213582 0.058329 -0.076818 -0.244155 0.307021 -0.457206 0.170152 0.157722 -0.609274 -0.275935 -0.050174 0.050334 0.299720 -0.506084 -0.361880 -0.015281 -0.142265 0.272918 -0.204162 -0.621776 0.802543 0.241882 -0.441454 -0.121654 0.161765 -0.448593 -0.040516 0.030777 0.096283 0.200471 -0.457043 -0.295047 -0.431070 -0.080035 0.049825 0.758824 -0.650106 -0.119155 0.186368 -0.560829 -0.598545 0.108905 0.150471 0.154854 -0.187826 -0.299277 -0.479368 -0.102795 0.334409 0.006144 -0.369874 0.404221 0.003406 0.096879 0.926139 0.209355 0.503796 -0.347618 0.268626 0.444420 0.670497 -0.266338 -1.045516 0.235047 -0.581945 0.114490 -0.284625 -1.029998 0.053136 0.229240 -0.033363 0.304364 0.438311 -0.306332 0.014667 0.033577 0.304037 -0.771771 -0.116639 -0.429781 0.400995 0.243444 0.184967 1.126663 0.067658 0.594206 0.149091 -0.099879 -0.028962 -0.621973 0.469880 0.309150 0.188704 0.020927 -0.281989 0.230673 0.759294 -0.407909 0.140669 -0.254959 0.182712 -0.959753 1.064706 0.391904 0.010543 0.258992 0.047074 -0.889328 0.347367
71 -0.299130 -0.181520 0.464878 0.646650 0.314979 -0.025254 -0.198344 -0.351718 0.368005 0.049008 -0.147473 -0.151267 0.528017 0.043674 -0.277432 0.096009 0.073627 0.313044 0.178427 0.183751 0.401443 0.123927 -0.239298 -0.039144 0.232713 -0.303650 0.145460 -0.419767 -0.009698 0.584691 0.130863 -0.402489 0.225687 -0.344113 -0.088204 -0.275503 -0.311720 0.518160 -0.279921 0.245741 -0.240190 0.007259 0.682489 0.253030 0.063634 -0.086380 -0.454525 -0.145622 -0.077810 0.061548 0.574159 0.369387 0.094059 0.255332 -0.020244 -0.317420 -0.300449 -0.507252 -0.006336 -0.523356 0.097013 0.297117 -0.044926 0.124252 0.396617 -0.103908 -0.766363 -0.035417 -0.076160 0.032927 0.251540 -0.160205 -0.109057 0.245823 0.160454 0.535131 -0.422049 0.257999 0.019534 0.071826 0.052994 -0.274766 -0.006318 0.398165 0.420082 -0.162761 -0.010543 -0.291584 0.123560 0.067325 0.135954 -0.071240 0.166376 -0.082719 -0.269925 -0.002614 0.030645 -0.329282 -0.418327 0.031231 0.046428 0.193063 -0.222282 0.302909 -0.506091 0.059978 -0.113591 -0.113219 -0.248998 0.092926 -0.233810 -0.619372 0.321098 -0.097537 0.285517 0.279934 -0.238618 0.698044 0.209400 0.305115 -0.038815 -0.015572 0.483490 0.299518 0.325208 -0.175224 0.010456 -0.179903
111 -0.042717 0.036059 0.341937 0.428067 0.230552 -0.159966 -0.090502 -0.436494 0.412202 0.282356 -0.107944 -0.398827 0.032615 -0.118763 0.184790 0.012893 0.153297 0.455770 0.182573 0.162687 0.498528 -0.545762 -0.130688 -0.065993 -0.307634 -0.051816 0.255032 -0.703805 -0.387752 0.428350 0.139503 -0.372399 0.210144 -0.683416 0.082613 -0.158230 -0.037920 0.378632 -0.425354 -0.091703 0.240642 -0.179629 0.427133 0.081377 -0.177299 -0.045097 -0.172535 0.071410 -0.107978 -0.575081 0.704577 0.099847 0.207421 0.515795 -0.096048 -0.311366 -0.202733 0.137189 -0.067238 -0.672444 0.295665 0.251487 0.394918 -0.372042 -0.097367 0.022177 -0.383672 0.016353 0.042104 -0.429898 -0.011463 -0.465115 -0.127210 0.428001 0.159401 0.376608 -0.448586 0.188488 0.745250 0.231545 0.258470 -0.297182 -0.304614 0.364817 0.594284 -0.045926 0.080469 -0.323192 0.154351 -0.478225 0.075957 0.097984 0.082546 0.233488 -0.305101 -0.137449 0.239694 -0.242972 -0.525633 0.297037 0.020921 0.247689 -0.116351 0.524330 -0.092783 -0.008677 -0.119534 -0.171443 -0.029930 0.439936 -0.218662 -0.184982 0.001264 -0.072648 0.001552 0.278134 -0.688666 0.639554 0.309846 -0.232359 0.463980 0.139563 0.204002 0.209218 0.210396 -0.170589 0.048165 0.220390
676 0.065985 0.227154 -0.012824 0.246354 0.310082 0.017314 -0.292320 -0.036180 0.616890 -0.010707 0.143694 -0.655395 -0.052863 0.385681 -0.059246 0.101362 0.032207 0.412750 -0.134201 -0.057759 0.201684 0.010574 -0.214113 0.282131 0.005180 0.369476 -0.236589 0.091011 -0.326445 -0.538856 -0.358408 -0.355460 -0.289899 0.264492 -0.106993 0.077186 -0.523041 -0.108611 -0.457016 0.446454 0.185329 -0.229769 0.080281 -0.116828 -0.559173 -0.167721 -0.298796 -0.602626 0.496012 -0.032220 0.472448 -0.238127 -0.305257 0.120821 -0.009507 -0.556638 -0.434938 -0.140421 0.347779 -0.679561 0.242938 0.423032 -0.113155 0.207629 -0.197475 -0.444552 -0.206995 -0.153061 -0.390995 -0.225552 -0.378698 -0.212692 0.093749 0.890052 -0.004366 0.600796 -0.723858 0.384872 -0.230030 0.244081 0.328992 -0.610808 0.096875 -0.090398 -0.393566 0.089447 0.604796 -0.248108 0.458573 0.264724 -0.195215 0.069311 0.231421 0.083943 0.378808 0.072807 0.139934 -0.233021 -0.023478 0.010003 -0.111379 0.007291 -0.124575 -0.019733 0.117612 -0.042353 0.270514 -0.139174 0.317969 0.318591 0.617114 -0.240252 0.103867 0.239716 0.125373 -0.371638 -0.020461 -0.090711 0.166777 -0.043610 -0.447015 0.329468 0.239701 0.547211 0.465005 0.007036 -0.573712 0.154680
95 -0.041853 -0.341498 0.610657 0.528960 0.477887 0.298284 -0.038275 -0.649734 0.341490 0.454682 0.230108 -0.229983 0.203048 0.372708 0.000143 -0.055527 -0.051751 0.278101 0.023633 0.002054 0.486259 -0.137852 -0.140697 -0.243717 0.766799 -0.342581 0.181171 -0.668691 -0.113135 0.499328 0.302314 -0.510692 -0.080235 0.083790 0.427930 -0.486357 0.261109 0.110078 -0.136049 -0.124214 -0.164035 -0.038232 0.487128 0.078848 -0.173522 -0.038827 -0.094982 0.451136 0.363472 -0.118578 0.587519 0.199632 -0.047654 0.097673 0.045034 0.288496 -0.367300 0.175177 0.084450 -0.171524 -0.039428 0.076193 -0.203612 0.091565 0.297022 -0.557990 -0.324751 0.085455 -0.102628 -0.080011 0.076858 0.010639 0.092787 0.342938 0.029753 0.130043 -0.655786 0.386510 0.264095 -0.050436 -0.207392 -0.493118 -0.021261 0.382048 0.200828 -0.078733 0.211322 -0.038352 -0.106420 -0.151181 -0.222586 0.248826 0.227962 0.023132 -0.160126 0.061056 -0.019908 -0.343779 -0.254318 0.081916 0.271338 0.032107 -0.302442 0.389252 -0.196304 -0.003160 0.100004 -0.445074 -0.120642 0.172247 -0.161840 -0.211874 -0.150632 -0.187590 0.182929 0.023023 -0.481152 0.596585 0.556007 0.315795 0.160895 0.105810 0.488310 0.359385 0.431804 0.181357 -0.054407 -0.094000
1202 -0.168610 0.566438 0.089469 0.558597 -0.436802 -0.355240 0.011940 -0.229383 0.390319 0.293319 -0.033006 -0.072031 0.163045 -0.334301 -0.293723 0.038991 -0.279804 0.150948 -0.096065 -0.097596 0.077250 0.579897 -0.615434 0.112135 0.058063 0.423191 -0.324891 -0.130905 -0.106633 0.059797 -0.695163 -0.223402 0.221738 0.138448 -0.668342 -0.252349 0.205652 0.097224 -0.048437 0.230014 0.056438 -0.177964 0.279443 0.047574 -0.150253 -0.325567 0.103541 -0.121266 0.234336 0.236957 0.255190 -0.263655 0.188381 -0.080742 0.196840 -0.243354 -0.198753 0.148002 0.376932 -0.437974 -0.073840 -0.086272 -0.230736 -0.212010 0.520568 0.008816 -0.018168 0.521352 -0.279309 -0.040725 -0.055139 -0.237911 0.411236 0.860957 0.017610 0.322943 -0.433086 0.511789 -0.101548 0.390936 -0.253666 -0.764293 0.101621 0.142636 -0.050417 -0.110266 -0.156314 -0.148575 0.868283 0.154357 -0.143600 -0.130366 -0.189783 -0.147455 0.363140 -0.301187 0.096802 -0.199135 0.064837 -0.467665 0.475886 -0.085221 -0.091524 0.060640 0.687069 0.259987 -0.162239 0.211013 0.259490 0.647351 0.334266 -0.151822 -0.274157 0.182022 0.108618 0.399688 -0.540586 0.374436 -0.131680 0.138281 -0.441819 0.145618 0.005640 -0.423143 0.363907 -0.232006 -0.429807 0.366991
626 -0.183281 0.317446 -0.169848 -0.264750 -0.303153 0.896156 0.473940 -0.197877 0.599893 0.067894 -0.040044 -0.211203 -0.154743 0.711669 -0.038381 0.065329 -0.031650 0.438037 -0.408914 -0.014869 0.481253 -0.382599 -0.317401 -0.007524 -0.015566 0.182042 0.202181 -0.156726 -0.431498 0.290323 0.198595 0.411404 -0.070100 0.015575 -0.014964 -0.053207 0.004670 0.581434 -0.539331 0.588400 0.289297 -0.706247 -0.225733 0.534678 -0.467207 -0.924670 -0.221132 0.342392 0.320065 -0.663969 -0.084444 -0.021865 0.444858 0.566361 0.645750 0.316789 -0.448660 0.477082 -0.386347 0.195006 -0.267614 -0.182715 -0.005644 0.084262 0.052883 -0.180623 -0.344773 -0.125584 -0.318745 -0.261312 0.403400 -0.183377 0.051961 -0.063427 0.091597 0.306188 -0.211672 0.096368 -0.114122 0.772190 -0.671462 -0.223253 0.442187 -0.240644 0.208424 0.127144 0.465015 -0.299515 0.531179 -0.421422 -0.446868 0.072556 0.124639 -0.154304 0.115795 -0.149349 -0.109107 -0.411729 -0.395901 -0.879421 -0.222307 0.405552 -0.115445 -0.268102 0.116788 -0.305557 -0.334568 0.043862 -0.367595 0.056829 -0.021729 -0.580930 -0.202448 -0.107758 0.114087 0.253322 -0.591288 -0.087736 -0.155034 -0.004093 -0.120223 0.346106 0.217419 0.472126 -0.152294 -0.019948 -0.227877 0.021652
474 -0.167691 -0.144748 -0.334045 0.005407 0.043936 0.746748 0.260555 -0.363201 0.205689 0.165513 0.178900 -0.383239 -0.002507 0.381398 0.004177 0.074415 0.062332 -0.225479 -0.233442 0.033922 0.514426 -0.514487 -0.144952 0.049634 -0.102586 -0.018973 0.386795 -0.346652 0.150115 0.219831 -0.123962 0.053844 -0.103323 0.289218 0.041032 -0.034335 0.314280 -0.075634 0.138812 0.120929 -0.016710 -0.604889 0.081749 -0.045223 -0.046869 -0.245969 -0.033101 0.133727 0.284438 -0.664876 0.122735 0.475182 -0.135608 0.223683 0.293621 -0.081865 -0.264070 0.354710 -0.698930 -0.263035 -0.533884 -0.195314 -0.101972 -0.077407 0.259510 -0.173004 -0.009181 0.237782 -0.030297 0.045024 0.022497 0.196762 -0.480379 0.306937 0.003643 0.499906 -0.459658 0.153823 0.163076 0.736594 -0.000327 -0.532004 0.029720 -0.436173 0.327836 0.009510 0.177387 -0.703264 -0.173226 -0.604696 -0.270186 0.023002 0.489314 -0.088209 0.082369 -0.465153 -0.234125 -0.683909 -0.100318 -0.325226 0.052563 0.059474 0.026760 -0.030219 0.083882 0.142066 -0.209524 -0.156469 0.026899 0.117648 0.075856 -0.495568 0.645757 0.142408 0.176474 -0.017970 -0.457949 -0.195219 0.026363 -0.039858 -0.061423 0.044529 0.398041 0.341566 0.446089 0.084206 -0.227331 0.117642
110 -0.227857 -0.036387 0.726940 0.502194 0.314281 -0.256007 -0.084784 -0.290432 0.575486 0.657899 -0.217574 -0.511416 0.305620 0.076002 -0.501154 0.058797 0.581777 0.459750 0.130786 0.058202 0.135593 -0.336835 -0.491255 -0.137951 -0.167943 -0.346479 0.211618 -0.176210 -0.453134 0.767357 -0.080830 -0.096745 0.151436 -0.069273 -0.480862 -0.512312 0.148383 0.249174 0.060310 0.070005 -0.151027 -0.213217 0.355235 -0.066195 -0.170345 0.220727 -0.177112 -0.047234 0.117115 -0.673746 0.535668 0.402866 0.009160 0.559802 -0.022949 -0.399477 -0.391782 -0.082583 0.350127 -0.784230 -0.221295 0.250752 0.135938 -0.188917 -0.057386 0.092950 -0.089239 -0.469575 -0.349583 -0.872488 0.247902 -0.272317 0.137801 0.406066 -0.116776 0.577464 -0.354392 0.134132 0.487637 -0.305103 0.072647 -0.262351 -0.453995 -0.347235 0.436777 -0.192880 0.337394 -0.199808 0.007625 -0.357297 0.071495 0.089986 0.700972 0.310736 -0.043418 0.215203 0.244518 -0.363901 -0.501239 -0.215210 0.101058 0.273145 0.153970 0.114963 0.216313 -0.150498 0.100497 -0.145991 -0.162526 0.052024 -0.240945 -0.248915 -0.174898 -0.218204 0.414422 0.165450 -0.562543 0.482759 0.333229 0.238094 -0.251002 -0.105051 0.462826 0.123322 0.141433 -0.497867 -0.340899 0.082079
193 -0.450454 0.022343 0.618736 0.266948 -0.293760 -0.069330 -0.087125 -0.494562 0.481523 0.248321 -0.637713 -0.103132 0.409714 -0.057669 -0.111761 0.088791 -0.113751 -0.054274 -0.355772 -0.021572 0.026880 0.564524 -0.241396 0.282405 0.171776 -0.635807 0.145979 -0.330697 0.209269 0.401405 -0.350261 -0.424158 0.049107 0.142721 -0.592695 -0.715862 0.197370 0.329625 -0.798557 0.402642 0.133017 -0.437339 -0.093598 -0.315673 -0.155992 0.119427 0.189243 0.139074 0.027979 -0.541315 -0.110402 -0.224958 0.567167 0.357380 0.262841 0.102937 -0.488423 -0.229634 -0.241782 -0.454777 0.121276 0.097113 0.061410 -0.505079 0.340458 -0.090906 -0.188288 -0.010986 -0.453777 -0.407181 0.065879 -0.192952 0.435558 -0.007631 -0.020862 0.155897 -0.797556 0.007112 0.021717 0.288142 -0.233389 -0.477506 0.586948 -0.245976 0.141790 0.291324 -0.322762 -0.195624 0.288039 -0.001997 0.031393 -0.200372 0.190975 0.152488 0.181261 0.331474 0.211940 0.211960 -0.218403 -0.191867 -0.038183 0.019404 0.098686 -0.514448 0.185871 -0.471911 0.107696 0.093295 -0.708453 0.072260 -0.019703 -0.141630 -0.141635 -0.152908 0.015674 -0.297313 -0.249666 0.262409 0.375412 0.122989 -0.713547 0.224808 -0.218137 0.229470 0.489763 0.440506 -0.281660 -0.144465
96 -0.517177 0.025035 0.722244 0.518656 0.387156 -0.281874 -0.121686 -0.215220 0.537358 0.325182 -0.419332 -0.345878 0.304933 0.161351 -0.577322 0.099650 0.223061 0.302373 -0.062981 -0.204069 0.412425 0.312984 -0.402079 -0.082999 0.141513 -0.512160 0.367569 -0.436754 -0.150561 0.700424 0.092405 -0.246656 0.392808 0.140980 -0.262316 -0.466927 -0.111568 0.195624 0.065847 -0.069123 -0.315791 -0.224018 0.709268 0.296131 0.030471 -0.063386 -0.315819 0.014888 0.023861 -0.177518 0.153449 0.452124 0.228987 0.107134 0.061061 0.159806 -0.217150 -0.340864 -0.045753 -0.615447 -0.099480 0.098039 0.130325 0.013755 0.243356 -0.108859 -0.227740 -0.377070 -0.249932 -0.458823 0.427503 -0.228480 -0.061711 0.343744 -0.362063 0.452768 -0.543472 0.345006 0.242646 0.115653 0.132895 -0.157387 -0.057932 0.404722 0.399835 -0.217941 0.093871 -0.064042 0.111527 -0.279991 0.258392 -0.358642 0.362731 -0.283404 -0.320982 0.338845 0.198768 -0.394671 -0.224407 -0.168602 0.054871 0.238503 -0.033580 0.164436 -0.041033 -0.081483 0.065006 -0.197852 -0.230649 0.179632 -0.243854 -0.319856 0.244637 -0.080523 0.562031 0.137189 -0.019599 0.423378 0.398420 0.197117 -0.417483 0.283533 0.362963 0.558662 0.188573 -0.288641 0.090450 -0.025954
1756 0.146595 0.185108 0.207762 0.481310 -0.338286 -0.203731 -0.027024 -0.863637 1.006860 -0.094371 0.011559 -0.644479 0.276135 0.112947 0.011510 0.597556 -0.290662 0.361425 -0.214717 0.067564 -0.174741 -0.430061 -0.099940 -0.198820 0.261104 0.415526 0.052357 -0.543417 -0.210028 0.194490 0.012688 0.180081 -0.324185 -0.505444 -0.248543 -0.035198 -0.102522 0.034199 -0.106195 0.967363 0.568495 -0.082414 0.525684 0.426479 -0.630565 -0.484342 -0.303875 0.023577 0.580019 -0.442042 0.443904 0.000188 0.361243 0.444853 0.111262 0.431053 -0.757553 0.132775 -0.244698 0.280299 0.229027 0.113933 -0.389006 -0.132790 -0.388578 -0.804287 -0.477787 -0.443524 -0.517069 0.070010 0.416624 -0.579088 0.152576 0.823698 -0.020259 -0.081443 -0.382794 0.433972 -0.041259 0.359748 0.473679 -0.629896 0.307511 -0.330769 0.457242 -0.139679 0.008092 -0.613211 0.492281 -0.111516 -0.072433 0.484062 -0.722692 -0.644695 -0.137030 0.257409 -0.117089 0.188939 0.045079 0.052373 0.211127 0.282242 -0.039253 0.158281 0.387762 0.358922 -0.437285 0.111796 -0.013515 -0.016974 0.044726 -0.331563 -0.035473 -0.197528 0.533857 -0.460837 -0.323319 0.118922 0.187712 0.025659 -0.384525 0.192280 -0.288912 0.359642 0.003862 -0.119675 -0.555351 0.596109
1467 0.060999 -0.257667 0.183316 -0.307712 -0.142216 -0.143122 0.269541 0.194589 0.108894 0.287872 -0.222165 -0.168654 0.149405 0.226659 -0.008178 -0.094477 -0.257304 0.630432 -0.220105 -0.151374 0.208881 0.312434 -0.108030 -0.349852 -0.030067 -0.267601 -0.190001 -0.177627 -0.220750 -0.067462 -0.185603 -0.366104 -0.060553 0.702617 -0.300568 -0.183833 -0.217777 -0.289059 -0.181596 0.538839 -0.359108 -0.618775 -0.257728 -0.108451 0.196963 -0.143224 0.600581 -0.158023 0.479132 -0.437826 0.292309 -0.198129 0.326689 -0.015119 0.103793 -0.025675 0.093111 -0.197478 -0.230031 -0.619441 -0.038362 0.030939 0.601082 -0.403007 -0.000619 0.064002 -0.350423 0.300926 -0.216165 -0.384697 -0.005135 -0.263045 -0.142800 0.634614 -0.172629 0.054004 -0.598808 0.154064 -0.146264 -0.005018 0.237867 -0.303522 0.123150 -0.149375 0.404432 -0.476857 -0.346242 -0.358369 0.166274 -0.038745 -0.216437 -0.088158 0.341038 -0.149917 0.070843 0.180883 -0.064224 0.059607 -0.495212 -0.546726 -0.206135 0.343267 0.267078 -0.248234 0.386068 0.362623 0.423378 0.689923 0.019898 0.362230 0.269730 -0.321652 -0.065334 -0.300726 -0.066001 0.028281 -0.231120 -0.425571 -0.196906 -0.067571 -0.543547 0.449824 -0.179640 0.273921 0.961410 0.018164 -0.555481 0.199148
2009 0.266752 0.453736 0.005297 0.581309 0.036915 0.245558 -0.212135 -0.236308 0.611541 -0.058054 0.029917 -0.286142 0.157735 0.001176 0.094664 -0.017266 0.019180 0.544363 -0.746493 0.570909 0.154927 -0.033531 -0.593420 -0.601371 -0.510412 0.007195 -0.760080 -1.189708 -0.779027 0.533580 0.069142 0.011090 -0.284956 -0.036759 0.139359 -0.282061 -0.125260 -0.210009 -0.468405 0.703572 0.421410 -0.244441 -0.007571 0.578680 -0.063328 -0.623222 -0.606564 -0.311762 0.189272 0.455650 0.557342 -0.117761 0.753209 -0.253921 0.490549 -0.301568 -0.656989 -0.109365 -0.219069 -0.216469 0.372829 -0.137082 -0.062951 0.049256 0.173466 -0.246855 -0.123395 0.079819 -0.115576 -0.340537 0.405591 -0.340177 0.053229 0.443028 -0.281926 -0.046494 -0.935404 -0.343038 -0.112756 0.317653 -0.225976 -0.025903 -0.148438 0.154321 0.464225 -0.828833 0.242290 0.208443 0.384105 -0.788842 -0.616259 0.067072 0.093805 -0.085289 0.311952 0.115488 -0.268002 0.186755 -0.837419 -0.406117 -0.275048 0.254977 0.040013 0.372560 0.240753 0.005684 -0.014473 0.080120 0.514569 0.303211 0.578989 0.180119 0.167119 -0.254275 -0.091890 0.323328 -1.050245 -0.030063 -0.265079 0.463229 -0.406665 0.413068 0.042005 0.097683 0.265204 -0.612388 -0.130499 0.797479
1389 0.024458 0.179394 0.439019 0.283972 -0.313607 -0.097281 0.242447 -0.256683 -0.032629 0.096746 0.214995 -0.037180 0.398418 -0.047354 -0.382038 0.058756 0.037321 -0.170940 -0.080375 0.310027 0.292647 0.249069 -0.196063 -0.162281 0.211875 -0.561476 0.066402 -0.317630 0.233846 0.488146 -0.385429 -0.682165 0.555375 0.177184 -0.265551 0.012679 0.341242 0.223565 -0.315296 0.325898 0.096936 -0.098979 0.194899 -0.227828 -0.290340 -0.643103 0.128959 0.194891 0.228094 0.099962 0.109171 0.274782 0.543339 -0.063977 0.005240 0.244594 0.072863 0.081633 0.216672 -0.326551 -0.289194 -0.052909 -0.199833 -0.383154 0.436026 -0.450679 -0.143358 0.504949 -0.527581 -0.161671 -0.067340 -0.180765 0.336421 0.119503 -0.197455 0.145187 -0.382970 0.336943 0.005014 0.026455 0.145464 -0.749852 0.321586 -0.270148 0.032602 -0.384664 0.100022 -0.430175 0.690902 0.040876 -0.218002 -0.045991 -0.313213 0.081003 0.315896 -0.158947 0.219001 -0.432308 -0.389218 -0.506849 -0.183857 -0.260931 -0.467703 0.628339 0.251748 -0.056217 0.165652 0.138804 0.069550 0.175926 0.286565 0.181345 -0.494875 -0.124341 0.210303 -0.521312 -0.553410 0.474435 0.370192 -0.003590 -0.480566 0.379686 -0.023745 -0.101021 0.787459 0.061175 -0.113415 -0.238213
1819 0.777593 0.225801 0.158784 0.261893 -0.150827 -0.322417 -0.192815 0.084345 0.197256 0.443379 -0.217895 -0.100014 -0.069324 0.299087 0.289207 0.431008 -0.432102 -0.106269 -0.484238 0.052618 -0.145458 0.394297 -0.014107 0.103631 -0.695607 0.135064 -0.046827 -0.734651 -0.623741 0.009072 0.252442 -0.158542 0.099194 -0.212123 -0.431098 -0.326416 -0.216281 -0.112876 -0.656682 0.685346 -0.139995 -0.696758 0.234159 0.180122 0.053229 -0.049592 -0.072841 -0.161716 0.722612 -0.407683 0.047678 -0.254381 0.467411 0.030967 0.690700 -0.471751 0.252564 0.536814 0.287797 -0.673660 0.482222 -0.620761 0.053884 -0.197739 -0.391208 -0.183776 -0.030952 0.028425 -0.008150 -0.181297 0.507683 -0.166661 0.325169 0.360935 -0.291368 0.429497 -0.264455 -0.412098 0.279899 0.347695 0.052302 -1.175364 0.031072 -0.552356 0.290177 -0.533449 -0.255144 -0.113960 0.348643 -0.294856 -0.719417 0.675607 -0.204510 -0.093922 0.172554 0.236260 -1.094438 0.096920 -0.505921 0.397984 -0.004123 0.083783 0.639844 0.112919 0.296761 0.319657 -0.562371 -0.113602 -0.407226 0.711979 0.563976 -0.456435 0.165237 -0.490685 -0.121462 0.226863 -1.005372 0.315261 0.029404 0.386722 -0.132363 0.391794 0.274188 0.112060 0.212337 -0.121097 -0.835637 0.501397
568 -0.403232 -0.004258 0.132596 -0.199832 0.015329 0.350116 0.032935 0.188083 0.151006 0.737312 0.655620 -0.267418 -0.076291 0.390398 0.250472 -0.023571 -0.692295 -0.346150 -0.331680 0.210241 0.325951 0.023491 -0.361705 0.146674 -0.390247 0.293123 -0.255513 -0.652805 0.010378 -0.169139 -0.339670 -0.413012 -0.227125 0.133216 0.240126 -0.217711 -0.112907 -0.189090 0.073368 0.199945 -0.121968 0.189339 0.270515 -0.031278 -0.391193 -0.297312 0.030313 0.099680 0.300855 -0.308168 0.381244 -0.374845 0.060289 -0.068097 0.164230 -0.308583 0.115612 0.269621 0.251906 -0.653583 -0.220593 -0.081535 0.116775 -0.315766 -0.397769 -0.906411 0.312160 0.165405 -0.128001 -0.301438 0.566890 -0.249480 -0.203017 -0.018332 0.008895 1.101393 0.059343 0.065586 -0.092657 0.512864 0.138860 -0.425173 0.075448 -0.129404 -0.022448 -0.012074 0.283269 -0.460510 0.378304 0.173036 -0.056754 0.407635 -0.085947 0.295828 0.351745 -0.232733 -0.051380 -0.433689 0.010124 -0.567875 0.199917 -0.004341 -0.018223 -0.056384 0.326371 0.139488 -0.666195 0.025314 0.476511 0.305108 0.276825 -0.372230 0.477807 0.085566 -0.147121 -0.180827 -0.426612 0.436295 0.052903 0.050522 -0.551913 0.368106 0.013244 0.097246 0.717262 0.064410 -0.375837 -0.273796
797 -0.234111 0.015874 0.147220 0.433082 0.203117 0.313536 -0.218253 0.234017 0.283138 -0.099800 0.095798 -0.534585 -0.012753 0.117978 -0.021026 -0.077935 -0.139715 0.277429 -0.116591 0.103621 0.283017 0.097784 -0.464624 -0.473555 0.113194 0.118685 0.222528 -0.493155 0.073363 -0.045979 -0.296211 -0.226563 0.029038 0.206315 -0.207767 -0.228374 0.220538 0.300684 0.329446 0.712243 0.114915 -0.128116 -0.080759 -0.296616 -0.689267 -0.188761 0.037374 -0.310512 0.069680 -0.031907 0.424311 -0.006382 0.086457 0.082526 -0.450665 0.289227 0.108965 -0.284216 -0.124908 -0.201097 -0.219299 0.218535 -0.576473 -0.583144 -0.319316 -0.116061 0.224896 0.335178 -0.151587 -0.733653 0.338013 0.267311 0.316137 0.165332 0.024222 0.331688 -0.263535 0.036544 0.119674 0.530616 0.393752 -0.489175 0.443611 -0.336078 -0.199719 0.248330 -0.438694 -0.328686 0.427681 -0.009281 -0.152461 0.392679 0.193777 -0.071811 0.555370 -0.167003 0.222726 -0.349645 0.025842 -0.359931 -0.055256 0.089216 -0.446529 0.218626 0.246865 0.110986 -0.112969 -0.298107 0.092449 -0.138647 0.367384 -0.125941 0.344950 -0.198466 0.002244 0.435171 -0.577369 -0.442107 0.067123 -0.178763 0.013655 0.097323 -0.162036 0.232682 0.607074 0.307356 -0.648311 -0.044322
1062 -0.021931 -0.669682 -0.106493 0.379806 -0.406951 0.317817 -0.133366 -0.369579 0.615620 0.850020 0.251105 0.152153 0.229343 0.286151 0.254508 -0.042474 -0.189327 0.310443 -0.133264 0.208719 0.565100 -0.035602 -0.005013 -0.233183 0.033741 0.127520 0.378885 -0.483576 0.028592 0.044808 -0.698212 -0.169358 -0.410131 0.371378 0.176650 0.082481 0.452451 0.313738 0.291621 0.103545 -0.087730 -0.367550 0.182981 0.194620 -0.509523 -0.098968 -0.094427 0.484367 0.481614 -0.077165 -0.332135 -0.468021 0.495667 0.182172 0.511866 0.090474 -0.143268 0.053074 0.060040 -0.043454 0.016542 -0.297763 0.161019 -0.208611 0.044729 -0.086932 -0.465930 -0.155886 -0.489050 -0.350131 0.639524 -0.002409 -0.089503 0.508194 0.103002 0.520148 -0.462586 -0.266259 -0.163252 0.057377 -0.362867 -0.740386 -0.055397 -0.613884 0.224996 -0.221074 -0.423819 -0.405208 -0.070329 -0.564078 -0.391840 0.727376 0.305916 -0.187839 -0.368553 0.383929 -0.485808 -0.309678 -0.131747 -0.235109 0.021641 -0.431479 0.288910 -0.073411 0.179452 -0.125270 -0.380652 -0.362950 -0.390303 0.461429 0.117565 0.078469 0.412595 -0.158570 -0.668173 0.685324 -0.806768 -0.342207 0.208731 0.165162 -1.050954 0.377839 -0.021061 -0.094203 0.068813 -0.456413 -0.687987 0.192284
1305 -0.183803 0.597258 -0.085113 0.450383 -0.577935 -0.381601 0.042137 -0.412749 0.270674 0.258509 0.117040 0.134144 0.065837 0.063908 -0.523345 0.164442 -0.310074 -0.032774 -0.323098 0.005488 0.093192 0.640812 -0.758723 0.068912 0.340656 0.580422 -0.178846 -0.714758 -0.228888 0.032489 -0.433900 -0.103713 0.534624 -0.087402 -0.602028 -0.088664 0.419826 0.558789 0.117389 0.376047 0.283335 -0.313958 0.369660 0.039122 -0.230458 -0.242282 0.010806 -0.053303 0.633332 0.004945 -0.285336 -0.221021 0.034239 -0.050952 0.025138 0.052993 -0.319842 0.107908 -0.047035 -0.205119 0.014615 -0.162792 -0.191358 -0.225645 -0.126180 0.197645 0.357868 0.545491 -0.244725 0.096059 0.158165 -0.224999 0.323111 0.901038 -0.067003 0.301983 -0.403789 0.466479 -0.231842 0.476286 -0.048440 -0.253938 -0.240609 -0.081802 0.105644 -0.537424 0.151735 -0.372971 0.745654 0.114287 -0.200335 -0.194555 0.283353 -0.427776 0.427053 0.068414 0.004351 -0.335431 0.021162 -0.729145 0.502972 -0.117793 0.156545 -0.000242 0.658112 0.227726 -0.449237 -0.148912 0.238071 0.674515 0.284134 -0.095038 0.039238 0.062620 0.224007 0.059596 -0.283045 0.516056 0.169111 -0.056730 -0.709592 0.524149 -0.141725 -0.058048 0.427245 -0.014753 -0.711469 0.372278
216 0.315388 -0.183642 0.574424 0.658375 -0.051557 -0.104148 -0.045027 -0.415994 0.272932 0.347340 -0.642371 -0.614494 0.231044 -0.165695 -0.283016 -0.155283 0.306975 0.388544 0.212035 -0.030972 0.136216 0.250376 -0.279739 -0.106747 0.262781 -0.699246 0.038304 -0.314420 -0.170120 0.409969 -0.178537 -0.098826 0.103428 0.168056 -0.513861 -0.206902 -0.187656 -0.051828 -0.115821 0.390075 -0.182224 -0.150108 0.094334 -0.171214 0.526007 -0.041149 -0.017632 -0.018992 0.531681 -0.605687 0.524968 0.167605 0.334951 0.177302 0.223382 0.293829 -0.081145 -0.419554 0.031540 -0.349419 -0.000539 0.392363 0.341380 -0.410770 0.127658 -0.045842 -0.048160 0.169831 -0.290613 -0.617536 0.070357 -0.175071 -0.013311 0.120413 -0.332760 -0.039764 -0.425427 0.007123 -0.090704 -0.052863 0.364125 -0.097559 0.147849 0.032407 0.174311 -0.297046 -0.297419 -0.464292 0.391404 -0.005458 -0.009082 -0.107776 0.645724 0.003780 0.089941 0.446069 0.007288 0.300139 -0.327305 -0.586436 0.064999 0.456933 -0.095047 -0.024439 0.138917 -0.086514 -0.203843 0.211146 -0.104846 -0.076636 -0.325458 -0.116934 -0.022537 0.105753 0.357930 -0.127606 -0.004540 -0.171201 -0.104978 0.265399 -0.741017 -0.126084 0.136666 0.309875 0.327294 0.038045 -0.585757 -0.056215
658 0.736982 -0.000289 -0.130947 0.122569 -0.013890 -0.028178 -0.013256 -0.059685 0.081841 0.453862 0.152910 0.058458 0.200460 0.504260 0.304011 0.106109 -0.290094 0.196563 -0.380633 0.241410 -0.107433 0.403009 0.047925 -0.099684 -0.860591 0.238100 -0.463708 -0.472973 -0.592083 -0.002228 0.346516 -0.409723 0.117470 0.334686 -0.126099 0.105553 -0.223084 -0.218084 -0.455982 0.533514 -0.042193 -0.240091 -0.125091 -0.085396 0.192998 -0.281111 0.059358 0.279495 0.641474 -0.508259 0.083160 -0.042912 0.425532 -0.314787 0.696476 -0.119934 0.052710 0.224102 0.135566 -0.469043 -0.121096 -0.289199 0.323595 0.098334 -0.139661 -0.116656 0.000167 0.487798 -0.057161 0.080550 0.319318 0.096639 0.057410 0.046540 -0.334895 0.292693 -0.368125 -0.161182 -0.170537 0.597815 0.338879 -0.547715 -0.055116 -0.556133 0.448063 -0.714831 -0.490417 -0.310464 0.155222 0.036933 -0.723339 0.293055 -0.020085 0.405946 -0.211751 0.029980 -0.526805 -0.067424 -0.195521 0.074766 -0.142032 0.156383 0.141581 -0.039302 0.254991 0.334069 -0.376217 0.248418 0.061527 0.511458 0.597891 -0.547463 -0.091300 -0.383386 0.016359 0.408885 -0.575776 0.129937 -0.125569 0.500742 -0.166620 0.465696 -0.041425 0.511823 0.552276 -0.120615 -0.694068 0.413328
1719 0.071500 -0.046639 0.453527 0.333966 -0.323455 0.428557 0.046183 0.153527 0.718721 0.405865 0.528863 -0.039502 0.019996 0.106704 0.162182 -0.171199 0.204224 0.619554 -0.509095 -0.100073 0.744762 0.033046 -0.207479 -0.052152 -0.139579 0.600431 0.143441 -0.428370 -0.087260 0.415709 -0.378832 0.079486 -0.307708 0.024001 0.400753 0.263187 0.344961 0.415846 0.200012 0.519660 -0.093070 -0.438798 -0.018524 0.194169 -0.988217 -0.020230 -0.417471 0.718723 0.471458 0.116596 -0.188255 -0.291851 0.846727 0.503499 0.254993 0.161524 -0.525173 0.362090 -0.295257 0.087035 -0.172441 -0.210478 -0.039870 -0.290997 -0.146086 -0.357692 -0.202657 -0.351819 -0.396961 -0.623069 0.803544 -0.142077 0.349835 0.456381 0.069665 0.303829 -0.301062 -0.320891 -0.061339 -0.121489 -0.428301 -0.246698 0.233777 -0.229632 0.373497 -0.266143 -0.106209 -0.488808 -0.011338 -0.630045 -0.465587 0.229605 0.040516 -0.159736 -0.597049 0.450591 -0.052464 -0.258952 -0.308472 -0.480224 -0.432636 -0.403930 0.183387 -0.159652 0.381259 -0.228156 -0.491159 -0.299483 -0.393968 0.375497 0.350528 0.010344 -0.023449 0.074008 -0.489755 0.459128 -0.882212 -0.040218 0.040628 0.197412 -0.667693 0.646171 -0.225961 -0.047559 -0.250645 -0.285189 -0.737553 0.296957
66 0.207897 0.201398 -0.075823 0.083608 0.063738 0.422066 0.172752 -0.283712 0.313663 -0.147101 0.379232 -0.046445 -0.211667 -0.025677 -0.300225 0.590619 0.109434 0.393680 -0.242396 -0.041177 0.429590 0.186970 -0.111815 -0.404343 0.213730 -0.208670 0.112993 -0.538984 -0.164423 0.710469 0.354773 -0.281296 -0.232772 -0.246620 0.104072 0.097060 -0.151889 0.436048 -0.050597 0.085522 0.126520 0.182223 0.312499 -0.234499 -0.165940 0.148292 -0.621508 -0.194634 0.068255 -0.163002 0.249846 0.161131 -0.082378 0.254842 -0.017763 -0.235102 0.159276 -0.110326 0.647111 -0.556147 -0.109701 0.371630 0.180621 0.202734 -0.312829 -0.511971 -0.052077 -0.141270 -0.402022 -0.445923 0.294865 -0.417939 0.129211 0.084145 0.064465 0.392827 -0.097431 0.187462 -0.358800 0.020881 -0.044800 -0.380970 -0.584042 -0.242476 0.487306 -0.177320 -0.270434 -0.404130 0.108909 0.062679 -0.209371 0.594443 0.141715 0.572226 -0.175562 -0.350045 0.254852 -0.152540 0.476582 -0.021611 0.021067 -0.071790 -0.035944 0.272763 -0.288314 0.296446 -0.210069 -0.484252 0.069552 0.434660 0.087328 -0.097289 0.270556 -0.082011 0.720804 0.145374 -0.422113 0.324626 0.204060 0.593991 -0.024644 0.424556 0.508144 0.060853 0.369633 0.114700 -0.357971 -0.088511
192 -0.207307 0.369339 0.199339 0.255180 -0.100120 -0.024354 0.120404 -0.638147 0.278358 0.195011 -0.152176 -0.380999 0.728307 -0.127807 -0.340504 0.219558 -0.114506 -0.029640 -0.187697 -0.094726 0.304037 -0.116973 -0.248840 -0.343861 0.356494 -0.669802 0.450713 -0.288115 -0.002667 0.468672 -0.466428 -0.735451 -0.158409 -0.322187 -0.291274 -0.442427 -0.012649 0.084984 -0.323655 0.147869 0.277415 -0.050706 -0.007338 -0.057775 -0.203975 -0.297051 -0.104852 0.217405 -0.178275 -0.291288 0.030828 -0.258527 0.012286 0.563468 0.006211 0.217946 -0.347558 -0.178487 -0.487214 -0.596746 -0.069084 0.334921 -0.021625 -0.719358 0.103617 -0.271017 -0.139713 -0.332441 -0.167985 -0.394394 -0.389308 -0.431449 0.231430 0.454219 -0.324644 0.363160 -0.104968 0.195395 0.397745 0.420434 0.072562 -0.092927 -0.002096 0.381529 0.247998 0.158271 -0.245485 -0.594176 -0.178467 0.039455 -0.212636 -0.122088 0.074538 0.316598 -0.234011 0.003921 0.192693 0.165258 -0.503276 0.209853 0.169917 -0.070598 0.189157 0.032468 -0.130888 -0.022761 -0.207341 -0.195134 -0.190625 0.104787 -0.144369 -0.051150 -0.073359 -0.455892 0.426329 -0.146378 -0.085855 0.292771 0.008337 -0.364394 -0.320577 0.620407 -0.010657 0.059401 0.450200 0.650804 -0.551083 -0.109052
1563 -0.182232 0.154730 -0.385837 0.054693 -0.117988 0.575566 -0.010040 -0.262485 -0.166253 0.300053 0.301011 -0.457045 0.245206 0.502929 0.170818 0.080421 -0.090893 -0.092296 -0.014305 -0.001563 0.479526 0.156746 -0.101606 -0.035307 -0.119657 0.101044 -0.001680 -0.205351 0.323714 -0.057282 -0.362466 -0.370490 -0.061705 0.557751 0.326576 0.457446 0.045786 0.261531 0.155934 0.478335 0.192493 -0.460884 0.163195 -0.437660 -0.278812 -0.344033 0.149054 -0.012322 0.540632 -0.641541 0.525831 0.309377 -0.085209 0.014651 -0.088261 -0.377874 -0.554622 0.032443 -0.482930 -0.221373 -0.302083 -0.010396 -0.216870 -0.165112 -0.021056 0.029975 0.044067 0.260125 0.187441 -0.070193 0.217846 0.205748 -0.061171 0.161277 0.206422 0.778769 -0.483021 0.196044 0.523541 0.542548 0.296454 -0.302279 0.099438 -0.255969 0.085318 0.084988 0.285947 -0.582774 0.240590 0.054111 -0.581911 -0.274931 0.292371 -0.297802 0.148187 -0.372417 0.408765 -0.319971 -0.102598 -0.394017 -0.025981 -0.305809 0.203211 0.294330 0.054199 0.043100 -0.500471 0.125798 0.072441 0.355283 0.721896 -0.236561 0.501223 0.157685 0.216190 0.243728 -0.527534 0.028974 -0.003074 -0.022613 -0.264915 0.150922 0.319603 0.004733 0.657373 0.043300 -0.281168 -0.020083
1959 -0.051987 0.241373 0.009304 0.342515 0.371374 -0.032187 -0.254563 -0.615501 0.693998 -0.109960 -0.050353 -0.672069 -0.021440 -0.118843 -0.150622 0.207839 -0.111164 0.451683 -0.196883 0.042351 0.121418 0.140404 -0.443163 -0.044716 -0.195955 -0.242954 0.377428 -0.252904 -0.108376 0.728199 -0.550650 -0.504531 -0.154714 0.089580 -0.034088 -0.254528 -0.120926 0.211443 -0.139823 -0.024430 0.113465 -0.118323 0.293704 0.204194 -0.030181 -0.036874 -0.504972 0.050130 -0.361962 0.014862 0.245385 -0.286959 -0.162596 0.462033 -0.053825 0.058446 -0.210782 -0.188529 0.338899 -0.658272 -0.193336 0.587910 0.206454 -0.402219 0.174578 -0.627143 -0.296823 -0.233461 -0.085393 -0.216666 -0.348139 -0.037137 0.320127 0.748151 -0.293640 0.165787 -0.591757 0.101761 0.022539 0.366552 0.172960 -0.532607 -0.095940 0.561418 0.130939 0.273788 -0.213490 -0.060744 0.185127 -0.339279 -0.222477 -0.275255 -0.264365 0.397132 -0.088179 -0.576209 0.083103 0.185795 -0.608238 0.372595 0.009399 0.002296 -0.045434 0.371272 -0.032859 -0.221093 -0.093887 -0.246576 0.324958 0.451746 -0.151026 0.034935 -0.186826 -0.107627 0.429361 -0.075108 -0.261890 0.422458 0.382717 0.116982 -0.257251 0.180631 -0.020100 -0.171280 0.771389 -0.089170 -0.174693 0.196704
860 -0.173836 -0.147114 -0.101853 0.436178 -0.194587 0.475701 0.266246 -0.635055 0.434737 0.274925 0.077264 -0.245276 0.640392 0.121693 -0.041357 -0.027609 -0.009977 0.132936 -0.099454 0.004484 0.092803 0.038682 -0.180704 -0.010917 0.182246 -0.169983 -0.253609 0.073874 -0.050297 0.163410 0.093770 -0.368650 -0.410132 -0.001560 -0.301042 -0.286701 -0.166341 0.210828 -0.288594 0.318248 0.055617 -0.449908 -0.011206 -0.187547 -0.180848 -0.444019 -0.084037 0.013147 0.183224 -0.211992 0.023439 -0.227363 0.412066 0.109832 0.220949 0.362068 -0.148312 -0.540757 -0.396140 -0.112145 -0.098576 0.223686 0.089357 -0.481627 0.245026 -0.444830 0.022433 -0.257768 -0.047947 -0.357194 0.002868 0.127618 0.322921 0.107986 0.082114 0.113288 -0.570090 0.319942 0.169301 0.559773 -0.091735 0.056294 0.260171 0.062597 0.027092 -0.073502 -0.258904 -0.426132 0.086627 0.051076 -0.385313 0.460602 0.297634 0.243784 -0.048454 0.313070 0.131175 0.077096 -0.172734 -0.290628 0.103064 -0.278696 0.113761 -0.158239 0.178923 -0.349820 0.311356 -0.370309 -0.180798 -0.191450 0.246711 -0.183989 0.012445 -0.449356 -0.224105 0.075664 0.298617 0.108524 0.108150 -0.385278 -0.327480 0.642966 0.173262 0.208836 0.188093 0.409700 -0.137921 -0.365080
86 0.051628 0.017274 0.042494 0.332126 0.169589 -0.051529 -0.003995 -0.310413 0.353305 0.147944 -0.171653 -0.451001 0.623226 -0.096234 0.243311 0.337015 0.508925 0.405965 -0.541442 0.031324 0.480917 0.005324 -0.521045 -0.082154 -0.405849 -0.395284 0.406623 -0.608885 -0.081524 0.305192 0.154878 -0.347445 0.246634 0.052105 0.132858 -0.520166 -0.130586 0.285911 0.228581 -0.297382 0.004505 -0.600026 0.674851 -0.039392 -0.242700 0.107523 -0.267266 -0.278246 -0.028081 0.110718 0.342653 0.015334 -0.061945 0.313927 -0.046159 0.306844 -0.389809 -0.201691 0.002352 -0.249061 0.033047 0.643038 0.185458 -0.281428 0.046530 -0.175274 -0.407412 0.043526 -0.187282 -0.401604 0.166415 -0.144046 0.198524 0.440874 -0.475988 0.223663 -0.632033 0.292471 0.105743 0.188724 -0.151907 -0.222743 -0.455197 -0.076473 0.536432 -0.238788 0.292443 -0.108379 0.148342 -0.418731 -0.211530 -0.245899 0.615226 0.511202 -0.042305 -0.294930 0.136083 -0.250650 -0.148983 0.209190 0.287018 0.364877 -0.379334 0.247249 0.086626 0.028617 -0.166984 0.084900 0.143400 0.763468 0.227325 -0.489639 0.174795 -0.575340 0.068714 -0.210167 -0.522341 0.518937 0.231823 0.009572 0.026840 -0.261238 0.143667 0.475685 0.069248 -0.239685 -0.091932 -0.447875
1223 -0.358757 0.161389 0.298468 0.869037 -0.095825 0.365096 0.016785 0.365600 0.081195 -0.086659 -0.014195 -0.502144 -0.151975 -0.145183 0.226365 -0.011418 -0.126605 0.617417 -0.229427 0.150828 0.559184 0.444776 -0.816292 0.110432 0.019445 0.165552 -0.223866 -0.389840 -0.155706 0.231290 0.263355 -0.043499 -0.156180 -0.044498 -0.467019 -0.046679 0.088610 0.090763 0.430942 0.757661 0.257308 -0.314902 -0.266111 -0.340038 0.357342 -0.293895 -0.037657 -0.120052 0.813385 -0.580359 0.172914 0.046562 0.514670 0.298156 0.344388 -0.251282 0.316085 0.278197 -0.358610 -0.636204 -0.265558 -0.059648 -0.503242 -0.546489 0.205174 -0.223751 0.167983 0.387366 -0.498070 -0.308585 0.246751 -0.208047 0.443408 0.582850 0.289999 0.353182 -0.063631 0.106343 0.317202 0.395841 -0.039075 -0.486674 0.009924 0.019538 -0.132183 -0.099461 -0.241122 -0.335176 0.577122 0.288863 0.212083 -0.415154 0.454400 -0.134381 0.234518 -0.257773 -0.493318 -0.091680 0.168479 -0.009574 0.050323 -0.016272 -0.056710 -0.077127 0.750329 0.129057 -0.131251 0.029162 0.262705 0.588479 0.179630 -0.012909 0.084017 -0.290293 -0.140999 0.335389 -0.629583 -0.085925 -0.818742 0.134371 -0.302524 0.082772 0.401714 -0.042782 0.645638 0.408305 0.026635 0.439491
1403 0.798196 -0.139275 -0.188163 0.479248 -0.058082 0.154212 0.079661 -0.131596 0.445058 0.489805 0.305254 -0.421765 -0.049601 0.212257 0.284326 -0.146632 -0.000658 0.600280 -0.165759 0.169082 -0.007869 0.237370 -0.301679 -0.392653 -0.691557 0.048871 -0.541463 -0.524362 -1.014171 0.173077 -0.002586 -0.051725 -0.302689 0.252328 -0.381862 0.055098 -0.040139 -0.208711 -0.330644 0.341349 0.005187 -0.417299 -0.075488 0.159041 0.261260 -0.262264 -0.216968 0.054682 0.451754 -0.071401 -0.036268 -0.152824 0.414234 -0.151067 0.578137 0.161126 0.146167 -0.044495 0.051322 -0.530269 0.336510 -0.421818 0.246186 -0.217742 0.047471 -0.146447 -0.027137 0.284304 -0.109286 -0.164052 0.273851 0.015718 0.056111 0.216501 -0.151673 -0.072620 -0.618506 -0.053930 -0.226118 0.402296 0.228056 0.160145 -0.074784 -0.140668 -0.115232 -0.569122 -0.228652 -0.218449 -0.114311 -0.553538 -0.716212 0.265248 0.057766 0.375479 -0.183310 0.310403 -0.606492 -0.150146 -0.378172 -0.216175 -0.008893 0.147179 0.040746 -0.036377 0.720264 0.397086 -0.260952 0.106433 0.294992 0.212083 0.652414 -0.122979 0.124055 -0.334427 -0.110909 0.354316 -0.502408 0.106610 -0.258632 0.242324 -0.450023 0.158371 -0.416390 0.529350 0.595958 -0.536105 -0.453869 0.655360
512 -0.186191 0.113926 -0.222764 0.191926 -0.044497 0.055284 0.063468 0.031425 0.539629 0.075408 0.539275 -0.174459 -0.225689 -0.170830 0.255160 -0.060281 -0.302748 0.108172 -0.329153 0.471658 0.028227 0.116707 -0.175866 0.110740 -0.331182 0.112295 -0.045934 -0.440454 0.465677 0.165732 -0.390025 -0.447853 0.273680 -0.281078 -0.038400 0.325187 -0.280745 0.196387 -0.223757 0.454494 0.383537 -0.005111 0.066824 -0.096612 -0.179679 -0.381779 0.395372 -0.105400 0.039103 0.059291 0.340069 -0.209372 0.055424 0.234431 0.302226 -0.255726 0.006397 0.267496 0.502452 -0.763150 -0.256805 -0.201434 0.126183 -0.795859 -0.003420 -0.467200 0.070619 0.358174 -0.385065 -0.101075 -0.037574 0.115853 -0.146045 0.064098 -0.188628 0.393203 -0.431750 0.561112 -0.265232 0.652961 0.063684 -0.758111 0.201672 -0.073814 -0.093771 -0.005621 -0.287773 -0.278652 0.744027 -0.055139 -0.370756 0.271264 -0.317324 0.143869 0.027567 -0.514900 0.028517 0.020666 -0.185650 0.183673 0.028178 -0.409705 -0.289157 0.328861 0.154883 -0.059643 -0.441103 0.544965 0.208913 0.111263 0.194338 0.012168 0.138833 -0.267821 0.502609 -0.168521 -0.640691 0.289184 0.128957 0.329561 -0.507443 0.283542 -0.007210 0.125993 0.878741 -0.091880 0.048908 -0.011244
1891 -0.204981 0.359107 -0.609184 0.072869 0.100873 0.494717 0.102105 -0.401734 0.257725 -0.060673 0.349429 -0.279453 -0.051953 0.870595 0.254640 0.325476 0.186396 0.050137 0.035305 -0.081686 0.558799 0.073769 -0.621831 -0.060303 0.219222 0.312220 -0.129035 -0.102419 0.047615 -0.106548 -0.207274 -0.299678 -0.280777 -0.163526 -0.049481 0.110028 -0.148166 -0.349254 -0.376472 0.381222 0.290228 -0.347203 -0.010802 -0.067194 -0.605472 -0.414210 -0.025174 -0.100049 0.405510 -0.176589 0.011463 -0.064498 0.301449 -0.143698 0.259976 -0.245452 -0.171811 -0.106322 -0.017271 -0.566721 0.001085 0.208781 0.087468 -0.177222 -0.268155 -0.726979 0.120686 -0.165894 -0.121192 -0.322232 0.024597 -0.517084 0.138773 0.976103 -0.510983 0.535610 -0.337466 0.382805 0.021559 0.326689 0.328086 -0.834498 0.173376 -0.139273 0.114238 0.013235 0.658027 -0.531350 -0.096578 0.007143 -0.135232 0.288941 0.232005 0.032219 0.428265 -0.254649 0.605709 -0.827568 -0.099509 -0.114775 -0.074002 -0.069630 0.109974 0.000533 0.272829 -0.135836 0.119001 -0.116512 0.267069 0.247651 0.572319 -0.331378 0.042304 0.425070 -0.020948 -0.608552 -0.049128 0.159916 -0.222731 -0.047451 -0.211477 0.510633 0.199300 0.599093 0.497734 -0.155138 -0.397969 -0.291719
1071 0.190200 -0.454593 -0.226756 0.065802 -0.220571 0.146012 0.370787 -0.415300 0.442094 0.570817 -0.204845 -0.060187 -0.378809 0.171988 0.474470 0.068552 -0.374527 0.180044 -0.034175 -0.037640 0.352426 0.086610 0.201979 -0.031462 -0.111161 0.263530 0.046955 -0.443091 0.139382 -0.135174 -0.544692 -0.024531 -0.342446 -0.058889 0.089998 0.040573 0.280183 0.142712 -0.125083 0.390665 -0.100123 -0.113849 0.097523 0.020288 -0.412533 -0.204809 0.340849 0.462749 0.355147 -0.388531 -0.080668 -0.069287 0.172182 0.137197 0.743193 -0.469441 -0.021811 0.154166 -0.432551 -0.631499 -0.323942 0.027917 0.114074 -0.069641 0.250888 -0.254935 -0.465591 0.500958 -0.350050 -0.419396 0.425722 -0.032049 -0.187465 0.446984 0.389057 0.720633 -0.351255 0.044020 0.121294 0.566790 -0.377337 -0.432685 0.088922 -0.666038 0.791798 -0.281126 -0.550601 -0.238585 0.114379 -0.044240 0.081433 0.290136 -0.260202 0.040007 -0.537742 -0.004621 -0.587660 -0.315361 -0.183600 0.178710 -0.028419 0.011965 0.376325 -0.121793 0.386572 -0.179295 -0.028983 0.016113 -0.267241 0.461240 -0.174873 0.080150 0.262783 -0.047952 -0.555776 0.264312 -0.497329 -0.257073 -0.178141 0.109666 -0.783812 0.678239 -0.100734 -0.403872 0.207586 -0.252942 -0.439870 0.166251
