621 128
125 0.326882 -0.170985 0.075510 -0.002562 0.242657 -0.133811 -0.024350 0.116363 0.009179 -0.057085 -0.001792 0.177499 0.125176 0.110621 -0.053884 0.073440 -0.214037 -0.059109 -0.034565 -0.089830 0.071522 0.087528 0.064112 0.037488 0.241726 0.065616 -0.039194 0.332784 -0.017503 -0.324416 -0.100572 0.185887 -0.206488 -0.331716 0.016402 -0.017360 0.098804 0.170294 -0.102831 0.063506 -0.006085 0.131942 -0.120781 -0.134681 -0.284484 0.019099 0.043795 -0.407495 -0.290061 -0.009225 -0.022828 -0.168555 -0.001083 0.131104 0.028087 -0.014689 0.027533 -0.051709 0.390411 0.137409 -0.216772 0.036549 -0.091635 -0.137192 0.038495 0.138738 0.250465 0.378326 0.032411 -0.117921 -0.333337 -0.016783 0.089340 -0.049893 -0.106368 0.014999 -0.061701 0.058478 0.011219 -0.084104 0.044477 -0.151654 0.362005 0.163764 -0.128251 0.045901 0.036916 -0.249557 0.064503 -0.048772 -0.051076 -0.148320 0.450857 0.189341 0.002610 0.198752 0.136309 -0.023324 -0.156586 0.333290 0.227318 0.059858 -0.035489 -0.065341 0.016687 -0.230432 0.107976 -0.275711 0.039442 0.061221 0.018410 0.118086 0.063979 0.092695 0.133513 0.028719 -0.177865 -0.314358 0.145520 0.165649 -0.581897 0.254167 0.095771 0.360831 -0.500917 -0.138634 0.082766 0.022226
281 0.175589 -0.348250 -0.191346 0.345443 0.187660 0.062178 -0.041429 0.057949 -0.280062 -0.365013 -0.040926 -0.117215 0.240781 -0.211472 0.106636 -0.109178 -0.002813 -0.239544 0.072475 -0.160807 0.030556 0.043199 -0.074474 0.238470 0.147609 0.203661 -0.211260 0.039272 0.236044 -0.061787 -0.004806 -0.111765 -0.031976 0.278469 0.130665 0.319631 0.048873 0.295566 0.016458 -0.040674 -0.353089 -0.174882 -0.039743 0.140089 -0.266423 0.056581 -0.175842 0.033743 -0.231986 0.060710 -0.027980 0.116082 0.272266 -0.001010 -0.098489 0.004511 -0.147979 -0.071463 0.174358 0.258344 -0.088113 -0.156265 -0.287990 -0.174647 0.079614 0.094904 0.350618 0.103147 -0.207572 0.108383 -0.014312 -0.095441 -0.104726 -0.090006 -0.133319 -0.023062 0.105589 0.149506 -0.162006 0.049895 -0.128291 0.087926 0.039733 0.081494 0.103749 0.224772 -0.267625 0.016631 -0.379839 0.331886 0.268133 -0.034911 0.155069 0.146466 0.184650 0.252760 -0.088636 0.323621 -0.331541 0.056634 0.221158 -0.172022 0.203278 0.286573 -0.094923 -0.147702 -0.162470 -0.513094 -0.050136 -0.054836 0.145842 0.062430 0.022174 -0.074299 -0.030667 -0.011951 0.308142 -0.047606 -0.110238 0.091896 0.066225 -0.228311 -0.190672 0.004506 -0.189121 -0.103215 -0.126854 -0.010705
459 0.201575 -0.292803 -0.353954 0.145456 0.213869 0.058115 -0.239026 0.150607 -0.044807 -0.273376 0.146556 -0.180965 0.032178 0.087019 0.170777 -0.089654 -0.073385 -0.318768 0.040631 -0.103465 0.014966 0.098383 -0.065817 0.447522 0.324901 0.112346 -0.075083 0.047091 -0.045749 0.007818 0.135162 -0.143023 0.054135 0.151460 -0.019337 0.204649 0.134834 0.177910 0.070377 -0.022071 -0.242590 0.013193 -0.105165 0.027477 -0.221224 0.017029 -0.107680 -0.080369 -0.216580 0.063040 -0.035397 0.425726 0.207448 -0.040335 -0.089210 -0.038343 0.009348 0.020608 0.054192 0.205292 -0.271129 -0.157689 -0.061374 -0.311572 0.015634 0.273949 0.389963 0.151739 -0.237575 0.040251 0.003614 0.265353 0.007992 -0.021192 -0.073342 -0.134848 0.222706 0.137194 -0.128009 -0.008214 0.107643 0.052272 -0.137091 -0.010738 0.094439 0.185646 -0.321784 -0.213737 -0.129088 0.261481 0.199735 0.142976 0.138832 0.148305 0.142712 0.095099 -0.182559 0.211999 -0.203758 0.050283 0.099531 -0.083274 0.060850 0.216708 -0.007470 -0.079372 -0.050746 -0.241127 -0.058407 0.000702 0.101362 0.059240 0.109415 0.095334 0.229547 0.024417 0.193743 -0.170256 -0.055892 0.058543 0.069563 -0.249886 -0.250513 -0.118520 -0.158247 -0.167892 -0.139999 0.056030
447 0.333752 -0.263912 -0.311948 0.286064 0.102330 -0.013309 -0.085538 0.108329 -0.312871 -0.281987 0.190264 -0.002271 0.039826 0.047543 0.086495 -0.017696 0.061213 -0.232773 0.054088 -0.086386 0.097412 0.030060 -0.206475 0.440610 0.350226 0.227642 -0.189768 0.024089 0.021301 -0.041135 0.085380 -0.248084 0.027768 0.129702 0.017405 0.266514 0.187601 0.146856 0.023112 -0.019162 -0.332376 -0.048227 0.056340 0.128315 -0.398441 0.190030 -0.107852 -0.004338 -0.188719 0.076105 0.021370 0.209769 0.143475 0.001752 -0.100327 0.053703 -0.065080 -0.062650 -0.058155 0.355217 -0.291485 -0.103512 -0.006452 -0.347460 0.101890 0.175405 0.347037 0.134724 -0.295142 -0.073908 0.072169 0.017596 -0.006068 -0.094686 0.019336 -0.120369 0.096991 0.050573 -0.062695 0.071183 -0.061518 0.233192 0.004573 -0.100661 0.010482 0.234159 -0.219318 -0.215228 -0.108036 0.158168 0.283820 0.197587 0.027935 0.268880 0.112929 0.061852 -0.125776 0.229542 -0.269840 -0.066255 0.156504 -0.099923 0.071385 0.193043 0.031490 -0.212073 0.066181 -0.269151 -0.107225 0.046591 0.094289 0.079821 -0.015291 0.013214 -0.055643 0.087180 0.208139 -0.150194 -0.064819 0.250051 0.118307 -0.096316 -0.170717 -0.010448 -0.107997 -0.030600 0.059914 -0.116031
531 0.246152 0.141864 0.134675 -0.153914 0.238049 -0.143257 0.237643 0.058891 -0.061566 0.277429 -0.051133 0.071588 -0.044343 -0.154934 -0.098534 -0.367421 -0.029634 0.137277 0.025059 -0.146336 0.102988 0.148692 -0.235145 0.226157 0.239274 0.165361 -0.068037 0.313424 -0.083657 0.183180 -0.078178 0.247968 -0.039751 -0.072473 -0.110184 0.168962 0.309956 0.144289 0.044875 0.349683 0.065451 0.157127 0.319446 -0.204341 -0.376623 -0.143177 0.107116 -0.307047 -0.073445 0.155470 -0.101530 -0.443893 -0.111267 0.205736 -0.115511 0.222194 0.093955 -0.026380 0.232793 0.098318 -0.514186 -0.135665 -0.057435 -0.168513 0.339898 0.064913 0.180205 0.237821 0.273331 0.041281 -0.485209 0.028843 0.022073 0.096767 -0.187301 0.229673 -0.299670 0.040555 -0.113049 -0.298107 0.144301 -0.138099 0.242499 0.399572 -0.022377 -0.122722 -0.285599 -0.208302 0.247250 0.152939 0.086343 -0.052089 0.523155 -0.028051 -0.025474 0.335111 -0.096648 -0.101418 -0.453503 0.159458 0.429436 0.148339 0.003100 0.229504 0.128180 0.316429 -0.235519 -0.357539 -0.057443 0.049720 0.165931 0.432127 0.333730 0.162153 0.228233 0.014671 -0.087985 -0.316064 -0.012994 0.053330 -0.422411 -0.035613 0.004288 0.424917 -0.121515 0.118851 0.113100 0.136120
349 0.227610 -0.324971 -0.035559 0.491932 0.212601 -0.034600 -0.176990 0.079999 -0.494502 -0.455239 0.046686 0.223274 0.021731 -0.291220 0.136626 -0.039800 0.041266 -0.264618 0.103849 -0.170300 0.056320 0.011498 -0.099620 0.027222 0.377390 0.308508 0.178376 -0.157718 0.272660 -0.207687 -0.040265 -0.429191 0.059402 -0.056643 0.291121 0.213300 0.055983 0.184067 -0.286238 0.097927 -0.186530 -0.187642 -0.030708 0.183398 -0.398840 -0.047933 0.033951 -0.065645 -0.070456 -0.278125 -0.117498 0.275339 0.290567 0.048683 -0.268243 0.003458 0.132569 -0.054872 0.217129 0.196717 -0.622099 -0.020991 -0.229377 -0.305858 0.000233 0.188920 0.269241 0.048183 -0.217314 0.009817 0.135743 -0.314781 0.150267 -0.028543 0.190886 -0.016537 0.115512 0.355408 0.126388 -0.022325 -0.227554 0.066568 -0.022083 -0.106382 -0.048140 -0.049047 0.011582 -0.562046 -0.123916 0.006161 0.275438 0.276405 -0.049053 0.288056 -0.169633 0.159167 -0.431440 0.158259 0.092106 -0.545077 0.419155 -0.072337 0.155716 0.227474 -0.301228 -0.217434 0.204149 -0.035058 -0.486209 -0.165900 -0.203577 -0.090875 0.108943 -0.349333 -0.146362 -0.148131 0.218384 -0.028968 -0.423280 0.099955 -0.196456 -0.062527 -0.054543 -0.100254 -0.228044 0.023679 0.172477 0.192281
214 0.241961 -0.043650 0.005889 0.126848 0.001546 0.176653 -0.027435 -0.023381 0.092137 0.021104 0.041510 -0.141667 0.187012 -0.204293 0.081796 0.064396 -0.013497 -0.013393 0.251342 0.003466 0.054922 0.353087 0.015154 0.572854 0.131006 0.214325 -0.072243 0.414902 0.028886 0.045756 -0.013212 0.054614 0.370591 -0.092061 0.013052 0.244028 -0.058630 0.069093 0.035122 0.016832 -0.067950 -0.085014 -0.103901 -0.115971 -0.440421 -0.035009 0.169881 0.015143 -0.052219 0.147535 0.224051 0.105388 0.011554 0.054873 -0.390557 0.051413 0.256470 -0.047577 0.141532 0.185674 -0.223813 0.158150 -0.427589 -0.118506 0.228293 0.119256 0.304952 0.167183 0.109242 -0.022762 -0.218836 -0.130242 -0.139535 -0.024247 -0.023102 -0.141844 -0.010938 -0.060508 0.020012 -0.189949 -0.035286 -0.004800 0.096617 0.046784 0.119047 0.159115 -0.353520 0.069259 0.082201 0.154227 -0.134969 0.210192 0.208790 0.232262 0.051674 0.330430 0.036066 0.089716 -0.151958 0.025263 0.266365 -0.080125 -0.047568 0.208784 -0.302533 -0.039988 0.090931 0.077056 -0.209396 -0.051515 0.130197 0.295863 0.298727 -0.182745 0.291305 0.033781 -0.137523 -0.002558 -0.120717 0.156500 0.057782 0.029184 -0.077881 -0.134461 -0.139101 0.145267 -0.142907 -0.004111
401 0.244406 -0.267742 -0.245897 0.164617 0.227840 -0.025017 -0.142990 0.208106 -0.105373 -0.320304 0.067886 -0.115178 -0.026096 0.161170 0.317502 -0.214214 0.070810 -0.358866 0.049196 0.014245 0.124205 0.208513 -0.093027 0.372294 0.349187 0.008467 -0.111051 0.287522 0.008913 -0.040537 0.102412 -0.268724 0.207196 0.075917 0.075101 0.333649 0.157424 0.125161 -0.015528 0.060468 -0.188273 0.028025 -0.190717 -0.045026 -0.329572 0.137930 -0.115720 -0.118240 -0.049336 0.163124 0.105349 0.208975 0.081971 0.116410 -0.198471 0.094904 0.025932 -0.103267 -0.127056 0.136646 -0.452336 -0.005773 -0.176417 -0.393161 -0.129588 0.130482 0.386843 0.093240 -0.108002 0.051248 -0.114777 0.240135 -0.099472 -0.140842 -0.178979 0.163758 -0.057080 0.100373 0.003021 -0.033906 -0.011115 0.203615 -0.100709 -0.115834 0.142256 0.028710 -0.192453 -0.112318 -0.105457 0.118943 0.039317 0.054385 0.146232 0.135552 0.107093 0.209205 -0.159163 0.218738 -0.095983 -0.023370 0.201561 -0.043109 0.011238 0.242291 -0.135455 0.033392 -0.039164 -0.300745 -0.168676 -0.047534 0.138104 0.149137 0.025825 0.036549 0.054286 -0.077530 0.153584 -0.176849 -0.091201 0.169100 0.113448 -0.172716 -0.064505 -0.169781 -0.033599 -0.083628 -0.025402 0.181121
355 0.167649 0.024599 -0.171893 0.276418 -0.295943 0.066215 -0.199607 0.323047 -0.095120 0.300688 0.138470 0.392365 -0.226987 0.105102 -0.021248 0.015328 -0.273094 0.107249 -0.136710 -0.147450 0.313887 0.099147 -0.221153 0.517425 0.223108 -0.300795 -0.299818 0.224058 0.143981 -0.211920 -0.124871 0.212462 -0.140675 -0.032158 0.058774 0.040284 0.050334 0.062844 0.015406 0.113829 -0.295768 -0.043536 0.002585 -0.000972 -0.607392 0.303047 -0.172709 -0.667087 -0.472914 0.165341 0.068616 -0.025658 -0.282443 -0.124411 -0.113017 0.172942 -0.164955 0.099857 0.001612 0.239313 -0.234289 -0.292780 0.102318 -0.053460 -0.108709 -0.086313 0.121264 -0.047391 -0.294210 -0.263526 -0.316058 0.039686 0.277176 0.012868 0.016071 -0.086257 0.049038 -0.114963 -0.082961 -0.122194 0.123608 -0.214635 0.000680 0.196126 0.066973 -0.015089 -0.299348 -0.226303 0.179696 -0.239515 -0.192304 -0.015715 0.002130 0.309752 0.589346 0.036753 -0.069350 0.382049 -0.039676 0.195066 0.025345 0.245240 -0.337490 0.114296 0.186711 -0.093318 -0.028894 -0.113350 0.133203 -0.213181 0.310644 -0.093015 -0.230958 0.136921 -0.215288 0.009692 0.012675 -0.245328 0.235417 0.105362 -0.000150 -0.152352 0.136309 -0.042335 -0.362734 -0.198315 0.177469 0.360411
1 0.276398 -0.162919 -0.139599 0.202999 0.151694 0.058375 -0.209256 -0.020326 -0.124074 -0.177411 0.128804 -0.298051 0.062815 0.281502 -0.072720 -0.077307 -0.094400 -0.135769 0.180022 -0.050547 0.145956 0.135002 -0.057631 0.434042 0.289595 0.048783 -0.195537 0.054227 0.048621 -0.009865 0.114711 -0.031779 0.358836 0.051218 0.012123 0.235315 0.014828 0.013218 0.133720 -0.097156 -0.305450 -0.151141 -0.229298 0.148653 -0.336782 0.219548 -0.084962 0.122106 -0.026621 0.169914 0.186954 0.311069 0.185598 -0.078885 -0.216519 0.059407 0.110486 -0.026604 -0.008647 0.326455 -0.206813 -0.143433 0.048138 -0.287971 0.190715 0.220914 0.287978 0.050589 0.072569 0.008865 -0.030425 0.055842 -0.023919 -0.084129 -0.300641 0.010671 -0.189935 0.091419 -0.149516 -0.097401 0.070674 0.052936 0.122814 -0.188920 0.164604 -0.014492 -0.269891 -0.160808 -0.391838 0.298190 0.193928 -0.007317 0.200688 0.019579 0.163034 0.365366 -0.214540 0.223211 -0.076853 -0.061481 0.220070 0.028311 -0.036857 0.304938 -0.047669 -0.043688 -0.134737 -0.249256 -0.068778 -0.068564 0.179490 0.304081 0.113218 0.089263 -0.029247 -0.191127 0.177150 0.110708 0.144576 0.113443 0.110197 -0.087069 -0.288867 -0.112413 -0.229799 -0.081716 -0.234998 -0.097934
30 0.277159 -0.343342 -0.136749 0.134361 0.195623 0.107428 -0.078156 0.214506 -0.231879 -0.265919 -0.055440 -0.034674 -0.024199 0.192577 0.271273 -0.299989 -0.047363 -0.312758 0.010704 0.027241 0.077654 0.037906 -0.024655 0.237292 0.378169 0.013082 -0.084737 0.067037 -0.051116 0.081052 0.018242 -0.226786 0.312735 0.119055 0.024226 0.377294 0.209953 0.191043 -0.181216 -0.091731 -0.319670 0.026946 -0.044766 -0.155923 -0.411554 0.081444 0.101121 -0.019461 -0.213253 0.027705 0.161044 0.127646 0.258096 0.142973 -0.049226 0.123350 0.076004 0.023667 -0.066998 0.269080 -0.402336 -0.055333 0.020177 -0.150021 -0.048813 0.111496 0.293975 0.180295 -0.177600 0.021665 -0.218976 0.085709 -0.021158 -0.065277 -0.232296 -0.168927 -0.037164 0.151396 -0.028070 0.000690 -0.153663 0.148509 0.108345 -0.383505 0.137538 0.142012 -0.113442 -0.104644 -0.251404 0.226055 0.215872 0.033257 0.173188 0.309035 0.067991 0.054722 -0.139838 0.154867 -0.110666 -0.152867 0.153144 -0.070626 -0.002073 0.134643 0.013431 -0.199564 0.135663 -0.320668 -0.143907 -0.035411 -0.041714 0.261529 0.102634 -0.045633 -0.034178 -0.093217 0.089652 -0.158726 -0.115444 0.142536 0.187352 -0.194093 -0.035369 -0.130177 -0.131111 -0.213574 0.052809 -0.018783
338 0.208861 -0.130107 -0.116734 0.103490 0.044305 -0.044706 -0.172225 0.103762 0.227014 -0.074774 0.243988 0.357031 0.083133 -0.084330 0.057633 0.161205 -0.261480 -0.080369 0.023138 -0.243330 0.116869 -0.085533 -0.111660 0.222625 0.285673 0.199980 -0.122640 0.314142 -0.021478 -0.408266 -0.069135 0.134698 -0.110635 -0.030840 0.074321 0.061779 0.111153 0.056715 0.014561 0.228687 -0.085020 0.039681 -0.109017 0.056688 -0.070863 0.044948 -0.029655 -0.397637 -0.349224 0.180390 -0.020830 0.066910 -0.025023 0.135763 -0.069670 0.146180 -0.170968 0.005222 0.008802 0.012869 -0.401894 -0.033104 -0.124235 -0.133028 0.060815 -0.119004 0.126766 0.068309 -0.145965 -0.011159 -0.369004 0.029912 0.155573 0.041746 -0.092273 0.042756 0.029380 -0.041253 -0.022410 -0.261295 -0.010720 -0.164602 0.149683 0.194861 -0.052465 -0.067204 -0.114805 -0.300594 0.163145 -0.016093 -0.293619 -0.087616 0.143988 0.133966 0.374695 0.094630 0.154652 0.113479 -0.185234 0.442762 0.154380 0.178249 -0.043733 0.244694 0.004303 -0.193648 -0.019624 -0.267251 0.029099 -0.240473 0.123587 0.077464 -0.061701 0.059648 0.150493 -0.002866 0.016133 -0.107276 0.111024 0.103893 -0.280786 0.063525 0.015008 0.141404 -0.397271 -0.101076 0.201781 0.259852
234 -0.045210 -0.182686 -0.052043 0.016828 -0.016168 0.140300 -0.011032 0.030726 -0.107061 -0.004671 -0.006840 -0.241896 0.076290 0.058676 -0.119181 -0.072594 -0.212851 -0.073993 0.188423 0.006385 0.116844 0.166978 -0.176024 0.523121 0.258570 -0.086351 -0.069183 0.370682 -0.135545 -0.002374 0.033612 -0.097648 0.167869 -0.243360 -0.023515 0.386044 0.311653 0.286161 0.140882 0.205765 -0.242649 -0.084528 -0.004984 0.002531 -0.597109 0.149629 -0.041746 -0.151724 -0.155477 0.043528 -0.092067 0.032282 -0.006581 0.088804 -0.105667 0.138427 0.012530 0.321608 0.007251 0.355874 -0.082765 -0.045570 -0.151310 0.002190 0.220295 0.059941 0.248839 0.199417 0.052540 -0.108547 -0.202701 0.103088 0.054618 -0.141288 -0.114847 0.104778 -0.276621 -0.000417 0.106796 -0.061988 0.125565 -0.161926 0.086382 -0.071510 0.025135 0.205707 -0.013816 -0.051012 -0.155646 0.008557 -0.022361 0.045745 0.248257 -0.048015 0.240236 0.306707 -0.167554 0.262739 -0.013673 0.021294 0.419788 0.193911 -0.173261 0.038319 -0.046416 -0.106332 -0.018478 0.119839 0.041628 -0.230570 0.092943 0.329311 0.141161 0.050606 0.391969 -0.008765 0.092888 0.062802 -0.023702 0.062717 0.007386 -0.232328 -0.005776 -0.012893 -0.084945 -0.024726 0.081884 0.278175
398 0.201877 -0.039635 -0.089254 0.123254 0.239762 0.050682 -0.019609 0.131330 -0.048620 0.031495 0.248063 0.145752 0.139660 0.009623 0.129270 -0.154508 -0.208047 -0.179533 -0.060115 -0.220024 0.113205 0.037954 0.110756 0.310203 0.343006 0.004140 -0.299118 0.241078 0.005285 -0.148896 -0.131249 0.208898 0.094728 -0.216586 -0.263460 0.323877 0.099413 0.069924 0.107787 0.032928 -0.262401 0.053621 -0.049662 -0.207761 -0.274771 -0.069800 0.161268 -0.413944 -0.236726 0.253317 0.052668 -0.037556 0.146961 -0.095511 -0.147115 0.221202 -0.025167 -0.072902 0.446391 0.012002 -0.460933 -0.076437 0.108898 0.175248 0.174992 -0.041959 0.148479 0.219790 0.070585 0.071228 -0.486201 0.151736 0.136753 0.256093 -0.314564 0.081426 -0.170047 0.065905 -0.140279 -0.132810 0.056776 0.002024 -0.177299 0.099165 -0.169347 -0.134879 -0.223174 -0.074991 0.026240 -0.033582 -0.270973 -0.028491 -0.045989 0.151782 0.055329 0.242512 0.070593 -0.044203 -0.166801 0.392796 -0.036245 0.007591 0.013497 0.113132 0.047438 -0.067177 0.118159 -0.237434 0.048792 -0.043930 0.075249 0.271438 -0.013871 0.087074 0.027850 -0.115512 -0.101176 -0.188701 -0.118577 0.144028 -0.225566 0.002057 -0.106562 0.142904 -0.117556 -0.213610 -0.066695 0.056159
193 0.300232 -0.351621 -0.316567 0.285695 0.209060 0.044902 -0.357919 0.093345 -0.054220 -0.324987 -0.081862 -0.190288 0.061519 0.029016 0.286453 -0.134051 -0.082593 -0.406793 -0.074335 -0.219157 -0.061420 0.246045 -0.173125 0.362865 0.298698 0.087896 -0.019647 -0.085938 0.200143 -0.163252 -0.019250 -0.336396 0.214913 0.119433 0.019786 0.453724 -0.038443 0.116902 -0.175826 0.115586 -0.327498 -0.102534 -0.161912 0.114049 -0.293064 0.036281 -0.114968 -0.007762 -0.199445 0.113677 0.137170 0.325351 0.184610 -0.008834 -0.255576 0.123757 0.138249 -0.058788 0.129964 0.288547 -0.278010 -0.113143 -0.142227 -0.219830 0.062118 0.111497 0.353685 0.079879 -0.127975 0.123284 -0.010298 0.013736 -0.040438 -0.033181 -0.154994 -0.038845 0.181583 0.023961 -0.063452 -0.022128 -0.080742 0.151752 -0.078841 -0.004896 0.200530 0.064079 -0.296788 -0.107392 -0.335126 0.249436 0.091499 0.066245 0.200582 0.236339 0.139120 0.145603 -0.164125 0.366954 -0.126861 0.007123 0.317955 -0.110172 0.127209 0.402814 -0.049695 -0.152779 -0.246795 -0.258626 0.004286 -0.042990 0.011904 0.092478 0.000473 -0.176311 0.043073 -0.197532 0.219482 0.018553 -0.217921 0.135197 0.101806 -0.237065 -0.183608 -0.230915 -0.011747 -0.139854 -0.072908 0.028825
229 0.185423 -0.037605 -0.029137 0.106912 0.080218 -0.049615 -0.010415 -0.043037 -0.011965 0.047611 0.001880 0.071933 0.159084 -0.169063 0.076435 0.152228 -0.237729 -0.152149 -0.015973 -0.319750 0.094239 0.060147 0.056865 0.248154 0.273624 0.065127 -0.276624 0.444947 -0.004013 -0.206988 -0.088243 0.178355 -0.005540 -0.101055 -0.015062 0.066624 0.185315 -0.014178 0.144994 0.144347 -0.095533 -0.001378 -0.022006 -0.129270 -0.283593 -0.167271 -0.014193 -0.336846 -0.137312 0.094798 0.158813 -0.060647 0.129204 0.103701 -0.131802 0.174996 0.165779 -0.029015 0.296356 0.038293 -0.360149 -0.043582 -0.102365 -0.023191 -0.040252 -0.093648 0.346067 0.173319 -0.112703 -0.116326 -0.301085 0.012765 -0.239420 0.010417 -0.300257 -0.029923 -0.132958 0.181314 0.154015 -0.165894 0.135607 0.084897 0.000755 -0.006111 -0.081073 -0.313480 -0.187154 -0.073109 -0.002287 0.021155 -0.177951 -0.010418 0.375542 0.111398 0.154114 0.159170 -0.020322 -0.060944 -0.235299 0.326557 0.190757 0.200018 0.069288 -0.029882 -0.110341 -0.123280 0.121284 -0.162128 -0.092564 -0.077525 0.046339 0.192138 0.146265 0.097811 0.199479 -0.046560 -0.081377 -0.123749 -0.033072 0.095359 -0.156655 0.040494 -0.121570 -0.011803 -0.237363 0.034363 0.006110 0.138808
103 0.136807 -0.110662 -0.151663 -0.018628 -0.076725 0.047065 0.003936 0.091387 -0.063228 -0.080956 0.145782 -0.035189 -0.039187 0.161505 0.092155 -0.089639 -0.229786 -0.044907 0.022578 0.059482 0.163648 0.156384 0.082786 0.385268 0.371772 0.066011 -0.147826 0.094669 -0.082718 -0.028343 -0.140955 -0.086861 0.028890 -0.219917 -0.125609 0.188701 0.444665 0.354593 -0.021556 0.069862 -0.235196 -0.125273 0.050942 0.058658 -0.321898 -0.023877 -0.165559 -0.103280 -0.378349 0.044688 0.024583 0.018812 -0.045543 0.166228 -0.179198 0.119329 0.017030 0.197421 0.039626 0.358637 -0.252398 -0.144851 -0.154642 0.028897 0.126593 0.207755 0.397857 0.191303 -0.172400 -0.222833 -0.184487 0.094231 0.154343 0.048663 0.120913 0.235049 -0.092121 0.044741 -0.009683 0.107495 0.018721 0.105725 -0.114912 -0.098575 -0.007880 0.100739 -0.123567 -0.092183 -0.093437 0.153656 0.034007 0.095703 0.002336 -0.018577 0.018565 0.168766 -0.160012 0.128721 -0.002182 -0.006611 0.396195 0.088415 0.063024 0.329237 0.037602 0.011067 -0.027281 -0.311470 0.006404 -0.066647 0.118929 0.130854 0.094619 0.078227 0.135632 0.132899 0.027024 -0.173288 -0.012202 0.202966 -0.042028 -0.347466 -0.138612 0.119193 -0.033088 -0.047865 -0.000583 0.331746
382 0.129851 -0.225494 0.092188 0.159359 -0.460179 0.422232 -0.234288 0.140196 -0.082276 -0.011861 0.074576 -0.169960 0.129267 0.038251 -0.005457 0.073590 -0.309837 0.043145 0.323116 0.021840 0.312116 0.094907 -0.001250 0.121828 0.134465 0.064280 -0.024730 0.107200 0.047137 0.104271 0.142474 -0.194851 0.311006 -0.092629 0.236792 0.229660 0.252755 0.245556 0.503399 0.334627 -0.298189 -0.409477 0.138341 0.074499 -0.430806 -0.132421 -0.076148 0.175647 -0.424405 0.000052 0.340506 0.412530 0.082472 -0.209081 -0.366634 -0.060875 0.092946 0.271372 0.030960 -0.095326 -0.362205 0.270713 -0.053480 -0.144891 -0.151476 -0.001474 0.410189 0.149255 0.055339 -0.157653 -0.037726 -0.093310 0.190631 0.073868 -0.006612 -0.315903 -0.020529 -0.064684 0.248465 0.143133 0.115575 0.004499 0.151189 -0.321164 0.222341 0.009298 0.178428 0.275756 0.145046 0.187844 -0.140093 0.060748 0.070865 -0.184828 -0.044989 0.413915 -0.293528 -0.132115 0.000997 -0.276750 0.187262 0.336939 0.128090 0.199791 -0.438856 0.018301 0.331651 0.105232 -0.253587 0.069500 0.267683 -0.013541 0.322685 0.065136 0.599407 0.043433 -0.423002 -0.100327 0.092895 0.075860 -0.095318 -0.188337 -0.001997 -0.064415 -0.054783 -0.013676 -0.036979 -0.218478
21 0.001902 -0.084278 0.018654 0.251359 0.089945 0.156751 -0.088375 -0.104483 -0.300459 -0.239235 0.165980 0.134802 0.003746 -0.086692 -0.252822 0.057374 -0.258790 -0.049527 0.034072 -0.103385 0.568903 0.141690 0.050273 0.256512 0.349713 0.116553 -0.082849 0.031328 -0.114164 -0.121288 0.030172 0.001595 -0.060295 -0.190913 -0.088068 0.157112 0.197940 0.361343 0.135567 -0.086611 -0.073770 -0.140001 0.118621 0.072601 -0.621724 0.099478 -0.133054 -0.291711 -0.096285 -0.023572 -0.065019 0.048985 0.126640 0.053897 -0.089074 0.015131 0.021547 0.322330 -0.008802 0.290539 -0.254648 -0.008099 -0.051475 -0.173995 0.007313 0.092880 0.193680 0.115178 -0.149163 -0.086526 -0.243699 0.041536 0.141133 -0.161078 0.083599 0.150387 -0.023494 0.240906 -0.190134 0.132393 0.087735 0.112474 -0.137129 -0.110176 -0.179194 0.022859 -0.044465 -0.177034 -0.125827 -0.043709 0.204395 0.130874 0.016890 -0.054780 0.183460 0.310958 -0.307817 0.061618 0.028844 -0.109294 0.222297 0.000207 0.016937 0.253897 -0.223495 -0.092281 0.180595 -0.326351 -0.022684 -0.296615 -0.031944 0.184289 0.173981 0.014043 0.088116 -0.094386 -0.025358 0.038175 -0.072281 0.170703 -0.238771 -0.047800 -0.146409 0.153228 -0.256964 -0.113953 -0.067807 0.182249
342 0.088506 -0.053825 0.091469 0.313032 -0.151017 0.321554 -0.160322 0.092002 -0.072699 -0.032026 0.334977 0.045557 0.073218 0.042595 -0.117112 0.012036 -0.133944 -0.099020 0.127238 -0.106422 0.151826 0.094554 0.126159 0.287517 0.418993 0.207699 -0.142895 0.165448 0.001794 -0.040157 -0.086363 0.144005 0.046017 -0.305898 -0.006418 0.236499 0.323086 0.355999 0.282633 0.159838 -0.431165 -0.200495 0.175200 -0.073809 -0.513908 -0.043042 -0.100558 -0.165878 -0.311079 0.092653 0.055079 0.142083 0.053468 -0.136264 -0.161518 -0.009159 -0.103625 0.326796 -0.028135 0.208128 -0.238839 0.005811 -0.111025 0.130467 -0.208417 0.014446 0.206187 0.113251 -0.030594 -0.155391 -0.178239 0.038012 0.207884 0.035917 -0.078798 -0.055265 -0.090968 0.141753 0.107314 0.046779 0.299987 0.164142 -0.101037 -0.188998 -0.113104 -0.095948 -0.029963 0.116748 -0.044672 0.246512 -0.028487 0.104147 0.199428 0.083855 0.117230 0.067346 -0.107031 -0.059231 0.030884 -0.071164 0.374403 0.112380 -0.028117 0.263780 -0.188013 -0.017371 0.081309 -0.141422 -0.006733 -0.046612 -0.051508 -0.014316 0.227396 0.123147 0.094948 -0.033889 0.023829 -0.110387 -0.223382 0.040076 -0.006570 -0.316639 -0.306528 -0.087102 -0.156130 0.020458 -0.035920 0.322573
98 0.161562 -0.165635 -0.239961 0.000551 -0.169983 0.202740 0.007187 0.022141 -0.021716 -0.029158 0.010686 -0.078987 -0.076533 -0.016601 -0.102581 -0.042033 -0.117615 0.072051 0.130412 0.157888 0.294339 0.019484 -0.036002 0.210265 0.294400 0.369524 -0.212403 0.169263 0.132589 -0.086791 0.080314 0.051061 0.089871 -0.179900 0.076807 0.121647 0.264026 0.103012 0.221586 0.191708 -0.289486 -0.226178 0.058498 0.086735 -0.394945 -0.108815 -0.213877 -0.031709 -0.464564 0.219204 0.059513 0.049227 -0.065716 0.104610 -0.234264 0.225590 -0.029174 0.219930 -0.071648 0.257234 -0.297247 -0.048206 -0.242775 -0.077898 0.009737 0.170703 0.230217 0.044887 -0.206443 -0.220020 -0.271968 0.068067 0.172512 0.009265 -0.007690 0.104141 -0.105973 0.059389 -0.030398 -0.077579 0.034980 0.151930 0.198022 -0.067019 0.158496 0.006394 -0.084811 -0.038252 -0.049744 0.187807 -0.021633 0.025662 0.036997 -0.217524 0.111919 0.230123 0.043182 0.120371 0.028276 -0.219129 0.229876 0.316408 0.169216 0.105166 -0.044945 -0.176648 -0.093720 -0.216385 -0.249386 0.085772 0.108931 0.138428 0.145330 0.130112 0.326144 0.167360 -0.051292 -0.057880 -0.067784 0.047740 -0.201961 -0.408379 -0.259397 -0.012262 0.068994 0.012584 -0.056546 0.192368
260 0.270114 0.045474 -0.045907 -0.105263 -0.183863 0.307885 0.147773 0.155717 0.016638 -0.159720 -0.021938 -0.140986 -0.102369 0.059929 -0.205570 -0.165768 0.078380 -0.069501 0.012173 -0.048739 0.211061 0.378157 0.089948 0.408240 0.186367 0.213107 0.104564 0.333078 -0.129975 0.103079 -0.030233 0.381651 0.037353 -0.199601 -0.115076 0.286120 0.352218 -0.015306 0.218229 0.012861 -0.128796 -0.037330 0.078344 -0.187526 -0.546490 -0.205588 0.273241 -0.065056 -0.189193 -0.123951 0.234805 0.230563 0.218211 0.087371 -0.150134 0.009300 0.124249 0.140212 0.302768 0.043424 -0.490734 0.098586 -0.109908 0.070249 0.156388 -0.131995 0.267661 0.164839 -0.029848 -0.087417 -0.284188 -0.012463 0.084850 0.260691 -0.008582 0.040529 0.040909 0.038009 0.020999 -0.134577 0.289946 0.035884 0.176930 0.214715 0.114818 -0.034398 -0.203353 0.139668 0.028116 0.120326 -0.088860 0.219790 0.156778 0.013668 0.085358 0.444118 0.138501 -0.172628 -0.325511 -0.074691 -0.025374 0.060988 0.028226 0.155989 0.034643 -0.242528 0.285546 -0.334473 -0.101434 0.087915 -0.234618 0.057966 0.107215 0.016485 0.487788 -0.389285 -0.224970 -0.186257 0.069889 0.033384 0.026558 -0.026728 -0.053324 0.215696 -0.151617 0.011903 -0.246156 0.037432
395 0.197107 -0.159095 -0.089617 -0.027165 0.014262 0.006095 -0.067110 0.008960 -0.082212 0.055812 -0.023674 -0.183188 0.071569 0.023459 -0.100102 -0.096458 -0.284123 -0.088585 0.028203 0.015321 0.373801 0.128894 -0.011677 0.263907 0.211408 -0.049217 -0.258045 0.165333 0.161492 0.033045 0.023319 -0.025776 0.225398 0.073629 -0.064125 0.185737 0.244938 0.220306 0.210820 0.064845 -0.079447 -0.320125 0.064407 0.142856 -0.554160 0.017588 -0.143678 -0.039156 -0.075755 0.121669 -0.065827 0.124810 0.168812 0.020192 -0.269831 0.107823 0.187010 0.162396 0.123381 0.169715 -0.112425 -0.047313 0.021750 -0.069618 0.116760 0.118932 0.560724 0.152357 -0.107929 0.004398 -0.116790 -0.060495 -0.023211 0.052250 0.008032 0.083456 -0.143227 0.246531 0.253799 -0.069810 0.252574 -0.082613 0.023288 -0.236639 0.021853 -0.073254 0.072786 -0.020890 -0.233785 0.232646 0.021125 0.018579 0.191420 -0.245470 0.084074 0.143464 -0.106070 0.173995 0.120663 0.041225 0.277009 0.137505 0.159551 0.157812 0.001394 -0.001181 0.071250 -0.169996 0.118599 -0.027419 0.141896 0.246744 0.024981 -0.075663 0.279860 0.089455 0.057963 -0.004334 -0.054972 0.251067 0.082496 -0.170326 -0.215258 0.045220 -0.094866 0.000565 0.025680 0.258242
509 0.075249 -0.156933 -0.037622 0.090821 0.000925 0.039910 0.076822 0.163551 -0.179550 -0.340768 -0.033596 -0.028421 0.013287 -0.010501 -0.087362 0.016277 -0.140164 -0.166203 0.075516 0.020358 0.247699 0.077898 -0.120481 0.191159 0.206554 -0.061694 0.028771 0.252749 -0.150344 -0.035919 -0.095566 -0.119959 -0.001677 -0.236098 -0.084032 0.309460 0.219926 0.230241 0.048954 0.103841 -0.050746 -0.074442 0.000523 0.160870 -0.474306 0.139153 0.041044 -0.217026 -0.075867 0.105880 -0.136096 -0.100835 -0.020731 0.131928 -0.035561 0.106145 0.006533 0.223338 0.110564 0.254097 -0.004893 0.154519 -0.095207 -0.072006 -0.055591 -0.207002 0.236105 0.263279 -0.161294 -0.165012 -0.255508 0.068359 0.007773 -0.137698 -0.081733 0.026718 -0.126879 -0.026727 -0.035437 0.092249 0.098531 0.003622 0.154018 -0.104369 -0.010564 0.238724 -0.090355 -0.307667 -0.067671 -0.019890 0.064932 0.048904 0.272417 0.120827 0.237740 0.307216 0.013550 0.305480 -0.067040 0.111605 0.360881 0.072193 -0.001074 0.153976 -0.003169 -0.380333 0.136499 -0.133817 -0.123075 -0.209818 -0.023156 0.225135 0.046382 0.161094 0.204449 0.097706 -0.045798 -0.119305 -0.062864 0.220586 -0.113130 -0.293400 -0.187057 0.169062 -0.190299 -0.208988 0.100144 0.197972
17 0.377283 -0.110764 -0.167333 0.147717 -0.148948 0.127527 0.059375 -0.160449 -0.267628 0.041554 -0.058687 -0.156671 0.028799 -0.024486 0.138554 -0.007395 0.060268 -0.155281 0.240746 0.147626 0.294196 0.213917 0.061753 0.170712 0.162388 0.102520 -0.199690 0.289245 0.065678 -0.003769 -0.115684 0.160534 0.224071 -0.276640 -0.057840 0.254901 0.251387 0.031379 0.127510 -0.073970 -0.203530 -0.122752 -0.019006 -0.220293 -0.340394 0.276704 0.086941 -0.116772 -0.064301 0.210607 0.153905 0.053079 0.128113 -0.046474 -0.325509 0.177494 0.171016 -0.021595 0.342363 0.273613 -0.461088 -0.163845 -0.061485 0.031659 0.036106 -0.146881 0.418958 0.048848 -0.023096 -0.174015 -0.348442 -0.042834 0.013450 0.002016 -0.159782 0.206519 -0.200695 0.318568 0.047707 -0.160269 0.209080 0.136223 0.229806 -0.179412 -0.016286 -0.091283 -0.093279 0.254805 0.073099 -0.251040 -0.143186 0.010507 0.020179 0.140257 0.050229 0.451492 -0.113874 0.114080 -0.180561 -0.007401 0.195641 0.155701 -0.010433 0.057662 -0.086334 -0.268753 0.306241 -0.224125 -0.156120 -0.024266 0.085891 0.241256 -0.019060 0.005964 0.341720 -0.048802 -0.073769 -0.123307 -0.114871 0.280787 -0.054746 0.200457 -0.063263 -0.023809 -0.191274 -0.066195 -0.171888 0.001464
160 0.273026 -0.403314 -0.063830 0.097305 0.380942 0.031085 -0.237259 0.175251 -0.222336 -0.111642 0.165560 -0.064538 0.064320 0.164412 0.101048 -0.134274 0.004282 -0.222813 -0.072151 -0.069119 -0.028009 -0.115627 -0.103844 0.367177 0.272080 0.077027 -0.025148 0.091495 0.087146 -0.044647 0.124421 -0.150460 0.200507 0.096345 0.076654 0.232745 0.115472 0.128609 -0.076433 0.185142 -0.381223 -0.154318 0.094062 -0.159011 -0.426459 0.066685 0.026858 -0.009205 -0.121694 -0.180937 -0.043895 0.219483 0.438343 0.085327 -0.241756 0.066203 -0.132597 -0.046147 -0.221006 0.267099 -0.402045 -0.088396 -0.122911 -0.114734 0.105849 0.278611 0.291619 0.023040 -0.255867 -0.080184 -0.036314 0.051598 -0.120196 -0.081827 -0.090755 -0.098084 -0.083934 0.180635 0.189986 -0.098105 -0.088059 0.136854 -0.093096 -0.189755 0.184211 0.157614 -0.211051 -0.119946 -0.379607 0.080280 0.294425 0.076824 0.228703 0.264407 0.253886 0.046142 -0.272576 0.084952 -0.089205 -0.109530 0.277344 0.120371 -0.027563 0.248808 0.005816 -0.226773 -0.152063 -0.262196 -0.180525 0.049892 0.101462 0.087275 -0.052346 -0.113627 0.108039 -0.144086 0.368106 -0.035290 0.024358 -0.005309 0.066146 -0.118855 -0.267145 -0.157910 -0.198518 -0.163333 0.014514 0.034518
436 0.207556 -0.124789 -0.153660 0.060132 -0.141173 0.237051 -0.276604 0.104517 -0.192598 -0.103247 0.119198 -0.026456 0.047475 0.103338 0.008744 0.201124 -0.297635 0.009864 0.197957 -0.053874 0.099860 0.092610 0.015540 0.241857 0.373828 -0.065928 -0.076685 0.092632 -0.165958 0.043165 -0.049563 -0.040370 0.191032 -0.186360 0.009183 0.132743 0.326845 0.265037 -0.027824 0.200818 -0.330423 -0.106486 0.210840 0.109580 -0.289527 0.073371 -0.191164 -0.025128 -0.367764 0.154604 0.052143 0.245377 -0.016397 0.028900 -0.230171 0.059051 -0.117739 0.130935 -0.097580 0.380280 -0.283898 -0.150450 -0.144186 0.038145 -0.060705 0.167642 0.328567 0.138944 -0.118004 -0.260469 -0.036837 0.026951 0.378064 -0.122307 0.051229 0.030925 0.035053 0.095178 0.103240 0.032374 0.026134 0.037483 -0.134250 -0.148832 0.000957 -0.088838 -0.017251 -0.058895 -0.111795 0.008245 -0.069629 -0.037832 0.153959 0.138847 0.320271 0.216222 -0.176008 0.099742 -0.018088 0.019519 0.404032 0.088550 0.013809 0.196892 0.005708 -0.180467 -0.008433 -0.071580 -0.048816 -0.134243 0.001719 -0.005774 0.138903 0.011832 0.171983 -0.052813 0.179274 -0.210235 -0.094546 0.027384 0.098217 -0.371414 -0.227392 -0.043371 -0.202720 -0.226041 -0.079774 0.233023
452 0.265514 -0.667139 -0.168405 0.166075 0.266888 -0.096502 -0.028989 0.102466 -0.353057 -0.394538 0.005520 -0.349284 0.053181 0.111688 0.011612 -0.109373 -0.032805 -0.141420 -0.199631 -0.093629 -0.027355 0.247444 -0.188523 0.276220 0.246223 0.131069 -0.084216 -0.096307 -0.164815 -0.271089 0.298688 -0.082114 0.040333 0.025896 0.108669 0.541084 -0.227291 0.173466 0.228095 -0.008284 -0.440379 -0.370121 0.118765 0.210530 -0.252042 0.118300 -0.137124 0.017138 -0.147791 -0.001784 0.200300 0.026485 0.311691 -0.013114 0.050826 0.109536 -0.117468 0.194211 -0.102793 0.332882 -0.186363 -0.341925 0.013758 -0.065989 0.149289 0.191988 0.161403 0.170627 -0.261225 0.046564 0.243776 -0.018113 -0.290403 -0.019360 -0.407771 0.057147 -0.203376 -0.075320 -0.161383 0.126562 -0.389953 -0.173270 0.135472 -0.150479 0.366220 0.255147 -0.089758 -0.229030 -0.446047 0.411081 0.389530 -0.041929 0.219190 0.021661 0.270580 0.084257 -0.038554 0.222606 -0.290321 -0.059572 0.507937 -0.192985 -0.074629 0.473134 -0.095388 -0.065191 -0.349686 -0.519669 0.142374 -0.216654 0.147666 0.214179 -0.050233 -0.003896 -0.178369 -0.034976 0.283890 -0.025909 -0.013921 -0.027539 0.197145 -0.388110 -0.258657 -0.181869 0.116984 -0.239990 -0.034844 -0.244456
389 0.116213 -0.198525 -0.132677 0.033568 0.009930 0.051257 -0.237112 0.030765 -0.175353 -0.159519 0.210549 -0.076553 0.097879 -0.040172 0.146559 0.070989 -0.196718 -0.169437 0.078047 0.051417 0.182377 0.155001 0.064715 0.293013 0.348545 0.008034 -0.005580 0.253410 -0.035765 -0.102611 -0.027097 0.012520 0.091309 -0.089928 -0.038073 0.223276 0.307251 0.308817 0.177061 -0.065924 -0.114166 0.048764 0.012758 -0.086727 -0.422533 -0.009877 -0.122649 -0.086277 -0.155696 0.055803 0.033783 0.095233 -0.004014 0.060418 -0.115430 -0.062037 0.064828 0.161393 0.187746 0.068582 -0.261922 -0.092750 0.026876 -0.198056 -0.176177 -0.010892 0.443715 0.266148 -0.081376 -0.111417 -0.048921 0.143674 0.198976 -0.109923 -0.007239 -0.012669 0.021507 0.120683 -0.005813 0.169980 0.054908 -0.099384 0.208266 -0.073834 -0.018651 -0.033190 0.033709 -0.151834 -0.058742 0.245508 -0.025879 0.249785 0.117834 -0.099154 0.142279 0.131668 -0.076942 0.107506 -0.157962 0.115519 0.177966 0.004896 0.055075 0.067931 -0.237715 -0.041313 0.285107 -0.116468 -0.103756 -0.085333 0.093012 0.002625 0.059021 0.048507 0.239628 0.087430 0.061115 -0.200047 -0.271598 0.165984 0.090850 -0.020888 -0.060415 0.009220 -0.109567 -0.169105 0.068253 0.230261
516 0.216189 -0.200903 -0.036197 0.175434 -0.182179 0.350866 -0.006906 0.173380 -0.140970 -0.135742 0.160270 -0.094020 -0.020650 0.100377 -0.049550 0.095939 -0.214877 -0.186793 0.145722 0.175030 0.230586 0.115191 0.203348 0.340988 0.444028 0.088355 -0.082003 0.003412 -0.121481 -0.032867 -0.165328 -0.016870 0.193941 -0.275061 0.072032 0.090646 0.332489 0.210515 0.044799 -0.115836 -0.345964 -0.022031 -0.083678 -0.036261 -0.445967 0.192001 -0.114057 -0.289075 -0.288225 0.019174 -0.011421 0.136517 0.123820 0.105753 -0.222238 0.219433 -0.014376 0.164272 -0.112279 0.205138 -0.273721 -0.037309 -0.168182 0.064566 -0.016878 0.084706 0.313207 0.110431 -0.269266 -0.186881 0.019356 -0.016290 0.198300 0.084621 0.008826 0.053338 -0.186263 0.172466 0.318744 0.011853 0.023961 0.124302 0.035493 -0.125079 -0.063822 0.056061 0.164378 -0.078313 -0.179230 -0.062622 0.014234 -0.016865 0.213321 0.174112 0.253110 0.112748 0.126123 0.071554 -0.166675 -0.055638 0.298329 0.144368 0.022504 0.143418 -0.072714 -0.184370 0.172337 -0.007939 -0.059286 0.003114 -0.075419 0.015958 -0.075002 0.149754 0.132451 0.019697 0.155758 -0.157140 0.071993 0.292371 0.054283 -0.418814 -0.357269 0.223378 -0.066416 -0.097589 0.019545 0.255130
172 0.139436 -0.253726 -0.094489 0.094176 -0.160824 0.165032 -0.105542 -0.045198 -0.015772 0.011077 0.287136 -0.145588 0.144971 0.035897 0.027773 0.101090 -0.264769 0.057320 0.138508 0.067600 0.295285 0.227941 -0.062986 0.603479 0.350837 0.089505 -0.242205 0.236375 -0.051534 -0.008628 -0.038219 -0.095743 0.338272 -0.236427 -0.203447 0.202013 0.300362 0.144903 0.344958 0.207519 -0.248347 -0.229685 -0.059705 0.206272 -0.334946 -0.234248 -0.101774 0.108086 -0.216862 0.182346 0.184082 -0.028605 0.123924 -0.137518 -0.343918 0.105220 0.175666 0.151795 0.049562 0.049129 -0.117866 0.013048 -0.047998 -0.092668 0.095187 0.193520 0.326507 0.050695 -0.003055 -0.244320 -0.045291 -0.038534 0.087722 0.035407 0.078433 0.093370 -0.190003 0.038691 0.166320 0.006416 0.047596 0.150765 0.055855 -0.110580 0.105260 -0.203612 0.072571 -0.005219 0.019483 0.187093 -0.119427 0.067581 0.037384 -0.260666 0.066740 0.278365 -0.281826 0.064719 0.063821 0.002103 0.386520 0.318921 0.177451 0.144098 -0.101093 -0.054245 0.085500 0.013505 -0.085494 -0.080208 0.156092 0.130661 0.245651 0.039363 0.290274 0.141155 0.029110 0.022802 -0.124385 0.222084 -0.055299 -0.230278 -0.130379 0.017135 -0.090365 0.015303 -0.009746 0.021899
326 0.350038 -0.224723 -0.058932 0.051163 0.163834 -0.095416 -0.138164 -0.012620 -0.004323 -0.083301 0.019619 0.171164 0.248946 -0.079686 0.156871 -0.020876 -0.138307 -0.070766 -0.143115 -0.427946 -0.024474 -0.041881 0.114297 0.316914 0.194207 0.309524 -0.202180 0.429135 0.196564 -0.165199 0.016179 0.273824 -0.014624 -0.057994 -0.032549 0.075742 0.139261 0.163889 0.196135 0.286881 -0.233714 -0.098221 0.020203 -0.103034 -0.116649 0.031209 0.095394 -0.365843 -0.105949 0.212114 -0.073866 0.013316 0.174547 0.147777 -0.026648 0.053515 -0.109108 -0.223732 0.188104 -0.048589 -0.424763 0.008906 -0.259752 0.161397 0.095286 -0.133479 0.131128 0.250187 -0.141779 -0.029941 -0.415453 0.120892 0.118713 0.236423 -0.313893 -0.128234 0.005686 -0.022362 -0.152766 -0.153821 0.292817 0.026821 0.145531 0.163241 -0.139223 -0.205361 -0.439168 -0.276781 0.147705 0.049735 -0.295291 -0.082533 0.206169 0.165889 0.286422 0.308287 0.164492 0.138999 -0.176154 0.446839 0.065013 0.008497 -0.113318 0.148569 0.000263 -0.176727 0.013017 -0.235254 -0.117982 -0.228049 0.127026 0.114460 0.113529 0.244657 0.288209 0.026465 0.103319 -0.149218 -0.063915 0.064799 -0.391042 0.015825 -0.046480 0.089154 -0.508160 -0.112590 -0.034404 0.127475
545 0.076904 -0.306643 -0.166643 -0.073973 -0.051632 0.261541 -0.091171 0.113678 -0.249640 -0.052174 -0.123311 -0.206111 0.164758 -0.049186 -0.154584 -0.138823 -0.367997 -0.115960 0.217559 -0.044054 0.225340 0.068804 -0.134912 0.553954 0.130561 0.026892 -0.263134 0.386582 0.129609 0.079879 0.175814 -0.136359 0.092553 -0.165562 -0.213758 0.390698 0.307285 0.172345 0.290280 0.128547 -0.205503 -0.149497 -0.036679 0.138600 -0.411735 0.163161 0.040531 0.020504 -0.320189 -0.014070 0.066979 0.216456 0.131345 -0.029689 -0.299570 0.090919 0.074161 0.104643 0.192323 0.306961 -0.291710 0.032135 0.010218 0.050555 0.309768 0.167421 0.301329 0.019698 -0.168372 -0.090370 -0.002324 -0.080980 -0.008547 -0.030808 0.110859 0.234660 -0.009961 0.175507 0.268757 -0.265000 0.098489 0.029139 0.013070 -0.040930 0.127396 -0.013533 0.025994 0.070752 0.042611 -0.091654 -0.155159 0.099631 -0.080735 -0.043221 0.163058 0.319690 -0.213884 0.192477 -0.070582 -0.098474 0.201000 0.071852 -0.075399 0.159926 0.018007 -0.145547 0.224894 0.066080 0.135688 -0.086189 0.074594 0.165921 0.115588 0.080766 0.340919 -0.205096 0.131237 0.062919 0.040334 0.216637 -0.028497 -0.092392 0.065091 0.175229 -0.029584 0.009127 0.060010 0.178202
399 0.190607 0.035927 -0.072571 0.234082 0.147447 0.358930 -0.246680 -0.246580 -0.142872 0.214554 0.352770 0.000041 -0.146791 0.050107 0.092955 0.006970 -0.120563 0.104633 0.010926 -0.128900 0.188775 0.052473 -0.227186 0.522078 0.401173 -0.019347 -0.102764 0.213455 0.138609 -0.080130 0.052331 -0.096879 0.092536 0.150340 -0.100015 0.119598 0.131184 0.250016 0.048872 0.018350 -0.189986 -0.007816 -0.056893 -0.127956 -0.489988 0.410748 -0.430527 -0.371390 -0.379778 0.359066 0.078183 0.130864 0.002127 0.089201 0.030581 0.115294 0.174577 -0.176585 0.040255 0.070974 -0.139507 -0.234440 0.012175 -0.081306 -0.129219 -0.027831 0.252767 0.198900 -0.245204 -0.161099 0.075395 0.235089 -0.026232 -0.013759 -0.107887 0.127821 -0.037747 0.070031 -0.077160 0.070075 0.063642 0.048471 0.080704 -0.073054 0.070929 0.106305 0.053611 -0.131876 0.220353 0.026356 0.132671 0.091817 0.152011 0.009333 0.386949 0.048815 -0.158241 0.275835 -0.013361 0.173678 0.161149 0.047433 -0.059687 -0.022623 0.008557 0.022279 0.139964 0.016269 -0.000044 -0.316994 0.151735 -0.107678 -0.077228 0.151797 0.166225 0.225872 -0.010751 0.108894 -0.105481 0.238576 -0.230676 0.072275 -0.207942 0.131322 -0.251426 -0.032812 0.019400 0.071940
205 0.097196 -0.225550 0.058806 0.066924 0.149997 -0.097546 -0.150626 0.015964 -0.096927 -0.308877 0.361682 -0.228457 0.042788 0.011439 0.023798 -0.030296 -0.003216 -0.100190 -0.031753 -0.079306 0.095983 0.378488 0.096098 0.290061 0.237580 0.124896 -0.015035 -0.004897 0.019203 -0.195627 -0.034386 -0.039036 0.179661 -0.048992 -0.051428 0.268755 0.128188 0.127439 -0.052064 0.060509 -0.126572 -0.160381 -0.045224 -0.006259 -0.593016 0.070062 0.092844 -0.077198 -0.050906 0.179684 -0.009969 0.190174 0.293824 -0.000766 -0.200125 -0.012902 0.138899 0.183512 0.220662 0.382782 -0.122906 -0.043973 -0.119912 -0.266481 0.070223 -0.048496 0.405952 0.104356 0.002555 -0.177854 -0.183953 0.070488 0.082191 0.165241 0.051745 0.003487 -0.129851 0.199400 0.088562 0.025997 0.156277 0.132339 -0.214034 -0.127631 -0.044778 0.219099 -0.157574 -0.056454 -0.263163 0.181075 0.056144 0.178687 0.164659 0.109053 0.005481 0.122979 -0.197825 0.204051 -0.095410 0.033403 0.250220 0.067605 0.130961 0.335673 -0.120028 -0.121671 -0.012430 -0.284298 -0.194816 -0.168799 0.152833 0.120361 -0.097588 -0.080690 0.267171 -0.120350 0.192873 -0.004513 -0.053315 0.199188 0.059785 -0.096162 -0.293171 0.038112 -0.297856 0.039547 -0.136950 0.255429
138 0.127533 -0.187459 0.108131 0.092178 -0.161027 0.395084 -0.092370 -0.078499 0.038291 -0.202643 0.212772 -0.184647 0.082737 -0.003025 -0.055299 -0.037351 -0.125568 -0.111867 0.140827 -0.107009 0.195281 0.257061 -0.019987 0.261155 0.241573 0.232785 -0.182654 0.206335 0.205970 0.059294 0.172757 -0.103599 0.518857 -0.213248 -0.083640 0.248233 0.214855 0.269155 0.237577 0.332865 -0.261388 -0.335581 0.107753 0.012142 -0.507222 -0.004682 -0.227323 -0.016661 -0.303897 0.334107 0.084071 0.280722 -0.044532 -0.191970 -0.039277 -0.059215 -0.004488 0.351985 -0.030870 0.058264 -0.101727 -0.045284 -0.282384 -0.186405 -0.137118 0.064981 0.143086 0.187135 0.094681 -0.140679 -0.319311 0.006376 0.111404 0.030559 0.096569 0.018527 -0.023064 0.067179 -0.018789 0.076687 0.190614 0.095138 0.161740 -0.112248 0.095039 0.164228 -0.122874 0.168786 0.080851 0.124036 0.038876 0.031055 -0.026954 -0.127690 0.198747 0.212603 -0.360195 -0.019727 0.083993 -0.029040 0.227536 0.154991 0.233445 0.275373 -0.233655 -0.189800 -0.116421 -0.077196 -0.286193 -0.162076 0.214776 0.111904 0.319192 0.063455 0.473207 0.064106 -0.150018 -0.055909 -0.104728 0.169361 -0.048824 -0.324943 -0.084649 -0.045351 -0.323447 -0.017360 -0.197085 -0.239648
74 0.216770 -0.317293 0.052392 -0.071674 -0.127379 0.227093 -0.101511 -0.005321 -0.047411 -0.105599 0.250877 -0.089066 -0.058688 -0.052100 0.019505 0.014832 -0.236877 -0.045641 0.202939 0.034937 0.300830 0.177892 0.090666 0.201914 0.368461 0.155367 -0.181840 0.155122 -0.076910 0.007445 0.053569 -0.089579 0.357064 -0.310828 -0.070819 0.276665 0.406678 0.134547 0.227628 0.286870 -0.229152 -0.398876 0.087761 0.056936 -0.516681 -0.101519 -0.105422 -0.053447 -0.266572 0.176989 0.159108 0.042553 -0.004780 -0.209542 -0.182613 0.042663 0.163316 0.457366 -0.035591 0.126913 -0.225882 -0.128386 -0.095299 -0.078686 -0.126361 0.158242 0.287503 0.070322 0.091294 -0.228450 -0.290980 0.143590 0.078701 -0.067835 -0.060809 0.072541 -0.253373 0.122013 -0.025002 0.044344 0.169158 -0.072598 0.113267 -0.202048 0.191064 -0.053834 0.034057 0.128757 -0.017240 0.144644 0.127651 0.050466 0.114388 -0.101195 0.087201 0.202581 -0.275169 -0.166225 0.076501 -0.107701 0.433906 0.141577 0.081306 0.147938 -0.163578 -0.257637 -0.040187 0.049451 -0.052699 -0.170481 0.074925 0.239697 0.237071 0.048862 0.369182 -0.131503 -0.129902 -0.102362 -0.144129 0.182342 -0.015080 -0.273438 -0.014604 0.028195 -0.185979 0.058063 -0.067411 -0.001641
97 0.126869 -0.039639 -0.097802 0.257342 0.090017 0.085035 -0.160169 -0.202812 -0.201858 -0.254669 0.093376 0.002271 0.047450 -0.187380 -0.043683 0.077099 -0.221968 -0.029921 0.017322 -0.165843 0.267265 0.165621 -0.092531 0.088664 0.346775 0.185213 -0.125571 0.014712 -0.034346 -0.200882 -0.038405 -0.177056 0.220238 -0.102332 0.013846 0.211160 0.101363 0.205037 -0.037588 0.036101 -0.059708 -0.131352 0.089952 0.128913 -0.440371 -0.070279 -0.123086 -0.293505 -0.014794 0.156351 -0.079215 0.112478 -0.119958 0.104245 -0.141247 -0.077085 0.070261 0.342393 0.004085 0.266334 -0.127459 0.018997 -0.085623 -0.285443 0.109861 -0.051751 0.352602 0.198313 -0.183903 -0.188338 -0.249015 0.027278 0.198782 -0.098447 0.058509 0.060485 0.098281 0.204965 -0.189697 0.191029 0.059775 0.093149 -0.095958 -0.072200 -0.176396 0.153540 -0.153715 -0.311341 0.056069 0.024785 0.006728 0.035235 0.027916 -0.027294 0.285961 0.264484 -0.178688 0.024489 0.055228 0.041128 0.222724 -0.032906 0.132272 0.051764 -0.255214 -0.283868 0.002096 -0.065160 -0.160041 -0.282797 0.033200 0.273315 0.283195 -0.092237 0.218462 0.223320 -0.024197 0.128164 -0.184637 0.134232 -0.284028 -0.075013 -0.167476 -0.019774 -0.233028 -0.149042 -0.054853 0.091266
165 0.186507 -0.071037 -0.099941 0.182191 -0.093297 -0.016910 -0.233674 -0.025389 -0.087692 0.062093 0.215611 0.174434 0.077594 -0.066736 -0.000361 0.188702 -0.179252 -0.118324 0.003173 -0.290298 0.019644 -0.107371 0.059586 0.266959 0.365856 0.456251 -0.298548 0.017446 0.032989 -0.257277 -0.117909 0.206390 -0.206889 -0.102160 0.084738 0.040605 0.203466 0.155001 0.058809 0.180438 -0.248646 -0.217793 -0.102127 0.034266 -0.258795 0.065817 -0.105215 -0.552949 -0.286916 0.261067 -0.002818 0.040374 -0.091135 0.128369 -0.148327 0.042238 -0.257647 -0.016152 -0.080454 0.220432 -0.267056 -0.187975 -0.202588 -0.188665 0.032642 0.109429 0.102124 0.016931 -0.301961 -0.151556 -0.402537 0.207108 0.013895 -0.090022 -0.156573 -0.052080 -0.032538 0.023009 -0.049399 -0.027647 0.115276 -0.057389 0.017069 -0.050635 -0.225200 -0.015442 -0.186609 -0.172593 0.152790 0.109532 -0.126359 -0.117677 0.210125 0.057685 0.289262 -0.020272 0.012078 0.052355 -0.102335 0.189137 0.280659 -0.009564 -0.170603 0.143033 -0.049621 -0.172024 -0.031736 -0.283688 0.155216 -0.235616 0.093053 0.054940 -0.101996 0.129227 0.186901 -0.155223 -0.081498 -0.237670 0.231238 0.001001 -0.298769 0.085682 -0.146024 0.048473 -0.171380 0.029928 0.045057 0.144798
201 0.078129 -0.175367 -0.030112 0.062809 -0.055573 0.158668 -0.212892 0.072318 -0.176809 -0.222052 -0.139724 0.085962 0.011262 0.036867 0.001801 -0.075976 -0.300899 -0.241160 -0.027508 -0.000404 0.272819 0.115610 0.064652 0.295361 0.582749 0.101239 -0.109879 -0.197211 -0.015620 0.020002 -0.047574 0.048096 0.063103 -0.143442 -0.174926 0.186654 0.363356 0.203888 -0.136776 -0.046593 -0.368033 -0.078236 -0.027814 -0.010332 -0.506163 0.046108 -0.133464 -0.150314 -0.373035 0.036746 0.227503 0.099081 0.150062 0.124485 -0.250809 0.067670 0.085623 0.125465 -0.104952 0.343809 -0.256367 0.136677 -0.152990 -0.125461 0.123323 0.181884 0.335679 0.181351 -0.247778 -0.155535 -0.156646 0.012112 0.151133 -0.083179 0.208256 -0.118565 -0.033215 0.196895 0.064435 0.031036 0.053827 0.107003 -0.070554 -0.343181 -0.098846 0.037708 -0.081741 -0.092976 -0.191052 0.108566 -0.008652 -0.101075 0.240976 0.143381 0.199725 0.117390 -0.064250 0.046607 0.011482 -0.071321 0.243546 -0.177450 0.137102 0.170572 -0.017428 -0.215251 0.122977 -0.127740 0.025039 -0.058178 -0.136018 0.128784 0.121619 -0.121610 0.058451 -0.111338 0.149864 -0.144466 0.041196 0.201238 -0.073171 -0.239801 -0.144466 0.111351 -0.079897 -0.207245 -0.022689 0.114089
265 0.231254 -0.069467 -0.002278 0.177332 -0.272076 0.104148 -0.119744 -0.010450 -0.353741 -0.128162 0.013760 -0.020622 -0.152099 -0.083013 0.187072 -0.030250 -0.111908 -0.107536 0.075692 -0.031199 0.038589 0.077394 0.046213 0.362878 0.491434 0.161325 -0.109814 -0.103530 0.101175 0.087998 -0.235784 -0.035767 -0.034232 -0.016861 0.069415 0.248748 0.393100 0.213731 0.009612 0.083258 -0.212089 -0.137053 -0.044718 0.196854 -0.450796 0.290543 -0.109416 -0.331419 -0.287817 0.115094 0.032582 0.143510 -0.092740 0.040184 -0.141707 0.103950 0.108177 0.196227 0.158501 0.304711 -0.200369 -0.060037 0.019787 -0.054866 0.087883 0.120033 0.478898 0.175430 -0.181268 -0.305858 -0.147489 0.014309 -0.043617 -0.105230 0.006162 -0.034130 0.012952 0.206950 0.090484 0.029945 0.110030 0.105869 -0.004869 -0.284000 -0.071064 0.198151 -0.047763 -0.238786 -0.065477 0.084712 0.134846 0.198285 0.160193 0.080181 0.181737 0.284403 -0.134941 0.237522 -0.076862 -0.193212 0.351062 -0.127101 -0.058017 0.048278 0.092791 -0.245287 0.216914 0.114351 0.074827 -0.233155 -0.152644 0.029190 -0.055128 0.057186 -0.019026 -0.044780 -0.094084 -0.173431 -0.060379 0.228533 -0.009237 -0.307031 -0.179516 0.056764 0.050756 0.066737 0.129509 0.274166
465 0.198361 -0.063324 -0.010093 -0.010570 0.037436 -0.359383 -0.010119 0.039010 0.014195 -0.055527 0.070761 -0.008995 0.232719 0.035544 0.057127 0.070313 -0.074563 -0.078687 -0.212279 -0.199651 -0.145533 0.076009 -0.049451 0.416229 0.320494 0.043836 -0.216754 0.101378 -0.061983 -0.149886 -0.039740 0.222411 0.160454 0.014525 0.029531 0.272167 0.099430 0.216870 0.176261 0.238862 -0.189701 0.092605 0.012322 -0.084193 -0.274069 -0.171416 0.181947 -0.227240 -0.249679 0.175284 0.137344 -0.017783 -0.059773 0.133623 -0.003591 0.158510 -0.076954 -0.029374 0.175108 -0.006772 -0.352142 -0.074797 -0.185399 0.009508 0.377994 -0.106768 0.155365 0.311361 -0.008957 0.016283 -0.347895 0.069135 0.043924 0.230667 -0.307087 -0.102026 -0.002551 -0.140176 0.001357 0.039011 0.073700 -0.071410 0.050699 0.056786 -0.191867 0.063959 -0.186875 -0.232100 0.196876 0.184211 -0.410308 -0.155627 0.139113 0.146999 0.368619 -0.011432 0.111598 0.338223 -0.124540 0.361031 0.137182 0.081533 -0.158331 0.108004 0.233088 -0.095222 -0.116214 -0.283777 0.160253 -0.080197 0.284099 0.212324 0.143472 0.130937 0.327684 -0.046790 -0.073437 -0.183049 0.018506 -0.015113 -0.194416 -0.134945 0.019582 0.031768 -0.215099 -0.101364 -0.034023 0.144828
380 0.151772 -0.168980 -0.192164 0.166426 -0.126761 0.114491 -0.039126 0.069485 -0.129937 -0.432223 0.039832 0.067760 0.008282 -0.075402 -0.134371 0.133883 -0.035214 -0.150663 0.047306 0.065338 0.250304 0.108117 -0.061286 0.183563 0.228080 0.149432 -0.126948 0.238017 -0.079784 -0.105315 0.000754 0.026582 0.039145 -0.115702 -0.119656 0.084736 0.113337 0.065045 -0.014026 0.095678 -0.004249 -0.188710 0.020399 0.136277 -0.518754 0.054503 0.055995 -0.079631 -0.181119 0.070042 0.007151 0.043796 -0.046416 0.102209 -0.151983 -0.012914 -0.194274 0.064173 0.091417 0.340865 -0.099960 -0.037416 0.001788 -0.209330 -0.123384 -0.032249 0.333363 0.225982 -0.220499 -0.222461 -0.302349 -0.023378 -0.042450 -0.108832 0.087122 0.090854 -0.019895 0.140589 -0.118402 -0.031600 -0.015156 0.132712 0.026338 -0.089492 0.059964 0.110078 -0.208054 -0.164757 -0.052265 -0.064943 0.004316 0.080169 0.087773 -0.024626 0.238299 0.338449 -0.237738 0.142029 -0.182883 -0.032359 0.234760 0.068586 0.254192 0.242517 -0.085048 -0.275933 0.074326 -0.377624 -0.329083 -0.113194 0.152515 0.124370 0.032076 0.175523 0.195195 0.185243 -0.054769 -0.273677 -0.022535 0.208398 -0.027431 -0.060136 -0.295296 -0.037051 -0.189681 -0.237645 -0.104215 0.160720
124 0.383068 -0.132829 -0.035759 0.091832 0.078445 -0.193616 0.105553 -0.045167 -0.093103 0.082426 0.260582 0.101281 0.206586 -0.120275 0.190230 0.034947 -0.088988 -0.015408 -0.180898 -0.322593 0.098166 0.068328 0.111089 0.413664 0.308697 0.148282 -0.412903 0.376151 0.097767 -0.115251 -0.113080 0.294949 0.016435 -0.098598 0.020991 0.114118 0.176769 0.236533 0.138406 0.296728 -0.006493 -0.025818 0.074357 -0.040761 -0.083667 -0.215906 0.113941 -0.412562 -0.156149 0.239700 0.089668 -0.169899 0.074282 0.007623 -0.103768 0.180493 0.191477 -0.273569 0.238476 -0.174442 -0.508637 0.039162 -0.156400 0.119603 0.234098 -0.196363 0.265166 0.210624 -0.216211 -0.022065 -0.354335 0.048767 -0.001151 0.326771 -0.338638 0.044146 0.011511 0.041944 0.072439 -0.047466 0.212569 0.051178 0.074781 0.204559 -0.168627 -0.251779 -0.205611 -0.329369 0.266334 0.061020 -0.289953 -0.173023 0.238706 0.180756 0.226527 0.124746 0.208517 0.082145 -0.243228 0.419727 0.078946 0.004076 -0.098722 0.081885 0.149863 -0.081826 0.037684 -0.302351 0.171162 -0.044255 0.207245 0.167777 0.122744 0.251320 0.372002 -0.076011 -0.091142 -0.258837 -0.101943 0.057687 -0.480191 0.030758 -0.051879 0.278316 -0.416524 -0.063531 0.044859 0.058144
492 0.252973 -0.292230 -0.124996 0.081083 -0.075999 0.051003 -0.002631 0.078298 -0.039641 -0.273174 0.113455 -0.110840 0.043627 0.103044 -0.116935 0.025286 -0.256138 -0.103315 0.010492 0.088143 0.520227 0.138007 -0.053493 0.496691 0.266902 0.005251 -0.329920 0.328347 -0.061852 -0.002683 0.062739 -0.099321 0.173018 -0.276673 -0.018721 0.218126 0.176953 0.004711 0.209595 -0.189183 -0.031447 -0.160042 -0.095961 0.109992 -0.580106 0.024039 -0.089426 -0.005055 -0.009085 -0.120615 0.173552 0.053542 0.074555 -0.187549 -0.226546 0.166027 0.061479 0.441482 -0.154326 0.181750 -0.185763 0.056908 -0.139515 -0.290981 0.214159 0.187972 0.350432 0.013919 -0.008081 -0.205427 -0.253659 0.077255 -0.172820 -0.077172 0.028371 -0.009342 -0.047155 0.308493 0.106163 -0.019873 0.225148 0.213657 0.109522 0.035177 0.068981 0.068823 -0.127402 -0.260802 -0.185622 -0.015429 0.092944 -0.031395 0.082501 -0.035367 0.089348 0.456518 -0.201328 0.158673 0.117297 -0.166521 0.090310 0.269500 -0.194980 0.267600 -0.027074 -0.124157 0.022026 -0.159939 0.067330 -0.046380 0.077863 0.310611 0.119922 0.084496 0.091857 -0.068374 -0.028112 0.041421 0.146982 0.178098 0.014094 -0.115653 -0.236206 -0.012974 -0.317864 0.072000 -0.116154 0.061577
43 0.099250 -0.209620 -0.101808 0.065170 -0.125203 0.064136 -0.055812 0.029376 -0.041556 -0.263990 0.243132 0.042182 -0.014445 -0.101721 0.095340 0.001790 -0.051118 -0.179212 -0.070853 0.016444 0.131491 0.236634 0.189595 0.361527 0.248962 0.282487 -0.100878 0.153706 -0.062568 -0.082522 0.021625 -0.066295 0.204845 -0.102357 -0.114795 0.062995 0.200596 0.140281 -0.019632 0.067210 -0.192215 -0.211184 -0.075526 0.006512 -0.453589 0.038333 -0.047161 -0.237050 -0.114104 0.137480 0.052971 0.097334 0.065358 0.123167 -0.131346 0.094601 -0.051202 0.021201 0.063892 0.195708 -0.141151 -0.167163 -0.166816 -0.114564 -0.014363 0.060683 0.341014 0.122296 -0.221488 -0.269453 -0.285408 0.018564 0.005989 0.026330 -0.040103 0.018195 -0.218980 0.143352 -0.100486 -0.059479 -0.195219 0.228493 -0.080509 -0.211140 0.153071 0.167367 -0.234728 -0.098319 -0.076825 0.059199 -0.041536 0.091792 0.059237 0.036748 0.159932 0.118283 -0.179944 0.108336 -0.069264 0.136953 0.327548 0.191648 0.255313 0.193693 -0.110472 -0.115802 0.000087 -0.256050 -0.317235 -0.194575 0.262140 0.206750 0.029378 0.090711 0.109962 0.187369 -0.007379 -0.191425 0.007708 0.279481 0.010866 -0.338147 -0.078464 -0.070758 -0.219204 -0.096066 -0.070710 0.200069
476 0.161462 -0.191266 -0.181298 0.143752 -0.098644 0.046674 0.058646 -0.050891 -0.157350 -0.101386 0.102466 -0.051744 0.063339 -0.064619 0.002319 0.131402 -0.106223 -0.126361 0.077003 -0.023593 0.209594 -0.021292 -0.094468 0.199620 0.325070 0.129275 -0.108127 0.099117 -0.042086 -0.016643 -0.125931 -0.038381 0.018249 -0.135945 0.027668 0.193314 0.291410 0.264603 0.240580 0.040627 -0.284403 -0.151289 0.032453 0.173946 -0.491254 0.031810 -0.170625 -0.222703 -0.198288 0.148011 -0.196919 0.120766 0.122629 -0.049060 -0.153699 0.085019 -0.068893 0.190291 -0.035472 0.204914 -0.108957 -0.147716 -0.003634 -0.112936 -0.036190 0.133145 0.406459 0.188403 -0.232136 -0.195776 -0.108788 0.130589 0.146977 -0.060016 -0.020045 0.000016 -0.088099 0.107996 -0.068471 0.128289 0.102519 0.055201 0.082406 -0.117751 -0.078300 0.002831 -0.012126 -0.149048 -0.195635 0.196424 0.128046 0.135236 0.170273 -0.152051 0.140752 0.290940 -0.016544 0.232586 -0.059579 0.132889 0.294033 0.163194 0.089189 -0.014586 -0.046079 -0.262868 0.055137 -0.240817 0.016948 0.006426 0.171859 0.112125 -0.001917 0.121687 0.182894 0.198612 0.062999 -0.188155 -0.003864 0.235760 -0.158149 -0.219413 -0.371768 0.101363 -0.187437 -0.153190 0.048310 0.171120
442 0.258749 -0.317592 -0.088383 0.035424 0.130843 -0.014439 -0.065178 0.016710 -0.139047 -0.051146 0.177747 -0.206931 0.022009 0.025385 0.239454 -0.050326 -0.174147 -0.069277 -0.077578 -0.032464 0.252578 0.231522 -0.079558 0.469935 0.357951 -0.116709 -0.366490 0.177743 -0.095373 0.068925 -0.089993 -0.087694 0.326995 -0.136866 -0.231006 0.331146 0.129448 0.005549 0.053127 0.093245 0.081136 -0.252758 -0.021849 0.154054 -0.360899 -0.044154 0.080867 -0.011550 -0.008464 0.122877 0.116442 0.094635 -0.032724 -0.176679 -0.156271 0.084658 0.201178 0.312812 0.068073 0.356627 -0.163954 -0.044886 0.068956 -0.174917 0.270042 0.224077 0.327986 0.048358 -0.163894 -0.189718 -0.261107 0.228745 -0.111627 0.015410 0.031230 0.066916 0.036742 0.201300 0.060548 0.124999 0.281983 -0.111188 -0.117343 0.000857 0.132350 0.048048 -0.119428 -0.340871 -0.012503 0.014988 0.107460 0.076275 0.107877 0.117767 0.108840 0.242321 -0.170346 0.220113 0.054879 -0.083261 0.291824 0.030903 -0.197954 0.236516 0.182520 -0.238080 0.036268 0.080062 0.187398 -0.282711 0.061883 0.294672 0.084066 -0.067998 0.208988 -0.161140 -0.129360 0.076479 -0.202750 0.201447 0.023520 -0.155113 -0.177072 -0.063539 -0.161669 0.210509 0.088361 0.180130
566 0.429115 0.042704 -0.060867 0.438953 0.066816 -0.288771 -0.051393 -0.021543 -0.327660 0.100089 0.258102 0.198106 0.057903 -0.024128 0.101429 0.044766 -0.102317 0.020551 -0.241907 -0.321397 0.239631 -0.020825 0.088095 0.306341 0.424070 0.118377 -0.365430 0.178435 0.159888 -0.117833 -0.139865 0.269907 0.065727 -0.038451 0.085949 0.220146 0.225294 0.230643 0.146416 0.205976 0.129241 0.018022 0.098515 -0.153015 -0.243642 -0.207955 0.110207 -0.369939 -0.129826 0.125652 0.026752 -0.321731 0.062260 0.076008 -0.174700 0.189011 0.045032 -0.268946 0.359060 -0.020308 -0.536329 0.117665 -0.085194 0.006614 0.332823 -0.167948 0.109467 0.062757 -0.182202 0.021303 -0.418698 -0.077202 0.141023 0.051722 -0.226417 0.140719 -0.108263 0.072143 -0.098478 0.019733 0.067555 -0.022826 -0.002186 0.135880 -0.200964 -0.106057 -0.329323 -0.418095 0.301577 -0.128725 -0.229622 -0.292988 0.167226 0.250347 0.307678 0.159099 0.107338 0.023103 -0.251538 0.294280 0.095131 0.001000 0.018995 0.112829 0.090777 -0.112252 0.089624 -0.276022 0.063320 0.090216 0.146089 0.139041 0.025486 -0.027213 0.317936 -0.151650 -0.339639 -0.220929 -0.007551 -0.053175 -0.354900 0.273354 0.012950 0.239790 -0.237000 -0.100046 -0.081976 0.062387
252 0.153678 -0.223744 -0.062026 0.090909 0.029887 0.102271 -0.233594 0.124491 -0.089601 -0.212833 0.168696 -0.037739 0.053372 0.078590 0.048787 0.131968 -0.332176 -0.174931 -0.045557 -0.042847 0.301562 0.123509 0.004036 0.364985 0.342072 0.118378 -0.097142 0.041588 -0.074433 -0.015059 -0.094602 -0.134520 0.107933 -0.014278 -0.160177 0.061433 0.227791 0.365429 0.148482 0.024409 -0.132554 -0.054509 -0.011394 0.014679 -0.403979 0.264686 -0.212023 -0.167361 -0.127336 0.086948 -0.024038 0.130041 0.230096 0.033568 -0.234879 0.157939 0.037411 0.126957 -0.089935 0.081655 -0.242228 -0.054183 -0.215327 -0.123395 0.074657 0.094962 0.341190 0.157351 -0.237459 -0.056199 -0.270579 0.069642 0.029377 -0.118728 0.018455 -0.021610 -0.064056 0.194158 0.129693 0.030509 0.088315 0.072945 0.024942 -0.213224 -0.136287 -0.039888 0.010816 -0.229448 -0.205563 -0.082626 -0.030109 0.087653 0.071163 -0.091328 0.255167 0.217565 -0.164190 0.121136 0.037689 0.155784 0.135300 0.100320 0.095698 0.218993 0.151807 -0.101711 0.060198 -0.186734 0.041068 -0.233653 -0.009456 0.114697 -0.007907 0.045486 0.236092 -0.071669 0.076389 0.023643 0.039425 0.278344 -0.010160 -0.180516 -0.147586 0.118095 -0.163186 -0.068020 0.070654 0.168777
15 0.107117 -0.207713 -0.147356 0.137571 0.158503 0.161454 -0.131256 0.130626 -0.004229 -0.414674 0.017220 0.111937 0.014403 0.000254 -0.004975 -0.196177 -0.071122 -0.412067 -0.077080 -0.188626 0.126283 0.087921 -0.120958 0.288584 0.308951 0.250125 0.063059 0.252794 0.082827 -0.028510 0.100693 -0.333446 0.139499 0.078282 -0.010934 0.330070 0.098523 0.031827 0.005794 -0.043096 -0.248720 0.020928 -0.132470 -0.065758 -0.513869 0.043362 -0.180621 -0.141744 -0.098559 -0.019063 0.051664 0.243209 0.301740 0.190596 -0.112872 0.177713 -0.041207 -0.034599 -0.077419 -0.015934 -0.368836 -0.005972 -0.208592 -0.346395 0.014111 -0.031561 0.285906 0.152133 -0.169366 -0.010711 0.008261 -0.017010 -0.027135 -0.098142 -0.105553 -0.169986 -0.027960 0.211664 0.179428 -0.172933 -0.155931 0.172870 0.245348 -0.168218 0.119529 0.023138 -0.062622 -0.231291 -0.364604 0.277825 0.125698 0.063964 0.185674 0.074459 0.133173 0.175334 -0.141617 0.226594 0.052491 -0.111920 0.198749 -0.067315 0.199110 0.158284 -0.274855 -0.115584 0.018754 -0.236363 -0.274173 -0.208800 -0.086939 0.147905 0.115047 -0.025132 -0.008661 -0.157655 0.276405 0.037779 -0.053974 0.165140 0.074495 -0.083386 -0.252583 0.012572 -0.201073 -0.144515 -0.040029 0.109062
502 0.344642 -0.060761 0.116020 -0.144424 0.235913 -0.110890 0.180079 -0.057326 -0.089499 0.063186 0.168552 0.025185 0.268136 0.090578 -0.113640 -0.056724 -0.089314 0.068949 -0.091532 -0.104431 0.090150 0.085258 -0.040934 0.328321 0.266948 0.055459 -0.195434 0.404520 0.100357 -0.148969 -0.059249 0.397806 0.077000 -0.268242 -0.112019 0.152525 0.077352 0.221912 0.097139 0.277060 -0.109509 -0.004388 0.099786 -0.119541 -0.213911 -0.211009 0.098472 -0.353118 -0.194043 0.305476 0.027390 -0.300324 -0.011576 0.062011 -0.020305 0.052986 0.098523 -0.207926 0.341235 -0.092207 -0.449940 0.106490 -0.242212 -0.019218 0.157207 -0.086408 0.092405 0.310825 0.059010 0.083554 -0.417816 0.080296 0.036073 0.204684 -0.340038 0.075797 -0.043824 -0.060275 -0.108258 -0.021272 0.160473 -0.088032 0.262194 0.196699 -0.127895 -0.012104 -0.257315 -0.224002 0.164032 0.191924 -0.241830 -0.083604 0.293409 0.195576 0.205426 0.215242 0.158014 0.016351 -0.254359 0.419550 0.213825 0.102092 -0.112098 0.135078 0.005453 -0.037929 -0.065613 -0.372897 -0.023245 -0.103803 0.215472 0.202236 0.097391 0.292645 0.187539 0.028188 0.005274 -0.386454 -0.073228 -0.053863 -0.334092 -0.015368 0.060265 0.269104 -0.256009 -0.156104 -0.022427 -0.140486
151 0.397800 -0.003524 0.030398 0.074895 0.247035 -0.201289 0.021703 -0.059362 -0.095170 0.130122 0.126835 0.029493 0.214138 -0.050380 -0.027358 -0.122536 -0.043919 0.020088 -0.165247 -0.167769 0.237879 -0.094027 0.051228 0.256319 0.253425 0.105499 -0.348747 0.246535 0.123193 -0.069893 -0.042300 0.314707 0.138597 -0.091310 -0.092707 0.170229 0.040313 0.259554 0.106768 0.225478 -0.018605 0.074066 0.146386 -0.196120 -0.226386 -0.276362 0.121457 -0.282380 -0.235613 0.208767 0.015093 -0.223224 0.057926 0.042706 -0.178272 0.170092 0.214980 -0.271712 0.313771 -0.083064 -0.486314 0.059684 -0.129386 0.007320 0.325973 -0.124181 0.229799 0.352367 -0.010542 0.064698 -0.381977 0.025902 0.104595 0.389776 -0.263580 0.037126 -0.054458 0.015792 -0.001626 -0.051794 0.180105 -0.006992 0.122790 0.216633 -0.148915 -0.088599 -0.293018 -0.282765 0.279132 0.084603 -0.248952 -0.271430 0.215058 0.162163 0.194429 0.151910 0.144224 0.013762 -0.292952 0.327734 0.050107 0.049540 -0.069558 0.179901 0.092669 -0.087030 -0.038251 -0.357015 0.031402 0.035253 0.229833 0.230581 0.281542 0.154096 0.436559 0.156466 -0.201238 -0.218347 -0.139601 0.067097 -0.532666 0.078609 -0.052270 0.347308 -0.354569 -0.118352 -0.085001 -0.027663
78 0.185963 -0.220422 -0.258141 0.124074 -0.031098 0.017889 -0.149256 0.106895 -0.075575 -0.149828 0.189292 -0.156195 0.086394 0.037794 0.071048 0.105942 -0.283057 -0.108798 0.163266 -0.105352 0.186274 0.219332 -0.023794 0.372129 0.344094 -0.110911 -0.170321 0.159609 -0.144612 -0.086424 -0.134707 -0.152640 0.005008 0.022491 0.124654 0.010133 0.191062 0.303836 0.084891 0.071283 -0.190377 0.012545 -0.001455 0.146408 -0.217605 -0.032811 -0.078937 -0.046110 -0.299554 0.215807 0.086902 0.229261 0.113830 -0.144051 -0.175231 0.039913 0.103514 0.139284 0.182638 0.384930 -0.299824 -0.149429 -0.118682 -0.296714 -0.008451 0.185918 0.474460 0.373886 -0.089406 -0.135224 -0.184682 -0.026583 -0.004339 -0.024070 0.051283 0.015206 0.258042 0.198266 0.107180 0.031631 0.150448 0.100490 -0.293150 0.082711 -0.116439 -0.123488 -0.094218 -0.115619 -0.015639 0.010948 -0.096957 0.180899 0.136708 0.043226 0.146584 0.169319 -0.322933 0.088832 -0.083583 0.169518 0.146093 0.247913 0.104694 0.206930 0.046270 -0.012798 0.043055 -0.220314 -0.091339 -0.044752 0.064880 0.055641 0.132361 0.114271 0.193382 0.248524 -0.090637 -0.165251 -0.052219 0.198978 0.120023 -0.155732 -0.200502 -0.202079 -0.208857 -0.069236 0.002929 0.268063
35 0.254387 0.027565 0.055999 0.045189 0.210966 -0.130932 0.179684 0.053828 -0.306496 0.223307 0.134168 -0.052054 0.196891 -0.009444 -0.048176 -0.152516 -0.142497 0.037501 -0.113581 -0.045451 0.196925 -0.006200 -0.025422 0.226666 0.212429 0.061670 -0.352637 0.210371 0.125974 0.001483 -0.057809 0.358593 0.203841 -0.204342 -0.045910 0.194060 0.164281 0.220510 0.233309 0.133082 0.021328 0.113428 0.216208 -0.247130 -0.291634 -0.167511 0.097754 -0.301466 -0.190640 0.204193 0.081671 -0.242763 0.014511 0.009692 -0.186456 0.202029 0.254894 -0.265100 0.339288 -0.059662 -0.619857 0.079847 -0.211712 0.032916 0.355640 -0.119372 0.134776 0.233242 -0.096343 0.142560 -0.273622 0.014118 -0.063090 0.293312 -0.331900 0.088625 -0.226238 -0.004064 0.083653 -0.017314 0.051204 -0.013629 0.261562 0.186764 -0.114442 -0.072355 -0.311209 -0.267943 0.293206 0.097774 -0.279643 -0.099675 0.173980 0.183192 0.273824 0.161569 0.198225 -0.014409 -0.391546 0.284001 0.168421 0.133723 -0.129057 0.239517 -0.041359 -0.024224 -0.068741 -0.360877 -0.043767 -0.041719 0.329500 0.316612 0.287479 0.293969 0.225577 -0.001365 -0.160009 -0.258665 -0.145154 -0.021855 -0.411998 -0.042718 0.051996 0.312747 -0.189373 -0.133511 -0.061735 -0.052517
65 0.148490 -0.170059 -0.020533 0.189832 -0.053590 0.139292 0.017601 0.129076 0.035769 -0.072873 0.292594 -0.030983 -0.016843 -0.063655 0.037130 0.039503 -0.156196 -0.263144 0.161155 0.110844 0.193343 0.152241 -0.059450 0.431561 0.411838 0.033085 -0.130841 0.294450 -0.115237 -0.166922 -0.056581 -0.160549 0.185615 0.007655 0.011494 0.241785 0.256919 0.297856 0.224746 0.097576 -0.233712 -0.139400 -0.085451 0.037932 -0.465102 0.009924 -0.112753 -0.240000 -0.118470 0.189294 -0.101565 0.089242 0.040874 -0.057041 -0.119648 0.056065 0.032291 0.120940 0.073784 0.105385 -0.223923 -0.161779 -0.049039 -0.119424 -0.055497 0.052305 0.360528 0.140166 -0.171539 -0.145457 -0.265900 -0.140134 -0.052296 -0.012383 0.007035 0.150898 -0.137708 0.198986 0.104357 -0.094375 0.036279 -0.026080 0.003882 -0.198794 0.097809 0.000150 -0.008516 -0.070524 -0.018538 -0.002812 0.037664 0.255176 0.053663 -0.073117 0.220321 0.216565 -0.328805 0.116884 -0.024428 0.097537 0.206565 0.308676 0.258795 0.078500 -0.201701 -0.122507 0.167792 -0.087269 -0.150192 0.001623 0.161201 0.182573 -0.038016 -0.037978 0.238924 0.197068 -0.075409 -0.055628 0.015479 0.230017 0.070084 -0.109418 -0.053884 -0.094823 -0.076202 0.018647 0.103286 0.083577
390 0.200665 -0.220851 0.037666 0.015969 0.023304 0.260153 -0.085427 0.046767 0.042359 -0.061155 0.017784 -0.086387 0.085887 0.022667 -0.145520 -0.014154 -0.380231 -0.015336 0.217079 -0.017344 0.380392 0.182177 0.121168 0.227932 0.317928 0.006624 -0.263292 0.089014 -0.089560 -0.060119 0.127203 -0.155219 0.361367 -0.177332 -0.121614 0.296970 0.326497 0.182426 0.220518 0.197080 -0.066913 -0.274326 0.031960 0.086185 -0.306560 -0.000946 -0.092979 -0.026404 -0.189763 0.220162 0.190998 0.142662 0.079688 -0.126268 -0.255438 0.034911 0.119237 0.292244 0.198072 0.194614 -0.175430 -0.098437 -0.161592 0.045786 0.058293 0.160392 0.354526 0.121556 0.004082 0.022657 -0.418014 0.001225 0.138126 -0.083660 -0.081059 0.149003 -0.114314 0.136529 -0.112928 -0.052824 0.070727 -0.109041 -0.082814 -0.223590 0.131473 0.075388 -0.090065 0.198598 -0.061968 -0.015943 -0.004983 0.082216 -0.049444 0.024147 0.189538 0.389573 -0.258324 -0.151934 -0.147251 -0.018063 0.302291 0.003499 0.150605 0.219130 -0.091008 -0.210121 -0.079852 -0.002102 0.042468 -0.155500 0.037568 0.437928 0.184606 -0.049330 0.439710 -0.175861 -0.056250 0.046533 -0.006909 0.219210 -0.016662 -0.166275 0.099010 0.058726 -0.081303 -0.016063 -0.171059 -0.044704
111 0.303661 -0.042995 -0.106698 0.013332 0.123590 -0.020867 0.065611 -0.011703 -0.158565 0.168122 -0.042532 0.120958 0.268078 -0.218552 0.017461 0.024343 -0.247219 -0.044107 -0.119048 -0.306841 0.265844 0.230583 0.065088 0.373512 0.144269 -0.023133 -0.349908 0.261336 0.252780 -0.138455 0.013327 0.546968 0.096534 -0.063220 -0.093319 0.116330 -0.115805 0.006931 0.091300 0.135215 -0.021806 -0.031233 0.085888 -0.104653 -0.238658 -0.333448 0.197545 -0.397842 -0.112444 0.019565 0.187550 -0.016473 -0.114359 0.046222 -0.190158 0.136367 0.164695 -0.076595 0.582543 -0.175611 -0.510262 -0.093601 -0.064125 0.158439 0.170109 -0.162099 0.184157 0.179767 -0.168828 0.145017 -0.240815 -0.188146 0.164575 0.372669 -0.247864 -0.010462 0.071856 0.024468 -0.000337 -0.112356 0.166770 -0.380730 0.104269 0.270013 -0.056865 -0.232413 -0.124525 -0.257796 0.150202 0.033942 -0.310555 -0.080999 0.090248 0.063550 0.345193 0.203149 0.216965 0.104826 -0.124627 0.375267 -0.063440 -0.058653 -0.018456 0.105531 -0.074339 0.004917 0.166762 -0.307473 0.044154 -0.059696 0.227864 0.332837 0.222196 0.062499 0.093960 -0.106617 -0.100346 -0.358056 -0.154255 0.069860 -0.232955 -0.017243 0.047319 0.178548 -0.310196 -0.229376 0.004307 -0.105075
416 0.272970 -0.045422 0.017633 0.294953 -0.002076 -0.273758 0.065019 -0.066218 -0.327311 0.105998 0.276891 0.063195 0.318237 0.014326 0.048699 0.124413 -0.117849 -0.092651 -0.198206 -0.303826 0.072261 -0.065198 0.119547 0.313936 0.357660 0.102196 -0.471670 0.215213 0.021303 -0.073644 -0.017418 0.456157 0.063167 -0.150146 0.174192 0.199941 0.293945 0.225611 0.281533 0.290890 0.002007 -0.039357 0.107487 -0.106754 -0.083741 -0.298443 0.132713 -0.342961 -0.019647 0.068796 0.126186 -0.263842 -0.026563 0.046826 -0.083590 0.151261 -0.101284 -0.159153 0.274026 -0.036044 -0.520454 -0.044082 -0.154880 -0.023538 0.223382 -0.135069 0.113864 0.177896 -0.185180 0.031202 -0.385522 -0.047252 0.057880 0.108602 -0.428071 0.035709 -0.117235 0.064488 0.039148 0.131393 0.121269 -0.011379 0.025142 0.157495 -0.160324 -0.100974 -0.257650 -0.247918 0.227258 0.122779 -0.206323 -0.286020 0.304727 0.104690 0.341969 0.135495 0.045675 0.022081 -0.350621 0.254723 0.183641 0.097513 -0.031284 0.056524 0.034525 -0.009967 -0.012923 -0.283683 0.138208 0.009031 0.365362 0.274872 0.170304 0.320568 0.275002 -0.083942 -0.225302 -0.325965 0.020353 -0.048328 -0.338783 0.064236 0.000352 0.157113 -0.270268 -0.066066 0.031755 0.024118
93 0.101884 -0.128342 -0.025894 0.129139 -0.190001 0.207030 -0.048689 0.195985 0.037398 -0.177031 0.159988 -0.100193 0.065257 0.139557 -0.215620 0.145859 -0.334869 -0.104998 0.168361 0.275374 0.354989 0.009940 -0.075943 0.390325 0.425389 0.013666 -0.187858 0.190345 -0.082189 -0.091502 -0.001733 -0.102220 0.094523 -0.202766 0.081269 0.227754 0.403379 0.240610 0.334849 0.091959 -0.169200 -0.168214 -0.148473 0.180393 -0.413337 -0.008569 -0.215149 -0.043640 -0.409849 0.140383 0.141021 0.121075 0.145863 -0.092344 -0.243505 0.193543 0.201832 0.060246 0.052044 -0.033179 -0.224053 0.105804 -0.113066 -0.200132 -0.094099 0.089758 0.456550 0.096760 -0.196744 -0.131283 -0.067201 -0.018096 0.001951 -0.126815 0.021564 0.077406 -0.131995 0.101704 0.259622 -0.095383 -0.009357 0.019535 0.159116 -0.263231 0.029023 -0.103045 0.236598 -0.050991 -0.089239 0.129298 -0.139727 0.101630 0.110025 -0.209466 0.139873 0.226558 -0.139601 0.057677 -0.018236 -0.114574 0.262243 0.365637 0.318300 0.050812 -0.012706 -0.096693 0.195905 -0.031967 -0.031730 0.129422 0.122872 0.056192 0.068497 0.125917 0.268679 -0.021490 -0.147787 -0.102778 0.052339 0.189724 0.023090 -0.212371 -0.049186 0.081403 0.073799 0.024734 0.074685 0.061612
363 0.339460 -0.377144 -0.182172 0.119667 0.194123 0.030759 -0.163361 0.096962 0.050830 -0.385640 -0.032285 -0.081589 -0.095586 0.048193 0.206721 -0.214914 0.149030 -0.274947 -0.083772 -0.081638 0.057311 0.216556 -0.092717 0.276581 0.319618 0.069906 0.151414 0.109277 0.016031 0.013805 0.075341 -0.195058 0.267243 -0.023497 -0.087202 0.347384 -0.005672 0.001631 -0.147418 -0.094890 -0.195936 -0.125636 0.067672 -0.102314 -0.530217 0.048146 -0.035288 0.087177 -0.084871 -0.084429 0.221860 0.226630 0.200320 0.029900 -0.139601 0.219129 0.043056 0.087636 -0.060909 0.201238 -0.343174 -0.138877 0.008255 -0.213871 0.063058 0.099706 0.434321 0.170704 -0.153051 -0.061935 0.105100 -0.013740 -0.086134 0.008473 -0.152841 -0.191751 -0.036582 0.198037 -0.076519 -0.025351 -0.250033 0.135338 0.173249 -0.066966 0.337869 0.085707 -0.240498 -0.286226 -0.454694 0.191515 0.216583 0.151324 0.203560 0.298905 0.111571 0.186707 -0.129007 0.180493 -0.233613 -0.112716 0.351134 -0.045816 0.131245 0.399441 -0.079803 -0.235763 -0.126170 -0.452166 -0.197695 -0.037126 0.048928 0.158023 0.007458 -0.029697 -0.021710 -0.155810 0.152691 -0.148689 -0.180785 0.190231 0.208432 -0.212735 -0.220586 -0.221355 -0.104654 -0.183945 -0.075304 -0.050656
475 0.037462 -0.210792 -0.109204 0.252331 -0.323910 0.109256 -0.158253 0.179335 -0.080783 -0.343003 0.053124 0.031393 -0.047327 -0.157952 0.100398 0.093593 -0.051801 -0.229271 0.173675 0.069335 0.203286 -0.073669 -0.088464 0.399394 0.468364 0.104612 0.002483 -0.018150 -0.176223 -0.019407 -0.189604 0.035059 -0.049676 0.090231 0.144113 0.142812 0.355262 0.427766 0.284011 -0.050516 -0.152262 0.012150 -0.040851 0.113187 -0.441397 0.212175 -0.054293 -0.139322 -0.311015 -0.028260 0.014563 0.151037 0.045331 -0.078187 -0.149856 0.031994 -0.027853 0.042424 -0.014522 0.019080 -0.193720 -0.049557 0.177927 -0.136911 -0.031968 -0.077136 0.471283 0.320950 -0.229773 -0.098306 -0.259197 -0.032749 0.014937 -0.045392 -0.074476 -0.111301 0.041755 0.049179 -0.075978 -0.034223 -0.033765 -0.048955 0.159813 -0.250074 -0.075784 -0.022812 0.108159 -0.234077 -0.080577 -0.011650 -0.011510 0.240073 0.174675 -0.123290 0.279818 0.374896 -0.202664 0.128135 -0.141893 0.086969 0.227644 0.138424 0.193123 0.157784 -0.008179 -0.127930 0.184789 -0.168617 -0.087687 0.182607 0.157599 0.002251 0.016037 0.119213 0.148664 0.136759 -0.160521 -0.180183 -0.030024 0.075819 0.069509 -0.075377 0.043341 -0.124290 -0.046451 -0.231592 0.116213 0.061160
455 0.297532 -0.388775 -0.245023 0.209569 0.289353 -0.138652 -0.205929 0.150708 -0.040368 -0.299212 0.169500 -0.078431 -0.016087 -0.009938 0.134495 -0.312828 0.111897 -0.383414 -0.163627 -0.118189 0.001979 0.107160 -0.082270 0.322105 0.301091 0.177067 0.013400 0.189082 0.118163 -0.052074 0.074475 -0.486963 0.133118 0.015312 0.000951 0.433036 0.092059 0.156069 -0.140283 -0.128805 -0.284165 -0.069302 0.024420 -0.133922 -0.654118 -0.065882 -0.082819 -0.070658 -0.060649 -0.069745 -0.002642 0.153388 0.367572 0.082870 -0.082611 0.261759 -0.029484 0.003145 -0.012865 0.153549 -0.417174 -0.238566 -0.138130 -0.296167 0.064967 0.178136 0.356665 0.211788 -0.159243 -0.052337 0.163892 0.085971 -0.090252 -0.070473 -0.116573 -0.181953 -0.066502 0.305759 -0.050389 -0.047608 -0.229122 0.201330 0.123202 -0.077157 0.177982 0.106125 -0.194790 -0.297224 -0.434666 0.159951 0.333641 0.018579 0.079164 0.337532 -0.010338 -0.054106 -0.270838 0.241534 -0.167861 0.000429 0.243826 0.011105 0.152729 0.330264 -0.049765 -0.139628 -0.168582 -0.509361 -0.103039 0.000638 0.064845 0.160621 -0.071166 -0.085390 -0.019934 -0.153057 0.286671 -0.121463 -0.118591 0.271978 0.199318 -0.089536 -0.245486 -0.133898 -0.052712 -0.216747 -0.085214 -0.031693
218 0.368910 -0.195544 -0.042012 0.094214 0.059051 -0.119434 -0.035826 0.034171 0.080971 -0.020156 0.116709 0.187741 0.149359 -0.176645 0.146543 0.046529 -0.137706 0.032742 -0.122419 -0.290710 0.000778 0.090229 0.008249 0.322599 0.242741 0.269941 -0.218336 0.291415 -0.001742 -0.204228 -0.055645 0.275702 -0.003226 -0.050938 0.108469 0.307899 0.197292 0.169323 0.161919 0.330125 -0.053028 0.039905 0.031561 -0.103960 -0.175626 -0.080466 0.163441 -0.375184 -0.085218 0.178367 0.111313 0.077971 -0.008481 0.046567 -0.034232 0.196746 -0.041809 -0.022538 0.235603 -0.047982 -0.429978 -0.008384 -0.217691 0.261902 0.258163 -0.274678 0.065682 0.168952 -0.014343 -0.012499 -0.376373 0.002123 0.189705 0.254479 -0.290109 -0.040315 -0.040340 -0.104457 -0.165380 -0.141503 0.210978 -0.053235 0.075856 0.182644 -0.074655 -0.056153 -0.278828 -0.243686 0.330660 -0.031291 -0.438154 -0.130382 0.075450 0.248658 0.330140 0.202044 0.154348 0.190352 -0.177394 0.391865 0.047264 -0.028345 -0.191873 0.179799 0.232193 -0.046415 -0.043094 -0.171229 0.128129 -0.130222 0.229644 0.170867 0.120781 0.170508 0.447096 -0.147204 0.007745 -0.086359 -0.018893 0.035913 -0.412022 -0.020158 0.085425 0.143911 -0.407061 -0.100312 0.012295 0.240755
164 0.021119 -0.368856 0.083705 0.126599 0.006158 0.369618 -0.111767 0.248178 -0.034972 -0.336254 0.285177 -0.147197 0.086143 0.102978 -0.109960 0.073500 -0.278943 -0.230511 0.175723 0.013831 0.237644 0.096620 0.137062 0.253069 0.275150 0.065316 -0.066902 0.270315 -0.075911 0.007917 0.170386 -0.226502 0.269277 -0.250825 -0.151130 0.231894 0.337412 0.263804 0.226746 0.276753 -0.084751 -0.232591 -0.063252 -0.053432 -0.296474 -0.077974 -0.075478 0.009101 -0.289254 0.103638 0.029245 0.104790 0.364499 -0.098842 -0.168494 0.064268 -0.008926 0.132002 0.062901 0.051276 -0.243030 0.049052 -0.190280 -0.145759 -0.189597 0.064712 0.154487 0.181196 -0.160614 -0.096913 -0.210908 0.067632 0.057114 -0.090260 0.046894 0.080085 -0.121057 0.078637 0.216667 -0.063426 0.008152 0.014840 0.089661 -0.185291 0.145304 -0.049325 0.011591 0.046029 -0.175832 -0.047665 -0.001027 0.094992 0.096177 -0.094652 0.135860 0.268546 -0.279631 -0.029487 -0.094718 -0.016305 0.221573 0.116012 0.319696 0.214015 -0.187765 -0.239833 0.059094 -0.105084 -0.192961 -0.089177 0.068206 0.156573 0.115202 0.200051 0.466611 -0.225133 -0.015183 -0.068923 0.010698 0.252911 0.070535 -0.094200 -0.172692 0.149645 -0.116693 -0.116052 -0.089915 -0.040677
102 0.418022 0.004157 -0.008070 0.059891 0.244972 -0.147300 0.039701 -0.075183 0.029534 0.042960 0.200610 0.024919 0.190824 -0.080616 0.106686 -0.044596 -0.106336 -0.071175 -0.194145 -0.249569 0.169603 0.010451 0.118457 0.278255 0.294470 0.168299 -0.333645 0.264836 0.135605 -0.023271 -0.126821 0.267508 0.195651 -0.078965 -0.077908 0.138850 0.086950 0.279302 0.022265 0.242380 0.129882 0.057173 0.097389 -0.104139 -0.183851 -0.245174 0.061083 -0.432275 -0.127065 0.229856 0.070790 -0.144714 0.016835 0.040670 -0.174152 0.191896 0.301101 -0.253352 0.229080 -0.229067 -0.491142 0.091443 -0.119173 0.079384 0.243721 -0.167260 0.347395 0.370530 -0.131608 0.021057 -0.311013 0.028649 0.022693 0.393151 -0.306282 -0.031443 0.005554 0.047189 0.058794 -0.062343 0.190346 0.108429 0.116384 0.214881 -0.226795 -0.169603 -0.183302 -0.415112 0.248257 0.065633 -0.279289 -0.235815 0.253041 0.233540 0.204701 0.090575 0.235603 -0.060502 -0.325506 0.533779 0.067926 -0.051344 0.020121 0.101581 0.160739 -0.079891 -0.047943 -0.303994 0.093298 0.062408 0.215384 0.212564 0.230336 0.234259 0.306557 0.039821 -0.213218 -0.258119 -0.207400 0.167686 -0.445857 -0.042487 -0.062772 0.373925 -0.326120 -0.146762 0.012286 -0.032064
9 0.178396 -0.164786 -0.028429 0.080524 -0.094629 0.146547 -0.171366 -0.001117 -0.304815 -0.344737 -0.071749 0.130778 0.100993 0.016599 -0.026189 0.052990 -0.112546 -0.030869 0.138142 -0.075994 0.145720 0.086493 0.184002 0.264572 0.415364 0.098398 -0.091320 -0.103157 -0.087931 0.020151 -0.153921 0.151830 0.096413 -0.147672 -0.059327 0.096602 0.290407 0.195985 -0.206548 -0.089396 -0.345226 -0.111079 0.072065 0.098867 -0.494105 0.128398 0.027798 -0.155477 -0.351955 -0.049760 0.063351 0.158427 0.075828 0.126511 -0.146243 0.040771 -0.126929 0.123556 0.004146 0.243559 -0.226211 -0.058692 0.001547 -0.013420 0.058077 0.147931 0.413357 0.162314 -0.099750 -0.262631 -0.152863 -0.024877 0.280582 0.019852 0.005469 -0.098736 -0.010905 0.189910 -0.063803 0.037452 -0.114312 0.177390 -0.141054 -0.194384 -0.232849 -0.018048 -0.002775 -0.068957 -0.194999 0.070052 -0.004268 -0.032284 0.119767 0.265761 0.131938 0.219421 -0.079032 0.014600 -0.124119 0.000594 0.281517 -0.139309 0.023762 0.144040 0.005111 -0.279505 0.084076 -0.118484 -0.166359 -0.118149 -0.049463 0.019588 0.123631 0.003483 -0.040878 -0.116601 0.150922 -0.276257 -0.042447 0.096330 -0.053029 -0.350617 -0.120717 0.104827 -0.312910 -0.216462 -0.066900 0.153025
568 0.313181 -0.438210 -0.157967 0.202415 0.030601 0.058286 -0.215392 0.154487 -0.052047 -0.103798 -0.067561 -0.206162 0.003825 0.060588 0.195698 -0.293420 0.028617 -0.374095 -0.031590 -0.050723 0.147606 0.068563 -0.161444 0.410011 0.241800 0.025571 -0.119162 0.246621 0.123286 -0.062797 0.052908 -0.189654 0.090806 0.010629 0.181140 0.431760 0.055750 0.000927 0.013783 0.030702 -0.312372 -0.026926 -0.119642 -0.072773 -0.463964 0.062009 -0.076391 0.062356 -0.169777 -0.021370 0.183425 0.399626 0.138594 -0.156236 -0.172897 0.157089 0.040409 0.037844 -0.066661 0.270490 -0.300982 -0.079705 0.057028 -0.285317 0.144500 0.227904 0.296033 0.086072 -0.007719 -0.079645 0.058030 -0.034434 -0.177878 0.040554 -0.109979 -0.179077 -0.042294 0.128483 0.132625 -0.080188 0.098829 0.163310 0.068633 -0.004992 0.320398 0.064296 -0.318361 -0.149106 -0.243504 0.203791 0.159328 0.034818 0.175181 0.223485 0.088612 0.188971 -0.222414 0.347818 -0.065696 -0.152587 0.091133 0.162594 -0.062723 0.327034 -0.112013 -0.238812 -0.153622 -0.202929 -0.007961 0.131034 0.112487 0.100732 0.050434 -0.032789 0.139704 -0.199475 0.000253 -0.052928 -0.062112 0.086963 0.021762 -0.173056 -0.115410 -0.304535 -0.176743 0.000966 -0.109406 0.087916
322 0.218237 0.030771 -0.064257 -0.048358 -0.042304 0.097894 -0.173633 0.173086 -0.071795 -0.118043 0.084308 0.016540 -0.071871 0.003590 -0.054069 0.013009 -0.380621 -0.174130 0.155038 -0.020253 0.368482 0.270280 -0.029347 0.490027 0.324005 0.187092 -0.069184 0.402705 0.027720 -0.120014 0.057743 -0.122647 0.215329 0.057428 -0.090977 0.070458 0.317294 0.140904 -0.003333 -0.066758 -0.332345 -0.060966 -0.076241 -0.070256 -0.506235 0.075950 -0.185629 -0.198943 -0.211701 0.155991 0.218241 0.003792 0.025459 0.345124 -0.110708 0.231382 0.090187 0.036300 -0.027860 0.119525 -0.318465 -0.043159 -0.361291 -0.276624 -0.169588 0.082265 0.183773 0.084987 -0.127209 -0.078842 -0.080262 0.072122 -0.001685 -0.127647 0.130736 0.061092 -0.148456 0.114366 -0.040968 -0.125217 -0.048896 -0.014966 0.208317 -0.106047 0.055091 -0.014376 -0.082605 0.015533 -0.050091 0.110113 -0.037537 -0.129825 0.079682 -0.034916 0.155124 -0.009847 -0.203760 0.179000 -0.035959 0.121682 0.150392 0.178462 0.208920 0.221082 -0.133690 0.095509 0.105712 -0.353619 -0.263379 -0.226515 0.002717 0.150646 0.054004 0.007497 0.036128 0.079220 -0.030775 -0.082727 0.167569 0.233044 0.155511 -0.275262 0.099925 0.104795 -0.063105 0.067551 -0.156438 0.154300
552 0.201451 -0.345805 0.089833 -0.003772 0.010610 0.032454 -0.345636 -0.019181 -0.099520 -0.273361 0.332397 0.096084 0.087790 -0.152399 0.107768 -0.014440 -0.074701 -0.214371 0.065875 0.011999 -0.098108 0.167026 0.191568 0.434672 0.330960 0.295600 -0.085562 0.048488 -0.049765 -0.289797 -0.251335 0.007522 0.008664 -0.000132 -0.079728 0.151662 0.247557 0.162294 -0.275993 0.081184 -0.142344 -0.104594 -0.095930 -0.149159 -0.536023 0.211494 0.070248 -0.207353 -0.072078 0.041643 0.012021 0.166040 0.088394 0.113635 -0.117835 -0.014193 0.000469 0.035415 0.115075 0.027688 -0.047530 -0.201593 0.003661 -0.059092 -0.037576 0.057107 0.472087 0.036343 0.045951 -0.295070 -0.267132 -0.028732 0.014945 0.034924 -0.085595 -0.091747 -0.242033 0.203195 -0.085392 -0.168780 -0.029571 0.049979 -0.058006 -0.232896 -0.040623 0.082139 -0.006681 0.084851 -0.148529 0.002648 0.029104 0.183137 0.102913 0.097106 0.170885 -0.000871 -0.320644 0.060870 -0.092578 0.102493 0.141646 -0.034432 0.066165 0.224941 0.047747 -0.116541 0.026335 -0.011860 -0.036243 -0.186063 -0.005082 0.148134 -0.075107 0.052338 0.244923 -0.218130 0.255336 -0.044878 -0.084070 0.342141 -0.069145 -0.097954 0.093961 -0.013414 -0.346125 -0.071545 0.075666 0.139976
494 0.154374 0.068613 0.047312 0.147043 -0.062543 -0.000516 -0.171794 0.146561 0.028507 -0.202509 0.107878 -0.043694 0.022737 0.029514 -0.262992 -0.060715 -0.188034 -0.156390 0.033733 -0.050230 0.159489 0.184032 0.040331 0.419576 0.359995 0.148497 -0.139148 0.132302 0.167492 -0.182049 -0.032951 0.002107 0.015841 -0.108963 -0.152573 0.271625 0.126270 0.127273 0.274880 -0.055226 -0.253106 -0.274259 -0.085024 0.102799 -0.672138 0.038397 -0.019831 -0.153803 -0.084186 0.131829 -0.033490 0.067887 0.190472 -0.027948 -0.303400 0.009529 0.111351 -0.008186 0.406111 0.246388 0.085417 0.018296 -0.081707 -0.018611 0.134727 -0.014899 0.453877 0.176051 0.015509 -0.121161 -0.168415 -0.074461 -0.027179 0.027356 0.011957 0.013873 -0.234977 0.148354 -0.089309 -0.074622 0.120612 0.033902 0.053589 -0.227088 -0.167109 0.134131 -0.158439 -0.111543 -0.129380 0.148675 -0.153440 0.244458 0.103843 -0.168151 0.067902 0.337002 -0.198259 0.154671 0.085257 0.033741 0.388937 0.126195 0.174954 0.198639 -0.092794 -0.045548 0.130802 -0.126590 -0.010071 -0.007706 -0.030107 0.245731 -0.055062 -0.086788 0.163325 0.023561 -0.033102 -0.000764 -0.107304 0.248264 -0.100946 -0.002626 -0.114976 0.035540 0.039154 -0.008403 -0.116300 0.040632
457 0.238004 -0.340223 -0.171196 0.266951 0.286401 0.152159 -0.141193 0.192521 0.008597 -0.304212 0.022477 0.067498 0.005000 0.102443 0.021701 -0.298500 -0.020490 -0.331434 -0.207528 0.001139 0.164812 -0.020781 -0.138270 0.293173 0.345339 0.137787 -0.053000 0.178376 -0.022662 -0.119964 0.156044 -0.242522 0.131046 0.155072 0.016757 0.363394 0.003245 0.031448 -0.019510 -0.045971 -0.186397 -0.028929 -0.145161 -0.136813 -0.504066 0.055448 -0.139274 -0.147565 -0.195317 0.083667 0.074483 0.150035 0.313339 0.145858 -0.039275 0.214603 -0.010363 -0.044125 -0.169983 0.097744 -0.409464 -0.015095 -0.074228 -0.248721 -0.015676 -0.004951 0.271822 0.149907 -0.297457 0.059480 -0.140502 -0.015561 -0.204761 -0.030354 -0.229404 -0.129786 -0.108740 0.223799 0.128477 -0.219222 -0.213622 0.210137 0.074817 -0.284820 0.274167 0.007535 -0.231140 -0.196147 -0.355012 0.224428 0.230176 0.028751 0.175470 0.198752 0.207360 0.096603 -0.136256 0.228869 -0.052181 -0.226514 0.061912 -0.045258 0.187370 0.281444 -0.155670 -0.140879 -0.051645 -0.246492 -0.190222 -0.083602 -0.033493 0.219950 0.040075 -0.048545 0.053458 -0.084769 0.164386 0.085460 -0.023314 0.151819 0.088865 -0.048881 -0.390495 -0.171072 -0.100236 -0.208805 -0.055308 0.079672
287 0.110155 -0.173929 -0.115769 0.149003 -0.057681 0.237754 -0.084595 -0.120133 0.091999 -0.170121 -0.008228 0.003502 0.069564 -0.123501 -0.111168 0.076095 -0.062761 -0.115145 0.066797 0.054352 0.264866 0.103463 -0.064824 0.228869 0.301916 0.159737 0.027713 0.057215 -0.074882 -0.179391 -0.090155 0.066264 0.023380 -0.073904 0.016324 0.221350 0.042636 0.253890 0.218531 -0.044902 -0.144405 -0.055680 -0.120191 -0.005013 -0.477584 0.134198 -0.179211 -0.249030 -0.219274 0.198964 -0.170037 0.076491 0.155739 0.021899 -0.266271 0.035767 -0.127249 0.252413 -0.078055 0.176374 -0.105408 -0.104807 -0.124997 -0.111073 -0.045979 -0.065353 0.310574 0.310633 0.019744 -0.033001 -0.389995 -0.041233 0.146642 -0.005323 -0.056029 0.039550 -0.044867 0.178167 -0.095455 -0.056863 0.035435 0.003431 0.102340 -0.118994 -0.068255 0.085371 0.007071 -0.060582 -0.242311 0.009860 0.000469 0.110165 0.125527 -0.191631 0.263977 0.513466 -0.175386 0.193144 -0.016348 0.067086 0.168128 0.153009 0.091134 0.186163 -0.162009 -0.074944 0.059567 -0.311792 -0.073388 -0.098732 0.097988 0.177235 -0.003030 -0.005317 0.250130 0.237148 0.046231 -0.079681 0.046058 0.194995 -0.159524 -0.006526 -0.358722 0.094164 -0.177425 -0.282917 -0.078479 0.095146
187 0.180622 -0.199393 -0.038705 0.038491 -0.120829 0.280940 -0.159851 0.190105 -0.101569 -0.111663 0.169067 -0.060660 -0.039936 -0.049626 -0.109381 0.066228 -0.391522 -0.098437 0.202786 -0.118274 0.208636 0.178096 0.130648 0.179864 0.309901 0.111032 -0.133064 0.202758 0.025642 -0.118662 0.062138 -0.125695 0.208115 -0.182674 0.011254 0.329678 0.446198 0.154806 0.132848 0.291373 -0.173578 -0.345316 0.064390 -0.066454 -0.414699 -0.106284 -0.067580 -0.059648 -0.479637 0.093396 0.185522 0.078027 0.157186 0.006134 -0.288979 0.059193 0.183352 0.261218 0.127410 0.236429 -0.184190 -0.036251 -0.249102 -0.068444 -0.279946 0.000863 0.257608 0.161964 -0.152877 -0.053222 -0.158549 0.061001 0.072838 -0.092235 0.098618 0.022274 -0.024029 0.128490 0.123997 -0.048602 0.156671 -0.167320 -0.056911 -0.149741 0.110520 -0.052516 0.001986 0.286648 -0.096452 0.095526 -0.051244 0.055722 0.122121 0.041666 0.092917 0.072832 -0.182189 -0.070879 -0.116465 -0.100915 0.395239 -0.004754 0.236588 0.197980 -0.233997 -0.264397 0.028383 -0.050325 -0.024861 -0.203785 -0.111591 0.093920 0.075412 0.042619 0.406729 -0.172183 0.052571 -0.148151 -0.141268 0.151815 0.163728 -0.057823 -0.010348 0.035205 -0.095247 -0.044153 -0.130261 0.160346
147 0.180810 -0.108448 -0.083143 0.046594 -0.245474 0.450001 -0.168371 0.098662 -0.097254 -0.044287 -0.174400 -0.173018 0.103285 -0.019146 -0.010776 -0.020227 -0.172437 -0.058806 0.102227 0.086111 0.411544 0.153481 0.034788 0.379766 0.093055 0.191347 -0.221771 0.282770 0.091271 0.270414 0.170861 0.163834 0.297424 0.034097 -0.106981 0.186895 0.230154 0.096081 0.327195 0.151049 -0.068659 -0.321888 0.000970 0.067731 -0.424864 0.054697 0.008696 0.052728 -0.242390 0.080622 0.133370 0.222439 0.120926 0.012028 -0.387578 0.013902 0.108907 0.057884 0.103490 0.155998 -0.332589 0.142022 -0.087579 -0.154192 0.105854 0.003073 0.473530 0.127821 -0.084925 -0.232215 -0.332634 -0.143784 -0.061254 0.042729 0.043991 -0.019791 -0.029317 0.058950 0.331935 -0.146735 0.097608 0.074362 0.033484 -0.191277 0.212643 -0.091211 -0.222702 0.137628 0.085909 0.097942 -0.174660 0.147023 0.145357 -0.221011 0.074333 0.532035 -0.093348 0.041990 -0.183179 -0.124579 0.138669 0.107689 0.215321 0.264827 -0.249303 -0.117153 0.201782 0.054854 -0.243324 -0.056117 0.231184 0.125561 0.378405 0.003738 0.583001 -0.019666 -0.340968 -0.118368 0.035546 0.153188 -0.022569 -0.090299 -0.128917 0.071315 0.014375 0.045280 -0.048837 -0.042905
25 0.069073 -0.037591 -0.199155 0.174501 0.065845 0.132395 -0.130503 -0.091095 -0.113971 -0.180167 -0.139182 0.152912 0.152207 -0.134176 -0.153529 0.135321 -0.293582 -0.092875 0.050076 -0.131162 0.255713 -0.032165 -0.142083 0.209300 0.375902 0.015883 -0.038430 0.040107 -0.098271 -0.057233 -0.037569 0.007652 -0.101078 -0.041610 -0.011834 0.026289 0.099724 0.246327 0.057206 0.002071 -0.252163 -0.044988 -0.022078 0.119390 -0.374708 0.041309 -0.189886 -0.188379 -0.328570 0.129980 -0.050348 0.175368 0.075654 0.174914 -0.087034 -0.020805 -0.105136 0.017252 -0.054748 0.336965 -0.212810 0.035826 -0.148298 -0.163887 0.110555 0.144961 0.308284 0.279740 -0.239596 -0.057489 -0.180189 0.033539 0.192252 -0.151409 0.033876 -0.026989 0.124517 0.103849 -0.148576 0.020618 -0.097201 0.084768 -0.004142 0.019751 -0.060650 0.039471 -0.186866 -0.165153 -0.153123 0.157262 0.054009 -0.017097 0.266910 0.079690 0.358582 0.342296 0.018518 0.157933 -0.056336 0.072624 0.269164 0.010165 0.073956 0.088300 -0.085005 -0.223083 0.066200 -0.276293 -0.088209 -0.153823 0.008857 0.133261 0.234828 -0.039907 0.122787 0.174217 0.049262 -0.058626 0.039961 0.111399 -0.284347 -0.153054 -0.316332 0.050041 -0.331129 -0.227862 -0.107916 0.229876
330 0.242559 0.090480 0.073126 0.026434 0.126167 0.057779 -0.057546 0.098026 -0.094019 0.049513 -0.102454 -0.180490 0.205748 -0.109594 -0.035714 -0.050406 -0.052855 -0.055709 -0.076581 -0.113975 0.225277 0.038927 0.044487 0.497209 0.155808 0.157542 -0.145049 0.326038 0.138231 0.078221 0.013008 0.295920 0.096847 -0.003731 -0.132110 0.193233 0.150179 0.221663 0.228113 0.086246 -0.137272 0.010498 0.065561 -0.152955 -0.359690 -0.126797 0.086257 -0.184224 -0.172138 0.120732 0.063641 -0.091897 0.118704 0.157762 -0.188600 0.237490 0.068465 -0.338539 0.375551 0.000898 -0.271875 0.020355 -0.234085 0.029469 0.275327 -0.157546 0.245105 0.195236 -0.124059 0.004054 -0.194957 -0.056328 -0.087010 0.181084 -0.159719 0.048085 -0.004089 0.001614 0.105799 -0.086733 0.114926 -0.106497 0.100981 0.092364 -0.001884 -0.048205 -0.167668 -0.141012 0.251755 0.048839 -0.322352 -0.111234 0.354974 -0.009598 0.231733 0.257880 0.152504 0.228413 -0.144343 0.410470 0.237006 0.167927 0.042481 0.218270 0.005128 0.004384 0.151714 -0.340566 -0.044322 0.134643 0.203527 0.086967 0.121467 0.050393 0.318580 -0.047359 -0.235154 -0.222871 -0.008054 -0.020401 -0.137179 0.019126 -0.128027 0.264039 0.021258 -0.023726 -0.148082 0.062835
266 0.165969 0.045462 -0.088927 0.107625 0.128144 0.264046 -0.223762 -0.093588 -0.066398 -0.034633 0.159943 0.078007 0.001104 0.195539 -0.084764 0.128404 -0.258151 0.028390 -0.002106 -0.002999 0.160083 -0.012414 -0.090811 0.293594 0.330526 0.193034 0.078852 0.126234 -0.021316 -0.061241 0.060470 0.095758 0.046478 -0.127532 -0.100715 -0.015533 0.147154 0.202066 -0.030686 0.156705 -0.414058 -0.099034 -0.003316 -0.113480 -0.317364 0.116447 -0.073000 -0.403073 -0.368686 0.233510 0.015502 0.094175 0.101402 0.231843 -0.173239 0.018724 -0.091746 0.108179 -0.064275 0.327711 -0.376682 0.126071 -0.290953 -0.187507 -0.063835 0.056399 0.252502 0.100066 -0.116668 -0.202854 -0.363902 0.209514 0.170598 -0.139255 0.001158 0.147929 0.074527 0.045547 -0.192647 0.003680 0.093954 0.075182 -0.071843 0.001067 -0.043022 0.122262 -0.349400 0.080733 -0.022913 0.021747 -0.112470 -0.023216 0.221858 0.168733 0.332671 0.327278 0.101779 -0.101281 -0.226701 0.074959 0.149121 0.124882 0.114569 0.094543 -0.098665 -0.129976 -0.079806 -0.098832 -0.256022 -0.176789 0.033560 -0.044642 0.152513 0.050769 0.332286 0.112048 -0.048038 -0.217578 0.228418 0.071081 -0.205343 -0.108287 -0.286677 0.171099 -0.181895 -0.155141 -0.028451 0.119544
364 0.315634 -0.352222 -0.080367 0.340486 0.249068 0.153461 -0.122523 0.233832 -0.018579 -0.358708 0.127607 -0.108515 0.014953 0.055934 0.022534 -0.312440 0.045768 -0.366241 0.030292 -0.157661 0.216194 -0.019649 -0.116323 0.323420 0.370883 0.152975 -0.077465 0.195657 -0.001208 -0.135449 0.146742 -0.316554 0.103751 0.104666 0.211780 0.321706 0.011150 0.058229 0.075535 -0.018073 -0.293052 0.002989 -0.131442 -0.036377 -0.396506 0.005805 -0.204755 0.055269 -0.110344 0.012076 0.188050 0.351636 0.198257 -0.050091 0.037200 0.104704 -0.086356 0.061460 -0.159394 0.096631 -0.303448 -0.130217 0.057101 -0.306554 0.087000 0.225562 0.319104 0.220594 -0.125408 -0.051399 0.137752 0.036755 -0.198680 0.015947 -0.218139 -0.087274 -0.107814 0.122931 0.034456 -0.003054 -0.091474 0.244342 0.191998 -0.026388 0.200652 0.058659 -0.237813 -0.300403 -0.271153 0.357739 0.297106 0.053053 0.241543 0.124002 0.205196 0.214049 -0.219477 0.197244 -0.014354 -0.164757 0.184395 0.094069 -0.039937 0.360908 -0.208305 -0.201816 -0.114994 -0.382370 -0.260153 0.048713 0.032952 0.254853 0.212504 0.085067 0.036067 0.004990 0.128203 0.125336 -0.137572 0.188086 -0.075216 -0.175897 -0.241778 -0.235827 -0.248200 0.017639 -0.169899 0.036147
441 0.095924 -0.191324 -0.026212 0.081115 0.039753 0.181542 -0.016204 0.012734 -0.152575 -0.310926 -0.091244 -0.003411 0.069031 0.024237 -0.117851 0.015605 -0.239189 -0.113096 0.143895 -0.058472 0.299786 0.002826 0.071386 0.276997 0.423022 -0.111656 -0.274967 0.039780 -0.093072 -0.083801 -0.035117 0.023587 -0.010931 -0.056528 -0.007157 0.216150 0.228193 0.268084 0.002359 0.024596 -0.143165 -0.146642 -0.023204 0.104760 -0.338462 0.191163 -0.046335 -0.225362 -0.375878 0.103223 -0.027626 0.118019 0.123618 0.076224 -0.135979 0.002343 -0.032599 0.176200 -0.009663 0.379267 -0.085730 0.000378 -0.050584 -0.126472 0.052128 0.075550 0.408089 0.308607 -0.200240 -0.063141 -0.312604 0.051601 -0.017219 -0.006321 0.008449 0.071391 0.053847 0.151035 0.077220 0.033413 0.075006 0.033721 -0.191708 -0.277603 -0.217148 0.210489 -0.037509 -0.065670 -0.174562 0.000984 0.002488 0.042123 0.115774 0.109713 0.174598 0.345019 -0.069869 0.066223 -0.072917 -0.059409 0.243836 -0.086293 -0.035639 0.175957 -0.039893 -0.194386 0.174247 -0.191330 -0.040927 -0.191223 -0.000625 0.179026 0.002938 0.036791 0.243837 0.103355 0.110595 -0.214958 -0.018832 0.114619 -0.020198 -0.096925 -0.139688 0.094688 -0.138871 -0.130369 -0.039618 0.137861
46 0.449647 -0.065053 0.010671 0.135477 0.103626 -0.057846 0.089636 -0.168305 -0.007643 -0.037568 0.212378 0.070233 0.268997 -0.044697 0.074548 0.075215 -0.109688 0.089425 -0.059418 -0.252494 0.199100 -0.024493 0.145539 0.219841 0.171514 0.215464 -0.386616 0.397703 0.153148 -0.079345 -0.064967 0.346974 0.041218 -0.198273 0.125095 0.078064 0.149535 0.253996 0.183172 0.163163 0.008780 -0.154561 0.163786 -0.008032 -0.007510 -0.060121 0.012023 -0.375474 -0.044588 0.318068 0.104958 -0.020790 -0.025174 -0.022090 -0.066582 0.098163 0.185565 -0.180406 0.192307 -0.136277 -0.401475 0.145926 -0.233290 0.201979 0.164702 -0.227106 0.385796 0.266049 -0.138061 -0.061615 -0.234932 -0.001308 0.067542 0.331304 -0.371347 0.040278 -0.062656 0.043555 -0.131260 -0.022043 0.148571 0.100114 0.193684 0.193534 -0.279369 -0.216051 -0.261041 -0.309681 0.218579 0.104822 -0.365798 -0.103362 0.116956 0.193865 0.350775 0.300648 0.331723 0.005001 -0.219731 0.456839 0.191515 -0.001736 -0.053886 0.220708 -0.011619 -0.107843 -0.087251 -0.304678 -0.040927 -0.098133 0.288603 0.190083 0.288068 0.396122 0.341222 0.123371 -0.050800 -0.236576 -0.224936 0.204431 -0.521346 -0.046637 -0.030010 0.247155 -0.587143 -0.136346 -0.048510 -0.020845
170 0.195996 0.082137 -0.116475 0.171753 0.115743 0.233401 -0.341401 0.170920 -0.176628 -0.043381 0.257629 -0.184028 -0.064520 0.148705 -0.035672 0.045611 -0.185977 -0.009020 0.077063 -0.097914 0.114633 0.037439 -0.009274 0.208037 0.164205 0.190311 -0.045508 0.046956 0.163920 -0.027560 0.082248 -0.179270 0.034404 0.029099 0.070372 0.282685 0.321096 0.187195 0.012794 0.277366 -0.146529 -0.191273 -0.002532 -0.056829 -0.477069 0.180216 -0.058990 -0.206295 -0.370342 0.200548 -0.103868 0.209855 0.086725 0.131602 -0.334255 0.098720 -0.022031 0.096901 0.080655 0.346846 -0.055099 -0.131705 -0.203780 -0.198266 -0.093999 -0.170539 0.381661 -0.001682 -0.123354 -0.236596 -0.070397 0.194217 0.179021 -0.181793 0.026736 0.228092 0.029214 0.017314 0.008923 0.015742 0.197139 0.010500 -0.100419 0.040541 -0.052770 0.238945 -0.156825 0.161933 0.052231 0.011327 -0.112267 -0.013723 0.202376 0.010739 0.196063 0.200624 0.028162 0.176854 -0.137781 0.020677 0.357799 0.072502 0.027212 0.137896 -0.056548 -0.196445 -0.048800 -0.053988 -0.013180 -0.102173 0.131713 -0.020380 0.015690 0.069513 0.641537 -0.225121 -0.011419 -0.232536 -0.023466 0.231125 -0.135004 0.101361 -0.245942 0.330447 -0.076380 -0.146439 -0.125405 0.251525
